ANTLRNoCaseInputStream1925.java,0.17690018 -0.80537325 -0.48482192 0.38433254 0.26734734 -0.3855166 -0.25075248 0.5903715 -0.39606428 -0.3141716 -0.10752525 0.22369751 -0.3370338 0.12798509 -0.41074088 -0.41086632 0.73199934 0.4428617 0.20189042 0.42431587 -0.09917882 0.28566992 -0.047894478 0.58818066 -0.39972633 -0.5541853 -0.18477595 -0.49047187 -0.78881687 -0.24277979 0.19237795 0.7536334 -0.5482331 0.60002106 -0.13651218 0.21684527 0.5398339 0.6199899 0.03362086 -0.32671076 -0.061138686 0.081146404 -0.36788553 0.0379629 -0.13886002 -0.24246904 0.13457026 0.5126186 0.25209275 0.7735729 -0.23311962 0.57500005 0.4522718 -0.26703385 0.4947333 -0.18549429 0.22887704 0.49805477 0.20769264 0.79074204 0.27666774 0.6333973 -0.56712484 -0.7439911 0.60337913 0.1440544 -0.42240125 0.42503595 0.3898887 0.3954812 -0.34221834 0.18387216 -0.21749745 0.09506266 -0.7149004 0.40003484 -0.23199326 0.4412681 0.15530008 0.83068174 0.009616703 0.11682269 0.7367016 -0.50863767 0.079310566 0.094151594 0.73008394 -0.6951382 -0.27281073 0.24183427 0.2285747 0.3392701 0.84308153 0.044802062 0.36468005 0.1480538 -0.115257725 -0.24053983 -0.4760883 -0.04936727 -0.10931879 0.10977555 0.11278875 -0.6571647 -0.37067404 -0.7110943 -0.4011191 -0.17465618 -0.56728184 0.13652554 0.6114856 0.25882623 0.11035248 -0.0064734938 -0.1785506 0.35469115 -0.6627352 0.74118793 -0.48689806 0.116184786 -0.71868306 0.78454596 0.31606302 -0.13660054 0.8701067 -0.12535955 -0.3158294 -0.14495695 0.42761704 -0.16521302 -0.32697922 0.05070824 0.3629354 -0.1293754 -0.28011736 0.08254876 -0.6935142 0.16000755 -0.61948544 0.05440397 -0.08513966 0.022726476 -0.21376997 0.09831942 -0.3952365 0.3641589 -0.3096454 0.732569 0.61128694 -0.25421295 -0.8424976 -0.5410621 -0.36575857 -0.5103896 0.27852386 -0.3057638 0.332521 -0.45761576 0.4340871 0.4736281 0.11666548 0.45662794 -0.2751745 0.67341954 -0.513317 0.610344 -0.7610357 -0.6049151 0.09619589 -0.3112732 -0.18490407 0.033278346 -0.5316982 0.10675006 -0.16026099 -0.30750597 -0.077261806 0.113495775 0.7466825 0.2675428 0.1976825 -0.48774865 -0.16960797 0.12340074 -0.25517866 -0.52759254 0.07686713 0.5002628 0.52694017 0.30087015 0.4444582 -0.29463458 0.33251482 -0.40531263 -0.3225967 0.19839226 0.6137966 0.36252147 -0.7017419 -0.14408094 -0.63367194 -0.26195675 0.17238231 0.33658427 0.07483966 -0.21610181 -0.07758706 -0.013049564 -0.30868703 0.08270707 -0.06914138 -0.51403266 0.1168191 0.25700578 0.053313192 0.7103963 0.56942976 -0.34049687 0.19960307 -0.00077796465 0.109685004 -0.686625 0.5144801 0.15828991 0.24169314 -0.08756386 0.011269055 0.64353806 0.25350487 0.5723014 -0.2364091 -0.030320674 0.27704388 -0.62069625 0.16007085 -0.42196125 0.38875315 1.7965504e-05 0.4848744 -0.7082265 -0.671039 -0.65688205 -0.1071918 -0.44308868 -0.20416512 -0.17798616 -0.19597116 -0.28266954 -0.030915387 -0.0361623 -0.34282833 -0.004671825 0.5559297 0.07051327 0.20586424 -0.18035752 -0.23202564 0.016154783 -0.21778691 0.87321335 -0.30982575 -0.24259108 -0.395334 0.33667552 -0.34945983 -0.4711729 -0.11470206 0.6153004 0.58030623 -0.44074875 -0.1668221 0.051538825 0.27292323 0.0950273 -0.22475812 -0.65013045 0.40638834 -0.07223704 -0.094091795 0.26393408 -0.5798931 -0.106979124 0.18253478 0.2867958 -0.5479475 -0.7178432 0.1509429 0.66152275 0.44171903 -0.2815924 -0.020503461 0.35961437 -0.3145092 -0.3864087 -0.19425261 -0.5184759 0.18519434 -0.39992553 -0.20892078 -0.62135196 0.80087626 -0.062389992 -0.11081748 -0.67748845 -0.60220855 -0.011027265 -0.46054494 0.15548074 0.7567762 0.067613155 0.06680352 0.30296987 -0.3552836 -0.51606184 -0.5058328 0.5551985 0.4021086 -0.26403695 -0.5457406 -0.029797181 -0.2839718 0.1709841 -0.6689346 -0.6986889 -0.17891952 -0.2629303 0.1639191 0.111259945 -0.25711727 -0.25416684 0.17106795 -0.39718485 -0.50155145 0.7262707 0.53460246 -0.15823926 0.045063388 0.16935411 -0.41661397 0.045543347 0.39218712 -0.41237766 -0.5781323 0.36386034 0.5415365 0.033792417 -0.7885715 0.5721655 -0.17354381 -0.19047767 0.31191617 0.08326083 0.59646404 0.5373438 0.008310351 0.011999515 -0.13680986 -0.2299828 0.67476195 -0.42928007 -0.06986357 0.47682908 -0.23899025 -0.15588611 0.26996523 0.60599315 0.20494437 0.257861 -0.040687636 0.3276925 -0.35737866 -0.101961926 0.15105075 0.070237115 0.23144372 -0.40441537 0.19792157 0.010175292 0.21753812 -0.052658785 0.40973395 0.21842967 -0.41224533 -0.6735438
CalendarSource2529.java,-0.99417144 -0.89207196 0.3423483 -0.9997429 -0.66504043 0.17579362 -0.62381876 0.28853545 0.03867295 0.17553982 -0.81372786 -0.08927054 0.27010065 -0.8358632 -0.92085606 -0.81830955 -0.91556305 -0.95812404 0.039868284 0.5431899 0.907799 -0.25788152 -0.5220596 0.074628085 -0.3163977 0.19671421 0.96283555 0.3399393 0.0022578463 -0.48178202 0.1741258 -0.29276565 0.6504255 0.72540206 0.10081801 0.48606527 0.6589607 0.24435978 -0.2858482 0.73746544 0.28815427 0.1435445 -0.7503479 0.30319995 -0.53059274 0.8681035 -0.12587881 0.17176051 -0.7481161 -0.9941847 0.8768254 0.8531959 -0.8734704 -0.149023 -0.7812089 0.04364063 0.27067634 -0.4174008 0.665524 0.7294579 -0.59818697 0.865243 0.97646797 -0.08679092 0.19498773 -0.8352683 0.71159846 0.82100785 0.5428031 -0.52809244 0.5157834 0.20753099 0.53058296 0.67778313 -0.0045649223 0.077777356 -0.9844019 0.86477864 0.851564 -0.18437329 -0.96082604 -0.96890813 -0.37972662 -0.4127323 0.01898633 -0.38858876 0.5589226 -0.69622886 -0.3686393 0.64305884 0.9713963 0.97321403 0.88081586 0.9968962 0.2464411 0.8630003 -0.92823493 -0.56575763 0.97065043 0.73102003 -0.35527623 0.0021972433 0.06484589 -0.56540203 -0.85017645 0.17531806 0.5533932 -0.015566047 0.60188866 0.81100005 -0.0019788034 -0.03395153 0.5586676 0.38725594 -0.051670346 -0.96548367 0.69623315 0.056755744 -0.90748763 -0.3613453 -0.71126884 -0.6586489 0.30990508 -0.20164298 0.87377363 -0.5817926 -0.400871 0.5372874 0.8746256 -0.4780738 0.7357197 -0.71451443 -0.10857238 -0.8516818 0.16094677 0.33715636 0.78554827 -0.5242011 -0.21201678 -0.7217545 -0.43240502 -0.84252053 0.47363943 -0.06986864 0.78151476 0.86865896 -0.21353541 -0.085044295 0.66327983 0.93144935 0.6376858 -0.43102822 0.28426108 0.99999297 -0.9271849 0.13963076 0.94330585 0.1374906 0.62761277 -0.67701715 -0.23504987 -0.93676525 -0.9507562 0.662284 0.9092095 -0.52620745 0.6992967 0.6576406 -0.12179927 -0.36973202 -0.5078922 -0.3718596 0.19750297 -0.81401944 -0.21143882 0.86508536 -0.048426002 0.85972685 0.44151822 -0.79064834 -0.8410081 -0.4256902 0.152559 -0.6181529 0.7252342 0.104746856 0.22880274 0.79728717 0.7575966 -0.345279 -0.5944835 0.51412743 0.94481665 -0.96376514 0.48709258 0.7868376 -0.4280704 0.34942982 -0.082721025 -0.6963006 -0.21060804 0.66815704 0.26225287 0.2152144 -0.5567433 0.9412846 -0.85290414 0.57417774 0.00894168 -0.98785317 0.9796138 -0.5262576 0.51926374 -0.2100059 0.7919387 -0.83851004 -0.1685011 0.7069491 -0.8428297 0.8584882 0.63897526 -0.5394737 0.97124094 0.92713296 -0.36526275 -0.99472046 0.098612405 0.10309582 0.43467605 0.7843456 -0.97079545 -0.5711248 0.025042504 0.9978392 0.29109284 0.81011605 -0.09186663 -0.3995722 0.2507004 0.976508 -0.804895 0.32358867 0.12003284 -0.62206304 0.8101645 0.70788366 -0.39293048 -0.020841531 0.6331981 -0.8135174 -0.5287444 0.024555396 -0.12777385 0.5682908 -0.5568146 -0.85815084 -0.28512305 0.91823167 0.04543931 0.11876784 -0.18031855 0.88398963 0.775813 0.7730334 -0.71864974 -0.27910417 -0.78037983 0.24038349 0.899956 -0.3621873 0.03055298 -0.85807663 -0.58362335 0.36072934 0.17146917 -0.2128787 -0.4654711 0.57863086 -0.032941148 -0.52377236 -0.3296417 -0.87954766 0.90690154 -0.50916225 0.82352394 -0.5506047 0.9987979 -0.11775888 -0.7118697 -0.99613106 -0.004713068 0.84470767 -0.051452853 0.77043587 -0.71885604 0.7589139 -0.33174238 0.5144585 -0.32394877 0.65403694 0.15021242 -0.0928677 -0.62022084 -0.3191279 0.60041296 0.8157635 -0.30619252 0.3624804 0.4871237 -0.4826883 0.94885767 0.26603276 0.16104075 0.376967 -0.68377846 -0.0008844584 0.21885806 -0.9969151 -0.5680118 -0.4677075 0.68988866 0.2773994 0.6405725 0.38141465 -0.9882241 -0.052051872 -0.57175267 -0.3354813 0.8307594 0.3433615 -0.22724822 -0.59768486 -0.45853102 0.63101393 0.9015731 0.500695 0.7354617 0.9613544 0.7503635 -0.86956984 0.9957904 -0.29426622 0.2848916 -0.89000565 0.14040685 -0.26393783 -0.39768654 0.18507782 -0.107470214 0.23126063 0.7583968 -0.02207749 -0.21664008 -0.46106976 -0.1847013 -0.81448996 0.13476135 -0.93205565 0.24308188 0.33122146 -0.21915531 -0.2862596 0.31024402 0.088784024 -0.87654746 -0.65125906 -0.104770236 -0.9991573 -0.09579397 0.025411144 0.3701331 0.8406782 0.91998583 -0.9259492 -0.82008284 -0.34477508 0.5806463 0.98598695 -0.66054624 0.9856 -0.9861474 0.7977734 -0.34910268 0.47938758
DateGroup104106.java,-0.11417946 0.004898091 -0.42045668 0.35961586 -0.13727012 -0.5683539 0.29590484 -0.28163883 -0.6674133 -0.668552 0.2674472 0.52267414 0.3666185 -0.065508716 -0.2968607 0.48438257 0.60855883 -0.42435226 -0.5889046 0.061540533 -0.0194433 0.6001229 0.10630491 0.7260571 0.306504 0.2674704 -0.21084483 -0.07680094 -0.48919973 -0.07885084 -0.56156 0.76568294 -0.26409328 0.3846872 -0.6144434 -0.46183172 0.20611264 0.16578045 -0.11454015 -0.628787 -0.49819404 -0.6582246 -0.23576435 -0.68770844 0.19558 -0.46770683 -0.058726694 -0.044448875 -0.7388564 0.65510607 -0.6357675 -0.11607928 -0.7260909 0.41632605 -0.16400851 -0.780191 0.5865193 -0.70623034 -0.14395083 0.36847135 -0.06921616 0.22031765 0.3486384 0.7576796 0.06842119 -0.22364761 -0.10681955 -0.36332363 0.6420652 -0.3013124 -0.9045928 -0.8156418 0.13422069 0.1679974 -0.768414 -0.29618558 0.6697225 0.7893473 -0.52324003 0.55414164 -0.75410223 -0.7762038 0.26284513 0.7115212 0.30607197 -0.7532273 0.1025743 -0.12711161 -0.051581375 -0.25343618 -0.3228919 -0.13125771 -0.5335312 0.05240166 0.15722986 0.6943245 0.6824276 -0.7361234 -0.20835392 -0.06326823 0.103288524 -0.5026287 0.8452659 -0.2881717 0.0965948 0.15046981 -0.2882993 -0.24467191 0.250106 -0.26316622 -0.021770054 -0.05351468 -0.47898316 -0.5726932 -0.3941874 -0.32136065 -0.804119 -0.6175999 -0.3825429 -0.4192444 -0.038959846 0.31992978 0.54660916 0.033628594 0.4690426 -0.65406233 -0.056400064 0.83749485 -0.63031846 -0.7634244 0.66128063 -0.055256777 0.14104898 0.28633258 -0.6586009 -0.21045174 0.2257464 0.020454716 -0.4478365 -0.550233 0.05959666 0.82965815 -0.31430393 0.13193692 -0.08587351 0.6744994 0.030002031 0.01616381 -0.7978379 0.3196802 0.14092399 0.206352 -0.1970859 -0.051832143 -0.49624112 0.37037587 0.6363373 0.6083326 0.65947765 0.19923648 0.36494884 0.25992182 0.7217402 -0.48236033 -0.13493663 -0.51616114 -0.64266264 -0.64070994 -0.54171216 0.59336466 0.05074065 -0.116972245 -0.7694193 0.5236247 0.06917337 -0.8064032 0.8030651 0.8708667 0.1318713 -0.61394066 0.16699131 -0.29363844 -0.3523026 -0.4118313 0.34658718 -0.68623203 -0.23222978 0.41776577 0.6523875 -0.10482663 0.8314976 0.42097685 0.21237934 0.35135275 0.34026542 -0.34613663 0.15786165 0.43623716 -0.84499305 0.49131137 -0.18470877 -0.53959024 0.44753313 0.11242904 0.8524563 -0.39723498 -0.23604076 -0.42411587 0.04072501 -0.48063806 -0.020371256 -0.7511685 0.3184602 0.32848158 0.5057768 -0.122206055 -0.4236343 -0.39352635 0.5577743 -0.5195715 -0.54520744 -0.7112483 0.62249565 -0.37614456 0.30565622 0.22149694 0.41483945 0.58235765 -0.4795407 0.5343795 0.36980078 0.15624234 -0.64137036 0.39488792 0.52791005 0.039387263 0.38453618 -0.7365889 0.51658237 0.23954993 -0.4189319 -0.49709013 -0.46697932 -0.17749009 0.35869536 -0.90486467 -0.66083515 -0.07247156 0.1290679 0.5410869 0.05809211 -0.52303046 0.18612175 -0.60286593 -0.60131484 -0.4874946 -0.4297162 0.61627 -0.75158 0.7464361 0.27549013 -0.08240185 -0.53467417 -0.30660573 -0.74039614 0.59963024 0.22963345 0.85156745 0.61057687 -0.75139946 0.6731701 0.510118 -0.39059094 0.7096561 -0.22888392 -0.15941057 0.6419229 -0.7945827 0.35300624 0.91277003 0.45236334 0.83828694 0.5674797 0.75814766 0.2507493 -0.21806158 -0.21407531 -0.73849684 -0.16343546 -0.8871924 0.23085573 -0.773047 0.07134311 -0.041453727 -0.77478707 -0.58110267 -0.18079802 -0.5075933 -0.22660089 -0.7015435 0.52641904 0.010955539 -0.65400946 -0.6461536 -0.69023085 0.72446287 0.3815722 0.38100168 -0.17743802 -0.82304794 -0.18956317 -0.32998005 0.08959202 0.056167267 -0.68187237 0.8783568 -0.55876416 -0.12415385 0.45221788 -0.5322022 -0.3645778 -0.64538896 -0.6068105 0.26086923 -0.20009108 -0.4851104 -0.29345247 0.26504353 -0.43829823 0.55414116 0.43554056 0.4758532 -0.28757846 0.93761134 -0.35130993 -0.4171074 -0.6480195 -0.034221403 -0.37650573 0.37579253 -0.7549378 0.16617191 -0.06378793 0.76926297 0.0132536115 0.26203403 -0.63306636 0.86424404 0.55069596 0.29336578 0.0046527255 0.37455657 0.05176631 0.8004765 -0.3361226 -0.28147954 -0.3186619 0.041359514 -0.13715123 -0.34606034 0.55266494 -0.046633467 0.80206305 -0.46212572 -0.67692286 0.008656081 0.5016881 0.10014972 0.03403944 -0.001458924 -0.5207266 -0.307372 -0.06308113 0.24723512 -0.8100752 -0.344655 -0.4401044 0.081733964 0.42886445 0.082745105 0.13747391 -0.6533433 0.33607838 0.14683993
DateGroup111113.java,-0.92023146 0.8877269 0.34577078 -0.8708526 0.46386355 -0.36648518 0.40268642 0.51277006 0.1955848 0.90701604 -0.9328191 0.5330523 0.8527317 0.84072405 -0.22232512 -0.9675381 -0.25140443 -0.12274471 0.891279 0.13589218 0.41119012 0.46282196 -0.064649016 0.8209534 0.47023213 0.8007865 0.25390968 0.47043988 -0.13894376 -0.5354954 -0.15845737 -0.6284984 0.010183215 0.87005556 -0.36468622 0.38351405 -0.78286636 -0.20402479 -0.59271526 0.45949423 0.896284 -0.094583064 -0.376329 0.25604838 -0.3622147 0.4961394 0.12272334 0.90784055 -0.40001488 0.16391316 0.2881655 0.26774547 0.42104456 0.9791796 -0.46831125 0.9646876 0.3035298 0.43357152 -0.90985453 0.021597654 -0.22170399 0.428209 -0.16161215 -0.30544814 -0.95522165 -0.4576726 0.16960983 0.24644783 0.14392458 0.3070641 0.2527373 -0.04812017 -0.43283033 -0.24666953 0.6757639 0.37512922 -0.92908156 0.39423576 0.32653743 -0.24495836 0.4791065 -0.25954574 -0.099052906 -0.786209 -0.2467353 0.09654184 0.9961735 0.16587216 -0.33447075 -0.12538442 0.6727549 0.40693963 0.37801105 -0.5914685 0.087319896 0.9886416 -0.1678834 -0.62968755 0.0066919625 0.0011817068 -0.1792951 -0.008389294 -0.22947918 0.24193406 0.10386379 -0.52137125 -0.12984754 0.25994062 0.05412036 0.40504283 -0.12282428 -0.4188542 0.50128174 -0.3890662 0.34861308 -0.9217622 0.7701668 0.2677853 -0.094725996 0.34681013 -0.9975815 -0.3602256 -0.63916665 -0.62120736 0.5602882 -0.62411344 0.003401816 0.31389722 0.3221551 -0.16958883 0.31375572 0.19593406 -0.68458486 0.6052263 0.23406464 0.41438603 -0.25638258 0.39792356 -0.37058628 -0.31782806 -0.4908204 -0.25311103 0.3429594 -0.45892262 -0.5721094 0.4667666 -0.61016583 0.469985 0.7076451 0.807862 0.37921453 -0.2877818 -0.9802124 0.27433485 0.10095994 -0.08312324 0.1177392 0.735068 0.26051122 0.46943623 0.9862993 0.6624196 -0.07716275 0.22844866 -0.21020144 0.15371011 -0.7209622 0.44061095 -0.09121488 0.3320883 0.73815984 -0.25533232 0.7367985 -0.09751572 0.99689925 -0.2151382 -0.43559211 0.26014566 0.049943954 0.17102166 -0.6055614 0.054718524 0.30895263 0.35751638 -0.60038924 -0.24757001 -0.982549 -0.34855843 -0.24466515 0.27373147 0.3942145 -0.250687 0.8235916 -0.95835906 -0.45324174 0.372593 0.533383 -0.28869268 0.7055146 -0.95214224 0.5424682 -0.40340912 -0.34316605 -0.22099371 0.9627632 0.5662428 -0.35289457 -0.48617122 -0.018887728 -0.69006854 0.33690447 0.15569514 0.38440514 0.14731185 -0.9441021 -0.2247263 -0.9182615 0.34071225 0.55948573 0.79374695 0.20211247 0.2986263 0.44716096 0.27087745 -0.3776921 -0.2970738 -0.481653 0.9270241 0.39121282 -0.89889 -0.7226037 -0.97499955 -0.54280114 0.9523926 0.032625437 0.7335771 0.33405355 -0.49173844 -0.40146416 0.44821882 -0.6874143 -0.36845756 0.26063702 -0.28237858 0.121163025 -0.44586605 0.014253929 -0.28042477 -0.44777942 -0.9352056 -0.3131385 0.105253845 -0.06903288 0.5458521 0.24891263 -0.33437678 -0.056307577 0.26508465 0.57591945 0.27068576 -0.7233782 -0.01689224 0.2171422 0.846628 0.2782629 0.6066845 0.56535923 -0.86371624 0.509655 -0.2545376 0.30346727 -0.93996906 -0.9444952 -0.060656413 -0.27620065 -0.26971334 0.24591854 -0.3906145 0.3917521 0.243819 0.76256824 0.46907765 0.40221086 0.2399633 0.38686997 -0.8402259 0.033416837 -0.4435913 0.27098635 0.5996641 0.25383788 0.93830884 -0.007730812 0.67702806 0.17154372 -0.37998983 0.65432304 0.21654567 0.9373046 0.4593433 0.18792808 -0.23449215 0.43527567 -0.90346503 0.9986737 0.010492951 0.7676799 0.30101663 -0.97027755 -0.98603237 0.6084847 0.0987481 -0.97246873 -0.293275 0.12785824 -0.21798533 0.3310193 0.36068553 0.25499624 0.9613541 0.41699326 -0.6038843 0.24070287 -0.2525224 -0.97882265 0.1245967 0.003641516 -0.48068744 0.14252922 -0.08511256 0.55925685 0.36366352 -0.25697067 -0.2445764 -0.2607263 0.9257773 0.49700576 0.9628925 -0.15580595 -0.68760127 0.07774106 0.32043904 -0.3160105 -0.41992304 0.9983005 -0.6280016 0.6561004 0.20232484 -0.25465626 -0.24850595 -0.18556815 -0.24875207 0.240509 0.82184243 -0.34786117 -0.37638578 0.22474849 0.14727192 0.26667997 0.98476505 0.21529268 -0.013633102 0.13428195 0.39829203 0.434893 -0.7856326 -0.2787527 -0.541077 0.44565117 -0.7948095 0.5249312 -0.22868863 0.62512386 0.2674239 0.0013578236 -0.55109435 0.20677997 -0.12494163 0.039604485 0.93172216 -0.33510166 -0.0071188807 -0.25322968 0.3144254
DateGroup119124.java,0.050819468 0.26136518 0.26640084 0.22254321 0.19070236 0.046165857 0.0872823 0.11493086 -0.26562482 -0.17965671 -0.18919736 0.8982309 0.6130783 -0.025733119 0.30306104 -0.0069756038 0.17524041 0.010267119 0.064709865 -0.14086577 -0.16528466 0.783749 0.3844295 0.73387444 0.14293218 -0.49316224 -0.06578783 -0.2586021 -0.32954052 -0.1791937 -0.03926562 0.77898073 -0.28313845 0.35142958 -0.78986865 -0.27757937 0.071796276 0.38612342 0.1093257 -0.40412018 -0.71074 -0.5368959 0.21874689 -0.04291573 0.29941547 0.19922197 -0.31651214 0.88574857 -0.5276435 0.5291472 -0.47050083 0.378458 -0.6003639 0.42577893 0.2703857 -0.6447803 0.054473087 -0.13855481 -0.21907996 -0.10696121 -0.1946262 0.30296367 -0.016522357 0.6093004 -0.28812355 -0.13092391 -0.24841087 0.026080681 0.20165865 -0.13586672 -0.68220365 -0.40376884 0.2467358 0.052188784 -0.7186374 -0.6348274 0.66627556 0.5134138 0.0008001196 0.051528037 -0.42009732 -0.79923385 0.17680402 0.5562025 -0.085163 -0.47534904 0.55852926 -0.53832906 -0.007509659 0.77045393 0.07738315 -0.35933307 -0.4601764 0.119239 0.26681605 0.39987776 0.5745033 -0.32671073 0.026368743 0.103080176 -0.5109288 -0.304526 0.62811524 -0.27789602 0.6506487 -0.26080778 -0.19808686 -0.1355109 -0.34349588 -0.12609585 0.18837167 -0.16506615 -0.115456544 0.11797916 -0.04421678 -0.22539167 -0.46553227 -0.089640975 -0.025299493 -0.13785775 -0.6829094 0.45213774 0.15394984 0.41853905 0.61531955 -0.6746138 -0.7413282 0.33495268 -0.28094393 -0.37635314 0.88773835 -0.42054883 0.11403452 0.11722604 -0.6270044 -0.36017382 -0.513425 0.49187317 -0.22563966 -0.47844633 0.4008399 0.8397509 0.17952886 0.43654606 -0.105470136 0.22007844 -0.04750828 0.25391126 -0.499304 0.028808096 -0.253254 -0.10529314 -0.64483523 -0.0665801 0.035912946 0.6558929 -0.19429415 0.55364317 0.7416175 0.63499326 0.63660085 -0.31849238 0.039293326 -0.22293536 -0.541196 0.44106004 -0.16128238 -0.46275356 -0.38855118 0.089009315 0.009532914 -0.028387522 -0.75001454 0.39647508 -0.113867424 -0.5228646 0.79984844 0.32414928 0.5001699 -0.6324256 -0.2481232 -0.21223786 0.09660018 -0.39897653 0.1044645 -0.53991294 -0.26789448 -0.003075385 -0.07865736 -0.5732228 0.53905654 -0.10756326 0.6430332 0.18168133 -0.29659095 0.2831725 0.24417366 -0.36015037 -0.6364158 0.52863574 -0.45848334 -0.36888996 -0.07880554 -0.2724225 0.5138552 0.32348943 0.26745948 0.0557233 -0.12675923 -0.039304193 -0.08031642 -0.015399312 -0.31444573 0.03477689 0.31705377 0.37831515 -0.44965297 0.37975547 0.47227642 -0.4401502 0.15437633 -0.4507255 0.09852083 0.4451775 -0.08404073 0.7322259 0.25823468 0.6409804 0.16995956 0.24469352 -0.22794317 0.17402183 0.12781204 -0.12050163 0.42434403 0.532937 0.22475067 -0.535123 -0.11120834 0.42238843 0.1462532 -0.28894484 -0.027410397 -0.5745611 0.6513719 -0.67421037 0.011936771 -0.13988537 0.1354303 0.063287295 0.28774676 -0.39536765 -0.49010417 -0.5363014 -0.27094874 -0.18365313 -0.070389725 0.6309791 -0.6994255 0.38895857 0.37335062 -0.6175464 0.034149177 0.09898862 -0.23584764 0.27939394 -0.49233636 0.6851834 0.62641865 -0.78547853 0.054987498 0.69844115 -0.31142145 -0.014428831 -0.25294772 -0.50397944 0.44345772 -0.5962117 0.13773681 0.45690176 0.29345137 0.6363722 -0.016953835 0.23384568 -0.15582187 -0.4764817 0.011605407 -0.66674995 -0.55157304 -0.6211201 0.20508303 -0.39842072 0.009080165 -0.45708886 -0.69226867 -0.606839 0.27414235 -0.42455256 -0.14895684 -0.748921 0.6358554 -0.094315976 -0.55392826 -0.5921399 -0.25025713 0.65664 0.6264163 0.45676193 -0.6392023 -0.6571085 0.047617923 0.245528 -0.14573605 -0.34286064 -0.6278965 0.602308 -0.48246717 -0.26737067 -0.11621887 0.11623372 -0.28529152 -0.42066395 -0.47091967 0.2557586 -0.8550874 -0.37931335 -0.3057035 0.1756758 0.18253143 -0.14147885 0.39120364 -0.34059644 -0.36978328 0.6753333 -0.2208713 0.25336558 -0.34996873 0.44585294 -0.49283612 0.0060217916 -0.66858286 -0.093250304 -0.10656063 0.5216659 0.3656472 -0.5378625 -0.26191905 0.69287467 0.07945281 -0.74148047 -0.33579746 0.67748004 -0.013567107 0.49710888 -0.29844394 -0.2001419 -0.4090566 0.2690627 0.39722255 0.036787443 0.59687686 0.42084044 0.5271377 -0.22392976 -0.33705708 -0.5334459 -0.3490267 0.0856642 0.57567346 0.62700665 -0.42775863 -0.4480802 0.7638499 0.0960792 -0.63552576 -0.44952616 -0.057342242 0.20785406 0.15205888 -0.21927774 -0.43999738 -0.09839482 0.109140515 -0.33049032
DateGroup129131.java,-0.9815912 -0.6172675 0.67868096 -0.35004967 0.9678321 -0.85594314 0.26196116 -0.72482246 -0.69761884 0.19976962 -0.89649165 0.99917066 0.2642632 0.1575916 0.9719449 -0.54949296 -0.21795309 -0.7017703 0.9191209 0.10512859 0.9671146 -0.28613544 -0.70073843 0.34700245 -0.2624868 0.75150913 -0.3818575 -0.55507916 0.9414984 0.83885944 0.76199806 -0.5328814 0.9584091 0.52363855 0.28470024 -0.7414066 -0.99615717 -0.33892742 -0.8770159 -0.49863464 0.91647524 -0.5338794 -0.40710706 0.54675406 -0.82793504 -0.99901855 0.5405958 0.9865613 0.4263332 -0.4210975 -0.78059626 0.5943364 0.85600185 -0.5550736 -0.6076174 -0.5744029 0.07052238 0.22405246 -0.50619316 0.56988186 0.6595173 0.5851412 -0.55033576 -0.7302013 0.80085325 0.01920095 0.8667676 0.6947627 -0.30615973 0.45042753 0.5501294 -0.6714848 -0.39467406 -0.51909184 -0.29216495 -0.52547395 -0.11159886 0.86569905 0.5593747 -0.52273893 -0.992121 0.5154014 0.5425139 -0.98821074 0.53624374 -0.9805341 0.991468 0.5483906 -0.99146414 -0.46940506 0.9794414 0.9543967 -0.53617436 -0.9636619 -0.4757747 0.9836127 -0.59557843 0.394642 0.9456888 0.9325207 -0.6051667 -0.9269903 -0.48486 0.54646504 -0.9746178 0.34264165 -0.65369236 0.54985976 -0.44692138 -0.5367847 0.96791613 -0.47511947 -0.97826314 -0.4819358 0.16853291 -0.44420764 0.7957261 0.5478108 -0.08873421 0.6701405 -0.97915643 -0.2612998 -0.80484366 -0.55393577 0.96619266 -0.95231193 -0.40445435 0.8327561 0.55556726 -0.6299919 -0.118037105 0.54910153 -0.6836562 -0.33154875 0.6732908 0.06004943 0.38982996 -0.5580124 -0.9343382 0.9415105 -0.94880897 -0.3496575 0.99522763 0.5319757 0.55042195 0.77976936 -0.8883252 0.4258622 0.12022049 -0.24652487 -0.8974128 -0.57580173 0.48411238 -0.5380148 -0.34226894 0.8951227 -0.26988405 0.35348707 -0.9370422 0.9961849 0.99464124 -0.50652677 -0.8965738 -0.99086344 -0.505152 0.1265518 -0.5706104 0.21541828 -0.6723951 0.4340731 -0.9227694 -0.54011357 -0.97550607 -0.5523697 0.88401616 -0.8598188 0.45841146 0.39942282 -0.5495904 -0.513752 -0.3714652 -0.09407217 -0.7660451 -0.77272695 -0.7342435 -0.3128789 -0.999326 -0.93166775 -0.49635425 0.9633417 -0.5722048 0.8486078 -0.685706 -0.0050358204 -0.49371728 0.46689552 -0.40770328 -0.6534479 0.29501912 0.78926086 -0.0035181195 0.70487654 0.7668881 -0.54387534 -0.8604228 0.5823065 -0.46804255 -0.13628852 0.14686124 0.53794277 0.54935485 -0.65959 0.24821381 0.89977866 0.60486555 -0.33330357 0.4616718 0.05568835 0.5128184 0.54043823 -0.48675156 0.6496841 0.28972 0.59956414 0.3544747 0.7066328 0.96392286 0.9982245 -0.6474407 -0.89932775 -0.9418232 -0.9991702 -0.61668926 0.54063785 0.8746631 0.36274415 0.67908937 0.5511555 0.011882611 -0.9793525 0.5482144 0.59484917 0.478588 0.7588762 0.55028564 0.26704276 -0.81378853 0.5517445 0.8601727 0.9334961 -0.9428995 0.9845123 -0.9735334 0.22719441 -0.2975083 -0.55952483 -0.22479656 -0.34462082 -0.18944372 0.24168012 0.77980006 -0.6411625 0.6304179 0.5440662 0.9306629 0.22541472 0.019007385 0.79799986 0.6055987 -0.9616724 -0.9010064 -0.97557425 -0.9822899 -0.9936521 0.11291215 -0.26572707 0.39007747 -0.55353916 -0.099927604 0.50953007 -0.44935644 0.5064963 -0.0693322 -0.8172686 -0.35205877 -0.3634339 0.99918807 -0.28422618 -0.90757674 0.9162445 0.55000716 0.18499221 0.9580181 0.55604804 -0.76204175 -0.60479987 0.7384655 0.34785375 -0.7688928 -0.9193752 0.5726499 -0.7590318 0.4006021 -0.5446876 0.44478658 -0.08795251 0.5760509 0.4137833 0.25433466 0.9998853 0.65092474 0.9936325 -0.8987691 0.038018048 0.39321584 0.27663663 -0.7962927 -0.51437896 0.71530026 0.98083174 0.57294244 0.5591538 -0.9801158 -0.6073748 -0.32170275 -0.64139766 0.32040596 0.66650516 0.21200079 0.98802894 -0.37026706 -0.9373174 -0.6287165 -0.52307534 -0.91582775 0.99780244 0.6110446 0.5879109 0.59874517 -0.6682433 0.9733601 0.90396774 -0.5381528 0.74474543 0.99830675 -0.2560534 0.031570718 0.49005702 0.7778194 0.8543242 0.9929043 -0.64150614 -0.87719774 -0.37946746 -0.5352188 -0.99775606 0.5482807 0.55633765 -0.06917792 0.117723286 -0.538648 0.5591537 -0.3053962 -0.9996062 0.7319032 0.15949008 0.44498503 -0.9069562 0.515483 0.99176544 0.7943518 0.37291032 0.48507988 0.5599215 0.62355185 -0.49770206 -0.07242958 -0.8077671 0.75936645 -0.5162611 -0.541833 0.9983221 -0.15370277 0.9732865
DateGroup136138.java,-0.41482934 0.063255936 0.47921824 0.030045182 -0.8353045 -0.09139535 0.38331652 0.42728758 0.41902545 0.18119457 0.8352611 0.63400817 0.3862735 -0.41629714 0.0516333 -0.41457993 -0.39656377 0.50822985 -0.32498315 -0.22469684 -0.1403116 0.36071396 0.4104888 0.7450031 0.15692574 -0.9340526 -0.064120054 0.02348788 -0.5304026 0.79092336 0.4168 0.0743373 -0.15063749 0.37036717 0.10618284 0.5345422 -0.3383226 -0.3579653 -0.13269642 0.7984327 0.41391414 -0.39060405 -0.16882205 0.40620917 -0.24281529 -0.8052694 0.13137993 0.3888585 -0.98281264 0.3947019 0.32883036 0.4094742 0.41432068 0.39239722 -0.2547314 -0.27760065 0.49865943 0.16270146 -0.8258575 -0.40000093 0.19979182 -0.3690483 -0.4164037 -0.61108875 -0.58695537 -0.40204567 0.34655574 -0.4051411 0.39331594 -0.8856635 -0.5957585 -0.35434163 0.2089116 -0.4106645 -0.9694526 -0.31695023 -0.65074587 0.101911426 -0.1218144 0.84937346 -0.9713969 -0.2194874 -0.68652457 -0.43612963 -0.9508646 0.16725081 0.99911773 0.28450668 0.38878602 -0.41829517 -0.13219196 0.3313299 0.058918744 -0.20130126 -0.6774609 0.992787 0.099999994 -0.8521745 -0.7783271 0.6476505 -0.039301336 0.18953907 -0.6756406 -0.11656192 -0.51799464 -0.4114747 -0.41878724 0.38455886 -0.3823995 -0.56642437 0.44902444 -0.2592654 -0.2984747 -0.04345879 -0.4054905 0.64168894 0.40772462 0.21318059 -0.63741714 -0.36308393 -0.99537545 0.4100378 -0.84547836 0.33386946 0.6622253 0.045571744 0.5105521 0.46492258 0.41324803 -0.32284567 0.41251025 0.407166 -0.8350067 -0.7864777 -0.44668597 0.03619179 0.30822375 0.4677179 -0.17232981 -0.8290851 0.42410603 -0.2986989 0.8242691 -0.3196317 -0.033244655 0.29522693 0.8699031 -0.68563193 0.00042647123 0.32451454 -0.4881274 -0.3879956 0.43791968 -0.4119113 0.5163598 0.52119297 0.7995738 0.9841097 -0.99081796 -0.0057525337 0.9998078 0.07460463 0.23756438 0.2884723 0.1784865 -0.12020561 0.3706404 0.9800848 0.11772594 0.20229623 -0.5571868 0.9890752 0.112192035 -0.41524088 0.99638236 0.17161354 0.9552055 -0.10745515 0.39566213 0.17617536 0.9004555 0.5094434 0.35484368 -0.4856795 0.97393084 -0.35147095 -0.9987031 0.6472669 0.9149629 0.37736773 0.30514005 -0.4080517 -0.92949903 -0.9878614 -0.04855275 -0.4169702 -0.3720525 0.52304214 0.30929768 0.45524508 0.069570005 -0.6959937 -0.42085955 0.58016086 0.91925085 0.41188186 0.8010243 0.8755448 0.35283065 0.11863661 -0.7086932 0.102341264 0.041045934 0.4700067 -0.99298525 0.31826496 0.64662576 0.4267031 0.3666941 -0.39344183 0.4838661 0.36995018 0.7181006 0.4045198 0.040706724 0.62606823 -0.8360019 0.99568856 0.3322356 -0.5369898 0.91138697 -0.9998131 -0.018767118 0.947727 0.96034133 -0.8185251 -0.008898526 0.5333265 -0.91356677 0.6039772 -0.99624467 0.22549228 0.41055596 0.011952996 -0.002716571 0.2845947 -0.44539806 0.4028266 0.44534656 -0.12502876 -0.40727976 -0.5731488 -0.87636006 0.22613195 0.39706278 -0.9851436 -0.88025165 0.35445666 -0.07459468 0.40437025 -0.04411006 0.10384971 0.37222615 0.8859898 -0.32516032 -0.018557562 -0.340411 0.46275002 0.26852754 -0.28953665 0.10363147 -0.34771812 0.15295249 -0.6989691 -0.9976225 -0.07660717 0.17291158 -0.405413 0.06753504 0.45009744 -0.37891656 0.77497125 0.038340777 -0.9327445 -0.3581872 -0.9046515 0.073382944 -0.45489126 -0.19231406 -0.8201862 0.41045865 -0.4681365 -0.28241917 0.18560793 0.40630895 -0.47767055 0.41387334 0.4129902 -0.4316662 -0.057260543 0.42242646 0.17368609 -0.008298457 -0.4173692 0.9582013 -0.4269338 0.9369389 -0.13670763 0.4891513 -0.71465194 -0.4461077 -0.18915354 -0.9252157 0.14192918 0.26922703 -0.4950944 -0.89383423 0.78413725 -0.7699568 0.40872324 0.047702998 0.44337693 -0.96936727 -0.40985072 -0.9637989 -0.8979039 -0.6316667 -0.99301267 0.532365 -0.4379099 0.8675458 -0.087320685 -0.36839098 0.8054365 -0.41411448 0.2964572 0.4570289 0.4931304 -0.5568015 -0.44107395 0.6533742 0.42860422 0.6151015 -0.07756668 0.9986303 -0.43223834 0.3448876 0.4074031 0.21388942 -0.41099152 0.07103929 0.4152567 0.36947128 0.5708549 0.31907588 -0.18418714 0.40956053 0.4093889 0.4456259 0.2892143 0.09170762 0.41069815 0.6882232 -0.2743246 0.09213601 0.12217423 -0.3260923 0.47801167 -0.16426015 0.5351964 -0.82455134 -0.4222453 0.8890362 0.49147302 -0.38928106 -0.33283067 0.37865266 0.46171933 0.15797293 -0.28583914 -0.38331068 0.85536635 -0.38434333 -0.29191193
DateGroup144146.java,0.24702343 0.22604322 0.4544143 -0.07143164 0.06289947 0.48890775 -0.18179005 -0.15063643 0.5677901 0.8587744 -0.32089752 0.20965272 0.020444185 0.40085948 0.19932133 -0.23799296 -0.89804816 0.35250503 0.04008034 -0.37714493 -0.10915139 -0.36569813 0.17075568 -0.19224557 -0.7145092 0.7408361 -0.22982226 0.31480196 0.2484775 -0.16964848 0.66244304 -0.16991907 0.017546117 -0.1470668 0.15812331 0.6884953 -0.49011374 -0.091279805 -0.052275628 -0.04995188 0.9586002 0.055250376 0.6115134 0.15173835 -0.18436328 -0.27228993 -0.37509793 0.23297247 0.293082 0.25142166 0.1027177 0.0124605 0.20417665 0.26988876 -0.011591554 0.80074567 0.7948431 -0.5168997 -0.22847421 -0.28781825 -0.12284976 -0.27505615 -0.2872864 -0.83562684 -0.54425097 -0.19624512 0.21220896 0.41804647 0.25126752 -0.2844932 0.22701392 0.13640562 -0.13071385 -0.22519465 -0.3819472 -0.27121493 -0.2846418 0.46789017 0.5749966 -0.14652303 0.9525641 -0.16467838 0.082490146 -0.5505769 -0.80165935 0.27979153 -0.077605814 0.89619684 -0.55675673 0.15598932 0.34779435 0.15885612 -0.6220499 -0.54818076 -0.5430616 0.19317181 -0.56646615 -0.64195776 -0.4813115 -0.8698023 -0.21341519 0.39125657 -0.79347074 0.8933445 0.18205088 -0.3215031 -0.09133977 0.08874172 -0.18636176 -0.7450564 0.034056842 0.045203567 -0.8014296 0.22090535 0.19223544 -0.24675894 -0.007813357 -0.17284015 0.2319527 -0.26838872 -0.9552458 -0.16771364 -0.35972798 -0.25131655 0.19659899 -0.35016263 0.7919507 -0.17473766 0.08199155 0.86230296 -0.08318095 -0.1956433 -0.81829906 0.22665933 0.6474515 -0.15654224 0.17046447 0.5454894 0.4430719 0.14795674 0.02597037 -0.23973627 -0.17783831 -0.037450194 -0.47719496 -0.16254336 0.40444222 0.31640583 0.53039575 0.71768236 -0.047884688 -0.3837306 -0.95285416 -0.23345812 0.27608138 0.05731933 -0.107593596 0.28411472 -0.16590202 0.022095025 0.30624533 0.22895986 -0.34758264 0.5933521 0.6180115 0.20845073 -0.6125151 0.04929825 -0.80272853 -0.83201873 0.03726405 -0.09899929 0.88460547 0.17529228 0.13998055 -0.4160548 -0.46719974 -0.19310036 -0.30421007 0.1331768 -0.38819718 -0.31527475 0.45916414 -0.78033817 -0.24514887 -0.3539088 -0.9925998 -0.17585626 -0.23596388 0.2268605 -0.6639776 -0.22748737 0.3709995 -0.30165946 0.0031544268 0.36427292 0.5666636 -0.031043798 0.6950746 -0.9335519 0.2880035 -0.17429295 -0.26480407 -0.4786119 0.9050906 -0.10233587 0.90166736 0.0630586 0.22447474 -0.1711777 -0.17475986 -0.098519355 0.19295117 0.10120495 -0.2921893 -0.6005374 -0.79639924 -0.15910736 -0.0135116875 0.35233533 0.26616126 0.22327785 0.13867979 0.2027878 -0.34121287 -0.09656307 -0.22213584 -0.04735762 -0.087292224 -0.047701776 -0.50933033 -0.94466835 -0.267991 -0.19607425 0.13155761 0.14502911 -0.002299577 -0.48837852 -0.24232227 0.76588285 -0.53489983 0.3256002 0.2250474 -0.43709373 0.34976268 0.7489012 0.2105919 0.6329673 0.014591545 -0.4942128 -0.9837522 -0.5736356 0.267924 -0.0007761568 0.23153545 0.16745657 -0.28212103 0.27009374 0.9153346 0.18653297 -0.20732576 0.14186421 0.25270715 0.21048163 0.22202182 0.3917388 -0.103729665 -0.45202643 0.46595234 -0.15717983 0.13476881 -0.30810618 -0.19739431 -0.631677 -0.91362256 0.64078605 0.30365837 -0.11918098 0.02498898 0.80161506 0.49239945 -0.433712 -0.099927336 0.2522596 -0.19540365 -0.25628 0.011770159 0.15653573 -0.05424884 0.5818442 0.22436087 0.9697087 -0.18542987 0.13679293 0.21719736 -0.2014976 0.12114778 0.44360697 0.8391739 0.32356763 0.4520279 -0.22459048 0.23389266 -0.13689888 0.5799817 0.11367446 0.26794654 -0.121228635 -0.37182623 -0.24053475 0.23641501 -0.14457285 -0.90391654 -0.47194135 0.2379402 -0.08940902 -0.51770127 0.47931868 0.4634885 0.7347313 0.24705383 -0.40284285 0.30034298 -0.2771042 -0.6707386 0.20658156 0.22348528 -0.08711401 0.38441706 -0.22841659 0.8127241 -0.20015368 -0.16432245 -0.31268588 -0.1794592 0.2672637 0.9341922 0.6621615 -0.67680043 0.28761792 -0.22822072 -0.31468904 0.5460083 0.9174745 -0.17970449 -0.21576048 0.048510283 0.1789705 -0.009259254 -0.16029319 0.5913019 0.21901232 0.13233203 0.04971409 0.10026264 0.15386711 0.3191769 0.20686822 0.47946644 0.3858708 -0.0534666 0.46972623 -0.81810796 0.3575738 -0.4300814 0.10898253 -0.23842219 0.11366135 0.72858816 -0.79090434 0.43643725 -0.3083362 -0.07630244 0.22463682 0.19430959 0.56989354 0.062580876 -0.1511487 -0.3237351 0.9065206 -0.2531618 0.06529668 -0.9778192 0.7953341
DateGroup151153.java,-0.07406551 0.3536213 0.7559813 -0.35044515 0.8924074 -0.38612002 -0.10349518 -0.9005711 -0.20221244 -0.032360733 0.693722 0.6374272 0.16296166 -0.6505731 -0.5990648 -0.64360535 0.17394619 -0.33412707 -0.33209556 -0.6503669 0.9593713 0.6236736 0.49649736 -0.10815054 -0.9465898 0.99076307 -0.4117648 -0.4192847 -0.37918186 -0.7523285 -0.34013715 -0.09739217 -0.7370071 -0.064429075 -0.80142504 0.10204652 -0.6458219 0.4705641 0.33605468 0.9807427 0.9809463 -0.6428922 0.8328268 0.4075992 -0.5295546 0.39977247 0.8658767 -0.9327862 -0.5002643 -0.98344386 0.3383055 -0.125085 -0.99057853 0.07653305 -0.8237103 -0.55935115 0.933311 -0.49496472 -0.6454401 -0.6786158 0.7051708 -0.7229965 -0.65753084 -0.9502981 0.74533427 -0.4983397 -0.84239614 -0.8903995 -0.040225178 -0.95546436 0.64342594 0.568064 -0.557558 -0.3489157 0.6762698 0.7791692 -0.5482147 -0.085368216 0.7716699 -0.65508235 -0.114798844 -0.5158059 0.28316653 -0.79317236 0.47222373 -0.20781659 0.09957835 0.9127604 -0.969381 0.08021635 0.5166982 0.97769177 -0.8304548 0.039464206 0.65642935 0.27700955 -0.8157474 -0.730566 0.8385314 -0.29277194 0.92821723 -0.6890867 -0.93867385 0.9261923 0.4911623 -0.6844879 0.39038444 -0.47372276 -0.6398904 0.70995253 0.7211264 0.20652728 -0.9562522 0.65204036 -0.6454176 -0.5912684 0.6994843 -0.7034018 -0.08246717 0.9694055 -0.804914 -0.05276519 -0.7504149 0.569767 -0.23520185 -0.7355672 0.6641396 -0.10266042 -0.9621675 -0.68643284 -0.64971125 -0.11435974 -0.99063754 -0.7445798 0.310109 0.93763745 0.3206914 0.10197598 -0.8817304 0.5404718 0.23162584 -0.31243387 0.8094641 -0.65235114 0.76262224 0.5115223 0.80925244 0.10397118 0.7846292 0.6454922 0.3915217 -0.6240313 0.6391133 0.9915265 -0.8073828 -0.26573798 0.92272174 -0.66069037 -0.7369114 0.81722057 0.67635775 0.67183995 0.6814611 -0.79026747 0.39617288 0.65247685 0.65212154 -0.66339993 0.1805977 -0.8783461 0.48866838 0.0013941526 0.97550654 -0.46571448 -0.6074089 -0.73682 0.81097376 0.23034185 -0.68239886 0.28682923 -0.34876865 -0.9203968 0.762902 -0.9194699 -0.34950355 -0.7130003 -0.9965944 0.66187173 0.31338355 0.34370887 0.7779187 0.7598623 0.8195636 -0.5064216 0.65840185 -0.08962223 -0.3077716 -0.63099724 0.78574836 -0.9290403 -0.68320686 -0.8665872 -0.67198604 0.39384797 0.4417387 0.25097924 0.9554215 -0.86685115 0.4291013 -0.9304129 -0.28671336 0.12179127 0.19550803 0.6383797 0.41257527 -0.49464613 -0.93701786 0.18165705 -0.8676709 0.93280876 0.60593563 0.6477105 0.928547 0.35529876 0.30217627 -0.077738166 -0.9498832 -0.36077 -0.64683735 -0.5809648 0.8149272 -0.96421415 -0.55653644 0.019781202 0.99244833 0.65068287 0.7200284 -0.33060706 0.3298208 0.90698826 -0.40268868 0.68539846 0.6414968 0.054288656 -0.64935803 0.4343544 0.30486998 0.8360558 -0.035375297 -0.48554677 -0.4376716 -0.82905006 -0.030004889 0.8114785 -0.9370215 0.78084254 -0.9088043 0.6557224 0.98215544 -0.98313546 0.60460824 0.9113736 0.63156724 -0.13158667 0.6471397 0.0049979687 -0.7623919 0.7971329 0.7545079 0.63004947 -0.66992295 -0.5245588 -0.61417186 -0.8589231 -0.99467695 0.767843 -0.06491764 -0.6679891 0.0052363276 0.88671017 0.47345987 -0.58058554 -0.63671863 -0.9833593 -0.6480933 -0.49469957 0.12830934 0.96490294 0.111119956 -0.23055872 0.18623279 0.9573074 0.6099168 0.605884 -0.9712167 -0.2844925 0.6435577 0.28530437 0.7207985 0.69125605 0.42043525 -0.348397 0.64585614 0.25977102 0.80666924 0.9849796 0.65760624 -0.7318785 -0.66339344 -0.6748458 0.6392327 0.88848966 -0.95989245 -0.75852495 0.6359753 0.5758629 -0.9864073 0.5879986 -0.81772 0.79581463 -0.00033214688 -0.8088339 0.31260347 -0.38984132 -0.70320725 -0.043610543 0.6595183 0.893121 0.785185 -0.15118319 0.59042484 -0.67355096 -0.64419955 -0.67708194 -0.5676412 0.61466 0.47733438 0.84616077 0.47188532 0.23759818 0.11657528 0.59723914 0.8893863 0.2931399 0.013783783 -0.34961247 -0.93375194 -0.47506285 0.07461232 -0.65158117 0.36746323 0.50200784 0.5306071 -0.81115735 0.6613085 -0.89292777 0.59203506 0.7125037 -0.40564024 0.72081447 -0.66009533 0.84750277 -0.9206946 -0.91698676 -0.7617433 0.23261651 -0.6533117 -0.9258461 0.8652952 -0.3005731 0.51243657 -0.68969965 0.47805968 -0.1626139 0.10777953 0.9101247 0.7398726 -0.37799257 0.2757831 -0.5644929 0.9801762 0.9425791 -0.9211166 0.92584574
DateGroup159161.java,0.24702343 0.22604322 0.4544143 -0.07143164 0.06289947 0.48890775 -0.18179005 -0.15063643 0.5677901 0.8587744 -0.32089752 0.20965272 0.020444185 0.40085948 0.19932133 -0.23799296 -0.89804816 0.35250503 0.04008034 -0.37714493 -0.10915139 -0.36569813 0.17075568 -0.19224557 -0.7145092 0.7408361 -0.22982226 0.31480196 0.2484775 -0.16964848 0.66244304 -0.16991907 0.017546117 -0.1470668 0.15812331 0.6884953 -0.49011374 -0.091279805 -0.052275628 -0.04995188 0.9586002 0.055250376 0.6115134 0.15173835 -0.18436328 -0.27228993 -0.37509793 0.23297247 0.293082 0.25142166 0.1027177 0.0124605 0.20417665 0.26988876 -0.011591554 0.80074567 0.7948431 -0.5168997 -0.22847421 -0.28781825 -0.12284976 -0.27505615 -0.2872864 -0.83562684 -0.54425097 -0.19624512 0.21220896 0.41804647 0.25126752 -0.2844932 0.22701392 0.13640562 -0.13071385 -0.22519465 -0.3819472 -0.27121493 -0.2846418 0.46789017 0.5749966 -0.14652303 0.9525641 -0.16467838 0.082490146 -0.5505769 -0.80165935 0.27979153 -0.077605814 0.89619684 -0.55675673 0.15598932 0.34779435 0.15885612 -0.6220499 -0.54818076 -0.5430616 0.19317181 -0.56646615 -0.64195776 -0.4813115 -0.8698023 -0.21341519 0.39125657 -0.79347074 0.8933445 0.18205088 -0.3215031 -0.09133977 0.08874172 -0.18636176 -0.7450564 0.034056842 0.045203567 -0.8014296 0.22090535 0.19223544 -0.24675894 -0.007813357 -0.17284015 0.2319527 -0.26838872 -0.9552458 -0.16771364 -0.35972798 -0.25131655 0.19659899 -0.35016263 0.7919507 -0.17473766 0.08199155 0.86230296 -0.08318095 -0.1956433 -0.81829906 0.22665933 0.6474515 -0.15654224 0.17046447 0.5454894 0.4430719 0.14795674 0.02597037 -0.23973627 -0.17783831 -0.037450194 -0.47719496 -0.16254336 0.40444222 0.31640583 0.53039575 0.71768236 -0.047884688 -0.3837306 -0.95285416 -0.23345812 0.27608138 0.05731933 -0.107593596 0.28411472 -0.16590202 0.022095025 0.30624533 0.22895986 -0.34758264 0.5933521 0.6180115 0.20845073 -0.6125151 0.04929825 -0.80272853 -0.83201873 0.03726405 -0.09899929 0.88460547 0.17529228 0.13998055 -0.4160548 -0.46719974 -0.19310036 -0.30421007 0.1331768 -0.38819718 -0.31527475 0.45916414 -0.78033817 -0.24514887 -0.3539088 -0.9925998 -0.17585626 -0.23596388 0.2268605 -0.6639776 -0.22748737 0.3709995 -0.30165946 0.0031544268 0.36427292 0.5666636 -0.031043798 0.6950746 -0.9335519 0.2880035 -0.17429295 -0.26480407 -0.4786119 0.9050906 -0.10233587 0.90166736 0.0630586 0.22447474 -0.1711777 -0.17475986 -0.098519355 0.19295117 0.10120495 -0.2921893 -0.6005374 -0.79639924 -0.15910736 -0.0135116875 0.35233533 0.26616126 0.22327785 0.13867979 0.2027878 -0.34121287 -0.09656307 -0.22213584 -0.04735762 -0.087292224 -0.047701776 -0.50933033 -0.94466835 -0.267991 -0.19607425 0.13155761 0.14502911 -0.002299577 -0.48837852 -0.24232227 0.76588285 -0.53489983 0.3256002 0.2250474 -0.43709373 0.34976268 0.7489012 0.2105919 0.6329673 0.014591545 -0.4942128 -0.9837522 -0.5736356 0.267924 -0.0007761568 0.23153545 0.16745657 -0.28212103 0.27009374 0.9153346 0.18653297 -0.20732576 0.14186421 0.25270715 0.21048163 0.22202182 0.3917388 -0.103729665 -0.45202643 0.46595234 -0.15717983 0.13476881 -0.30810618 -0.19739431 -0.631677 -0.91362256 0.64078605 0.30365837 -0.11918098 0.02498898 0.80161506 0.49239945 -0.433712 -0.099927336 0.2522596 -0.19540365 -0.25628 0.011770159 0.15653573 -0.05424884 0.5818442 0.22436087 0.9697087 -0.18542987 0.13679293 0.21719736 -0.2014976 0.12114778 0.44360697 0.8391739 0.32356763 0.4520279 -0.22459048 0.23389266 -0.13689888 0.5799817 0.11367446 0.26794654 -0.121228635 -0.37182623 -0.24053475 0.23641501 -0.14457285 -0.90391654 -0.47194135 0.2379402 -0.08940902 -0.51770127 0.47931868 0.4634885 0.7347313 0.24705383 -0.40284285 0.30034298 -0.2771042 -0.6707386 0.20658156 0.22348528 -0.08711401 0.38441706 -0.22841659 0.8127241 -0.20015368 -0.16432245 -0.31268588 -0.1794592 0.2672637 0.9341922 0.6621615 -0.67680043 0.28761792 -0.22822072 -0.31468904 0.5460083 0.9174745 -0.17970449 -0.21576048 0.048510283 0.1789705 -0.009259254 -0.16029319 0.5913019 0.21901232 0.13233203 0.04971409 0.10026264 0.15386711 0.3191769 0.20686822 0.47946644 0.3858708 -0.0534666 0.46972623 -0.81810796 0.3575738 -0.4300814 0.10898253 -0.23842219 0.11366135 0.72858816 -0.79090434 0.43643725 -0.3083362 -0.07630244 0.22463682 0.19430959 0.56989354 0.062580876 -0.1511487 -0.3237351 0.9065206 -0.2531618 0.06529668 -0.9778192 0.7953341
DateGroup163165.java,0.45286795 -0.082744 0.71159285 -0.036799002 -0.30522805 0.1359151 -0.10547112 -0.52057266 0.31818983 0.08579244 -0.67768264 -0.18825597 -0.15580602 0.5570725 0.15197977 0.6920749 -0.01889157 0.6032862 -0.5930436 0.31548545 0.35869437 -0.4472822 -0.26763684 0.44257635 0.05126199 0.2926254 0.3115401 -0.073682524 0.08430251 -0.17371798 -0.48215085 0.070256256 -0.08972226 -0.117636174 -0.5484021 0.23419955 -0.5313293 -0.39644697 -0.30041704 -0.005686733 0.5828434 0.7219076 0.65734553 -0.44060087 -0.4104572 -0.011107088 0.50843716 -0.12702355 -0.23943193 -0.43479818 -0.039452255 -0.69804317 0.24930233 -0.10207588 0.30060843 0.5629854 -0.21890613 -0.06256729 0.062191837 0.22757682 -0.6762496 0.28593642 -0.070706196 0.31697094 -0.9046238 0.28039753 -0.048143428 0.36712286 0.16587293 -0.3380524 -0.51856065 -0.10872967 0.5154704 0.12522763 0.36536852 0.19328748 -0.02350457 0.4517 0.45742857 -0.0030836202 0.43384314 -0.31968778 0.51138955 0.46062535 -0.12247591 0.17162919 -0.2803112 -0.009202084 0.009560086 0.34578058 0.6545724 -0.41872945 -0.17336653 0.22247832 -0.38318026 0.2929014 0.16412419 -0.77777743 -0.6002976 -0.33897087 0.41300607 0.31612298 -0.42987487 0.4371014 0.2780515 0.35591677 0.052294757 -0.5571767 -0.09079303 -0.7426761 -0.050644256 -0.12939583 0.46361595 -0.6194793 0.35401618 -0.4016697 -0.12731415 -0.24921831 0.11599645 -0.017570283 -0.010110704 -0.50015974 -0.56217486 0.57061213 -0.2856726 -0.7782289 0.00427743 -0.15040568 -0.8092799 0.74793035 -0.0006611347 -0.4332135 -0.6636292 -0.27154648 -0.17771804 0.35644275 0.5573955 0.37337324 -0.06592311 -0.103848904 0.44018918 -0.23788488 -0.3113401 -0.36031488 -0.50976175 -0.25440168 0.25401455 0.11826779 0.3505223 0.27928117 0.40854102 -0.06665909 -0.85489315 -0.13082272 0.038078856 -0.00238177 0.15397139 0.6293407 -0.5021159 -0.25787818 0.12482298 -0.37629235 0.23122013 0.34319723 -0.067837656 -0.009390622 -0.39609483 0.43377683 0.3594019 0.076297194 -0.27785105 0.26845366 0.36280847 -0.32324287 -0.53372234 -0.4278123 0.32954177 -0.30700487 0.48410714 -0.6009647 -0.28752178 -0.4905602 0.34186208 0.030094711 -0.061915454 0.06010462 -0.14243564 -0.09064139 0.29325902 -0.20610105 -0.17280185 -0.48759484 0.11577387 -0.0696918 -0.3845402 0.3707372 0.16229035 -0.09766893 0.33095378 -0.5018031 0.6136035 -0.54255766 -0.16262653 -0.31669906 0.4826134 0.57471335 0.47508553 0.46751347 -0.39706266 -0.84215945 -0.107455306 -0.72352844 0.7090482 -0.73069316 0.068956986 0.52458566 -0.47523272 -0.7927262 -0.28223512 -0.100108154 0.098805875 -0.053165488 0.46995515 -0.2195516 -0.5480024 0.6167518 -0.16757248 -0.51525676 0.18065888 0.15285623 -0.25586128 0.121381864 -0.67261803 -0.18008588 0.16680998 -0.024855277 0.67717385 0.45202854 0.13214655 0.29840323 -0.396813 -0.28542972 -0.26491737 -0.51114976 0.43106556 0.29881227 0.134753 -0.4522678 0.050074283 -0.24872518 0.6022569 -0.2650373 0.5149568 0.7935033 -0.31342304 0.72003025 -0.20572503 0.2605516 0.29105106 -0.5783046 -0.64108455 -0.2480118 -0.3624066 0.55916023 0.32837415 -0.3102131 -0.10987888 -0.4057902 0.45166412 0.27330816 0.52942115 -0.47437397 -0.27094185 0.51413 0.2357516 0.32471907 0.2755039 0.7087438 -0.67371094 0.5219188 -0.14161381 -0.5965089 0.59793913 0.6373245 0.7072002 0.46376485 -0.00963521 0.73844224 0.40598294 0.5484857 -0.44525322 0.37070876 -0.2688047 -0.64861274 -0.006230995 0.30725947 -0.8128335 0.14283057 0.41082847 0.018800348 0.69919544 -0.10229666 -0.27960405 0.49638692 -0.102330565 0.07829355 -0.21249177 0.21750568 -0.56045043 0.4387211 -0.47089404 0.33406454 0.38190472 0.38131103 0.11019586 -0.24011263 0.3595019 0.68874204 0.71875703 0.52446806 0.44236615 -0.7277634 0.57101566 -0.28236476 -0.44211757 0.48266715 0.40458095 -0.25303295 -0.22483096 -0.04406879 0.48267433 0.6459699 0.7592107 -0.40793964 0.44657886 0.46042174 0.18224658 0.19963256 -0.047872696 0.008693837 -0.87061626 -0.6643724 0.38610438 0.07343454 -0.5306592 -0.24180545 -0.27651656 -0.5050393 0.6893888 0.28706276 0.3054312 -0.07365934 -0.4505573 -0.15208784 0.8164833 -0.27228904 -0.73924804 0.44864374 0.47861412 -0.06518151 -0.02229956 -0.106287256 -0.48686454 0.60836774 0.29317918 -0.7363749 0.67089105 -0.24104707 0.0035094135 -0.61507124 0.19226307 0.3935068 -0.24419466 -0.7027699 0.22166485 0.33738792 0.62242186 -0.31028515 -0.52849466 0.7165204 -0.17218022 -0.6949425 -0.6556162 0.098784246
DateGroup167169.java,0.80466735 0.071665734 0.912966 0.7473631 0.52475524 -0.9559577 0.83881706 -0.23187616 0.80119604 -0.8048561 0.9003662 0.9284664 0.8755827 -0.50994235 0.83958125 0.93791085 0.66725856 0.7810576 -0.19598012 0.5880739 -0.8921478 0.85096526 -0.45531115 0.9866253 0.9443169 -0.9047184 0.95805544 0.893268 -0.24136344 0.19711687 -0.79190433 0.60913223 -0.816466 -0.7138433 -0.94136465 -0.64991117 -0.6536962 0.20183046 0.39927122 0.9029902 -0.9299735 -0.8833506 0.8990269 -0.87438303 -0.6445228 -0.7781546 -0.5686492 0.5820528 0.07159964 -0.22153267 0.7545994 -0.3795225 0.4388906 0.95580727 0.8051373 0.6601003 -0.7848619 -0.73925185 -0.60155714 -0.69747424 -0.8988779 0.27190536 0.276056 0.86363816 -0.94672287 0.8597183 -0.9447384 -0.15509798 -0.60327363 0.818525 -0.9878123 -0.9549314 -0.46325365 0.8865253 -0.72570616 -0.8975762 0.96462584 0.9154158 -0.7224135 -0.7184348 -0.94069386 -0.9168378 -0.48946938 0.9091457 0.79572374 0.46742052 -0.6126237 -0.9086094 0.7356763 0.96262467 0.882168 -0.681024 -0.86360484 -0.34642872 0.780655 0.43126228 0.9305544 -0.8612514 0.8053679 -0.81949294 0.8280465 -0.6976814 0.8376838 -0.8195387 0.53798145 0.792445 -0.14803562 -0.89583534 -0.7518866 0.41293132 -0.74419886 -0.18869272 -0.76610047 -0.923381 0.78897905 -0.46419856 -0.67338777 -0.9107008 0.85104257 0.8553908 -0.4237399 0.18393406 -0.26410806 -0.20228168 -0.7467489 -0.9455684 -0.6096678 -0.8407157 -0.9844916 -0.8677628 0.93064404 -0.8244225 -0.5368299 -0.91096044 -0.9471339 0.50069785 -0.006292086 0.90960056 -0.5068715 0.82690454 0.92836225 0.92903197 0.09007286 0.84047186 -0.9432462 -0.65918255 0.5938764 0.74579746 -0.90675473 0.74835986 0.5158227 -0.44640067 -0.8486339 -0.9174355 0.82101417 0.8856163 -0.37072092 0.8695463 -0.81346613 0.9433812 0.8812477 -0.7998728 0.7969913 -0.022912152 -0.88653755 0.11656791 -0.623681 0.38880497 0.5253063 -0.7185377 -0.1518602 -0.5488407 -0.7036067 -0.7129755 -0.64153117 0.27961266 0.92585063 0.7013482 0.9377333 -0.8687322 -0.9270211 -0.87594354 0.8068753 -0.8915702 -0.6689523 0.8214108 0.67434645 -0.75913465 -0.19993986 -0.9002394 0.93529594 -0.8665639 0.82283676 0.8267381 0.8101364 -0.62338966 0.9216648 -0.5818431 0.58559203 0.91086876 -0.5535768 -0.387007 -0.8821387 0.8552276 0.6410621 -0.7200075 0.88436115 0.86399436 -0.7569444 -0.9382228 -0.9427414 -0.8729892 0.39604306 -0.9183693 -0.06219516 0.83888185 -0.9139866 0.84634775 0.89085853 -0.8451386 -0.5445924 0.68780273 -0.92174935 0.38648254 0.697247 0.9326152 0.83374906 -0.79699314 -0.19761986 0.032110892 -0.79539317 -0.44239798 0.8073972 -0.7293409 0.8589549 -0.093751185 -0.4577823 0.34413847 0.2790862 0.6497851 0.84335965 0.59687924 -0.9158367 -0.04587957 0.9584779 -0.89576554 0.07211823 -0.81555915 0.8573451 -0.80475366 0.83139074 -0.9486213 0.8521182 -0.8839424 -0.8510637 -0.5504535 0.49072078 0.76428694 -0.85256726 -0.12541202 0.8848219 -0.7836771 0.26125723 -0.7570242 0.09013223 -0.11294552 0.67412555 0.06290282 -0.6546024 -0.9273163 -0.07622095 0.93582356 0.8564911 -0.48932475 0.33417326 -0.51403004 0.92737526 -0.9052477 -0.39787626 0.7678363 -0.69927037 0.8146366 -0.933483 0.95173717 -0.84760535 0.7985079 -0.6967741 -0.83747524 -0.4983478 -0.804107 -0.5910683 -0.84601974 -0.9198944 -0.83829165 -0.90984625 -0.8898939 -0.8168624 -0.76186407 0.8888552 -0.93579054 0.94517386 0.2843045 -0.85017854 0.94490105 -0.604862 0.90728813 0.94930685 -0.53232324 -0.90876913 -0.30085644 -0.4781274 0.8757838 0.5728465 -0.27369425 -0.9448707 -0.39206886 -0.9236955 0.9011303 -0.8929228 0.58314383 0.2509184 -0.94892496 -0.8907064 -0.37110776 0.49971214 0.81039333 -0.7564707 0.81891775 -0.13743249 -0.121660724 0.86055744 -0.87585664 0.77649504 0.27902994 -0.8102076 -0.26672867 -0.8866296 0.88460904 -0.89145064 0.84405375 -0.9370614 0.2464146 0.8771411 0.85383683 -0.3641658 0.76835555 -0.80034876 0.95148206 0.84924924 -0.8472141 0.8406868 0.38388503 0.791531 -0.6555908 0.6186513 -0.8226614 -0.38265866 0.75244206 0.93639636 0.81814015 0.8518661 0.894318 0.91073215 -0.4265875 0.38606226 -0.58239925 -0.81967723 -0.67035717 0.5873254 0.91696155 0.7415322 0.56006193 0.92564446 -0.8131511 -0.8615431 0.48366776 -0.915059 -0.8021307 0.7488228 -0.9075092 -0.7047528 -0.45735162 0.7249999 0.85040903
DateGroup171173.java,0.45286795 -0.082744 0.71159285 -0.036799002 -0.30522805 0.1359151 -0.10547112 -0.52057266 0.31818983 0.08579244 -0.67768264 -0.18825597 -0.15580602 0.5570725 0.15197977 0.6920749 -0.01889157 0.6032862 -0.5930436 0.31548545 0.35869437 -0.4472822 -0.26763684 0.44257635 0.05126199 0.2926254 0.3115401 -0.073682524 0.08430251 -0.17371798 -0.48215085 0.070256256 -0.08972226 -0.117636174 -0.5484021 0.23419955 -0.5313293 -0.39644697 -0.30041704 -0.005686733 0.5828434 0.7219076 0.65734553 -0.44060087 -0.4104572 -0.011107088 0.50843716 -0.12702355 -0.23943193 -0.43479818 -0.039452255 -0.69804317 0.24930233 -0.10207588 0.30060843 0.5629854 -0.21890613 -0.06256729 0.062191837 0.22757682 -0.6762496 0.28593642 -0.070706196 0.31697094 -0.9046238 0.28039753 -0.048143428 0.36712286 0.16587293 -0.3380524 -0.51856065 -0.10872967 0.5154704 0.12522763 0.36536852 0.19328748 -0.02350457 0.4517 0.45742857 -0.0030836202 0.43384314 -0.31968778 0.51138955 0.46062535 -0.12247591 0.17162919 -0.2803112 -0.009202084 0.009560086 0.34578058 0.6545724 -0.41872945 -0.17336653 0.22247832 -0.38318026 0.2929014 0.16412419 -0.77777743 -0.6002976 -0.33897087 0.41300607 0.31612298 -0.42987487 0.4371014 0.2780515 0.35591677 0.052294757 -0.5571767 -0.09079303 -0.7426761 -0.050644256 -0.12939583 0.46361595 -0.6194793 0.35401618 -0.4016697 -0.12731415 -0.24921831 0.11599645 -0.017570283 -0.010110704 -0.50015974 -0.56217486 0.57061213 -0.2856726 -0.7782289 0.00427743 -0.15040568 -0.8092799 0.74793035 -0.0006611347 -0.4332135 -0.6636292 -0.27154648 -0.17771804 0.35644275 0.5573955 0.37337324 -0.06592311 -0.103848904 0.44018918 -0.23788488 -0.3113401 -0.36031488 -0.50976175 -0.25440168 0.25401455 0.11826779 0.3505223 0.27928117 0.40854102 -0.06665909 -0.85489315 -0.13082272 0.038078856 -0.00238177 0.15397139 0.6293407 -0.5021159 -0.25787818 0.12482298 -0.37629235 0.23122013 0.34319723 -0.067837656 -0.009390622 -0.39609483 0.43377683 0.3594019 0.076297194 -0.27785105 0.26845366 0.36280847 -0.32324287 -0.53372234 -0.4278123 0.32954177 -0.30700487 0.48410714 -0.6009647 -0.28752178 -0.4905602 0.34186208 0.030094711 -0.061915454 0.06010462 -0.14243564 -0.09064139 0.29325902 -0.20610105 -0.17280185 -0.48759484 0.11577387 -0.0696918 -0.3845402 0.3707372 0.16229035 -0.09766893 0.33095378 -0.5018031 0.6136035 -0.54255766 -0.16262653 -0.31669906 0.4826134 0.57471335 0.47508553 0.46751347 -0.39706266 -0.84215945 -0.107455306 -0.72352844 0.7090482 -0.73069316 0.068956986 0.52458566 -0.47523272 -0.7927262 -0.28223512 -0.100108154 0.098805875 -0.053165488 0.46995515 -0.2195516 -0.5480024 0.6167518 -0.16757248 -0.51525676 0.18065888 0.15285623 -0.25586128 0.121381864 -0.67261803 -0.18008588 0.16680998 -0.024855277 0.67717385 0.45202854 0.13214655 0.29840323 -0.396813 -0.28542972 -0.26491737 -0.51114976 0.43106556 0.29881227 0.134753 -0.4522678 0.050074283 -0.24872518 0.6022569 -0.2650373 0.5149568 0.7935033 -0.31342304 0.72003025 -0.20572503 0.2605516 0.29105106 -0.5783046 -0.64108455 -0.2480118 -0.3624066 0.55916023 0.32837415 -0.3102131 -0.10987888 -0.4057902 0.45166412 0.27330816 0.52942115 -0.47437397 -0.27094185 0.51413 0.2357516 0.32471907 0.2755039 0.7087438 -0.67371094 0.5219188 -0.14161381 -0.5965089 0.59793913 0.6373245 0.7072002 0.46376485 -0.00963521 0.73844224 0.40598294 0.5484857 -0.44525322 0.37070876 -0.2688047 -0.64861274 -0.006230995 0.30725947 -0.8128335 0.14283057 0.41082847 0.018800348 0.69919544 -0.10229666 -0.27960405 0.49638692 -0.102330565 0.07829355 -0.21249177 0.21750568 -0.56045043 0.4387211 -0.47089404 0.33406454 0.38190472 0.38131103 0.11019586 -0.24011263 0.3595019 0.68874204 0.71875703 0.52446806 0.44236615 -0.7277634 0.57101566 -0.28236476 -0.44211757 0.48266715 0.40458095 -0.25303295 -0.22483096 -0.04406879 0.48267433 0.6459699 0.7592107 -0.40793964 0.44657886 0.46042174 0.18224658 0.19963256 -0.047872696 0.008693837 -0.87061626 -0.6643724 0.38610438 0.07343454 -0.5306592 -0.24180545 -0.27651656 -0.5050393 0.6893888 0.28706276 0.3054312 -0.07365934 -0.4505573 -0.15208784 0.8164833 -0.27228904 -0.73924804 0.44864374 0.47861412 -0.06518151 -0.02229956 -0.106287256 -0.48686454 0.60836774 0.29317918 -0.7363749 0.67089105 -0.24104707 0.0035094135 -0.61507124 0.19226307 0.3935068 -0.24419466 -0.7027699 0.22166485 0.33738792 0.62242186 -0.31028515 -0.52849466 0.7165204 -0.17218022 -0.6949425 -0.6556162 0.098784246
DateGroup175177.java,0.9229931 -0.9107925 -0.113715954 0.4309758 0.05217866 0.881216 0.7462142 0.5711552 -0.92452323 -0.7756205 -0.6875853 0.5054567 0.8319624 0.93156457 0.51705086 -0.044091623 0.826844 0.87468016 0.32809672 -0.81508213 -0.6123704 0.11443441 0.2869642 0.6024568 0.055371076 -0.9045372 -0.09374733 -0.77467036 0.031468876 0.5714062 0.29677695 0.79235 0.5177357 0.08744647 -0.96146894 -0.0068902075 -0.009771556 0.2574209 -0.1545631 -0.6599246 0.2898322 0.8463648 -0.45525113 0.88086903 -0.41000897 -0.526126 -0.14605324 0.8407708 -0.4122344 -0.97315764 -0.744843 0.73810345 0.7230944 -0.5675238 0.6788407 0.89147246 0.6300099 -0.2147296 -0.43709671 -0.70755893 -0.09554899 -0.625451 0.38353235 0.2258261 -0.54998285 0.8146449 -0.5337368 -0.7446881 0.8575193 0.87043524 -0.9816934 0.46252277 -0.25643566 0.89246315 0.94437224 -0.59605783 -0.5455313 -0.06899528 -0.055878077 0.81651723 -0.72178286 -0.6850155 0.8686669 -0.09721236 0.17639089 -0.6485532 -0.43583873 0.6726815 -0.6156668 -0.837222 0.954886 -0.7146262 -0.71965784 -0.018314008 0.9302974 -0.20880593 0.6672616 0.2541897 -0.776708 -0.7464034 0.90849674 -0.5238654 -0.6126132 -0.8557649 -0.9233146 0.42516252 -0.87634254 0.39359593 -0.78621113 0.83530766 0.44003904 0.5775244 0.95717025 -0.7469994 0.2774939 0.23845962 -0.06772669 -0.79278576 -0.9561387 0.9467875 0.6603625 -0.7728288 -0.26514864 -0.85273737 -0.74523944 -0.7380874 -0.25924814 0.7516677 -0.9226118 -0.85554963 0.7893575 -0.54360735 -0.6179824 -0.7291348 -0.8199449 -0.45739016 0.8360841 0.522778 0.51185983 0.37709853 0.77080095 0.96736467 -0.2469759 -0.5583273 -0.73057705 0.5980534 0.4862749 0.7257224 0.7457945 0.76304305 -0.4108278 -0.5486523 -0.44248515 -0.859996 0.35281482 0.75011027 0.83157617 0.9303961 -0.8459725 0.8363783 -0.63644516 0.9444685 0.78197587 0.73209625 -0.9245023 -0.24007492 -0.7167494 -0.12451578 0.64522743 0.79463667 -0.0012669489 0.4433032 -0.69027895 -0.8275038 -0.9282523 0.3963911 0.7150017 -0.9404506 0.9245272 -0.5907373 0.54251117 0.644692 -0.66065836 0.7675119 -0.08956039 -0.082224414 0.91497874 -0.7945189 0.81835294 -0.034707025 0.9040681 0.97054 0.3018774 0.43085057 0.5665858 -0.17317262 -0.54791737 -0.80207086 -0.33896235 -0.20123315 0.44756076 -0.13494742 0.8221228 0.9678491 -0.47864744 -0.061729953 0.66090405 -0.72416466 -0.62992865 0.3088927 -0.90877074 0.12529744 -0.31844956 0.33356816 0.77912545 0.84540856 0.9301511 -0.59786147 0.8199229 0.76172525 0.73256034 0.032565776 0.8246149 -0.88582516 -0.048923653 -0.2794783 0.8522854 -0.88500404 0.83339554 0.79182285 0.9022988 -0.09982258 -0.9318403 0.6159354 0.59309024 -0.9096055 0.9447489 0.08501318 0.76029664 0.8789223 -0.82680297 -0.9436531 -0.10277488 -0.6062345 -0.8264599 -0.7668765 0.051700324 -0.38244042 -0.84103566 -0.8232869 0.61944133 -0.5923829 0.95500594 -0.6426532 0.68918633 -0.8220719 -0.8987936 -0.7973358 -0.4920775 0.6176937 -0.85089284 0.2564718 -0.8568627 0.09746905 0.3184477 -0.54960114 0.20932612 -0.8490111 0.863767 -0.91037124 -0.1001522 0.67835027 -0.5691582 0.7385333 -0.22172993 0.75366366 0.7594054 0.89230335 -0.20250428 -0.66295934 0.63890934 -0.87649345 -0.18338875 0.92492145 -0.74476683 0.9052464 0.97042173 -0.7273161 0.63555413 -0.6692974 -0.39681354 -0.6900717 -0.8110433 0.055507768 0.6375142 -0.86424595 -0.90385276 -0.8794437 0.12418494 -0.5688349 0.74508536 -0.48073637 -0.84940976 -0.8451114 -0.98615396 0.808373 -0.635982 0.33411625 -0.8542002 -0.7044028 -0.8707426 0.79362476 0.958674 0.54342496 -0.6815672 -0.66859955 0.7971551 0.7562294 0.792081 0.95430446 -0.94788325 -0.54527545 -0.90533304 0.20704898 -0.8589989 0.75805837 0.8745476 0.8353597 0.74067754 0.66465724 0.9164385 0.89511967 -0.35133934 0.8561274 0.9064583 -0.369161 -0.5680892 0.20247683 0.5223594 0.569811 -0.17897 0.7154488 0.7744365 0.8723317 -0.9892866 -0.8743173 -0.53005135 -0.85331106 0.9539099 -0.32317126 0.8705244 0.85084385 -0.1248074 0.8566368 -0.40805453 -0.95925075 0.11358796 -0.09767792 0.87884796 0.29809472 0.6709408 0.7731806 -0.42445827 -0.8754745 0.9228524 0.70513815 0.8110662 0.25899082 -0.83219737 0.6410458 -0.89477694 -0.30297065 -0.7935241 -0.906567 -0.012676403 -0.022864126 0.9051937 -0.70683503 0.6632404 0.86943656 0.32332766 0.8636495 0.8326917 -0.7814755
DateGroup179181.java,0.6151563 -0.8325947 -0.98863935 0.59705627 0.07694291 0.7130498 -0.46919703 -0.9806769 -0.9913034 -0.7518931 -0.6784821 0.96551913 0.95953226 -0.903321 0.8602735 0.9628641 0.8598658 0.99568903 -0.1916997 0.08189925 0.969633 0.8323115 -0.913985 0.9669944 0.9894874 0.26307914 -0.7339572 -0.8081281 -0.3226049 0.80158675 -0.98757297 -0.004590586 0.67496073 -0.55069363 -0.3771059 0.02536638 0.16358845 0.95705605 -0.20047183 -0.9889726 0.04650159 -0.607509 -0.17299694 -0.2380168 -0.8829831 -0.026151955 0.6201546 -0.973036 0.88324773 -0.9982189 -0.26304924 -0.72634655 -0.5827762 0.9586616 0.97078365 -0.87471557 0.50076824 -0.9311814 0.8814316 -0.20310779 0.45090136 0.9103948 0.7737609 0.9405453 0.79863364 0.7346737 -0.9134593 -0.9590811 0.62168217 0.36230543 0.17250963 -0.9579125 0.9619694 0.8799871 0.7883526 -0.48871672 -0.6991148 0.8971877 -0.08648998 -0.62771004 -0.33449817 0.92633605 0.9273946 -0.81687707 0.2700735 0.5532068 -0.96062577 0.95318574 0.13129954 0.9932346 -0.20843127 0.80259365 0.95992815 -0.94723797 0.95600677 -0.7194244 -0.8174065 0.62970126 -0.99324775 -0.99025303 -0.49841046 -0.14557932 0.97895336 0.3621009 -0.9794441 0.8259226 -0.9818189 -0.95268905 0.14186904 0.27916598 0.93072665 0.04869793 -0.79133195 0.2613394 0.89454854 -0.92415357 -0.97638553 -0.1637293 -0.07229674 -0.45251334 0.8601342 -0.7776766 -0.120784044 0.97653997 -0.83222544 -0.673422 -0.19378474 0.41214037 -0.40386403 -0.64723086 -0.92171514 0.9851644 -0.6635753 0.05182147 -0.9048195 0.76184475 0.9669032 0.41153887 -0.8979798 0.98555243 0.9949186 0.9535177 -0.99002606 0.42202783 -0.31724563 -0.20010619 -0.21326225 0.97876656 0.5260507 -0.98619324 -0.05866974 -0.8665751 0.003013678 -0.9881933 0.7980976 -0.8288515 -0.85018593 -0.34769586 -0.98173213 0.34020334 -0.90720326 -0.43159708 0.93759614 0.9634342 0.39077923 0.93884915 -0.9791026 -0.6555874 0.95631564 0.921921 -0.9969934 -0.946151 -0.92785513 -0.257689 -0.04392767 0.95038295 -0.83559144 -0.9556298 -0.65453297 0.95111305 -0.94507515 -0.5984971 -0.16524085 -0.78715235 -0.6483402 0.84615445 -0.15434451 0.3212816 -0.15558746 -0.9859364 0.7862131 0.88128847 0.081577994 0.9525498 0.7843175 -0.63834625 -0.58963525 0.8878393 0.20795812 0.40421474 0.7539916 -0.90018404 0.8902576 0.9882583 -0.8549323 -0.08399016 -0.4109074 -0.9939885 -0.55912644 0.8539767 0.97596705 0.057032973 0.06069663 -0.87599313 -0.85204136 0.5722927 0.9426912 -0.778135 0.79637635 -0.7927101 -0.7331212 -0.69088215 0.8626328 -0.7760457 0.099540934 0.71661544 0.49156755 -0.9709653 0.7292682 0.18821315 0.73192656 -0.1543473 -0.32724607 -0.33878917 -0.93773794 0.9376645 0.9732927 0.0357453 0.98390836 -0.30196586 0.47148573 0.13671331 -0.9085617 -0.87242264 -0.11052751 0.1868969 0.03791212 0.22815815 0.37260944 -0.69695604 0.7587122 -0.99350315 0.8269125 -0.27258432 -0.8786884 0.79746354 0.7129481 -0.940192 0.8303231 -0.97446376 0.46346617 -0.2007321 -0.2729116 -0.4322137 0.82101965 -0.7557152 -0.02533476 0.20069587 0.9692513 -0.9915869 0.5118656 0.9045227 0.95129406 0.58052516 0.9883765 0.24296923 -0.21913043 -0.82978535 -0.78538895 -0.19176786 -0.13438536 0.0014720112 -0.23936315 0.9947505 -0.77858293 0.9947093 0.8809029 -0.9480946 0.8473767 0.82882077 -0.8679405 0.99415374 0.2686344 0.49853623 -0.87349033 0.2038735 -0.96717405 -0.8787078 0.8636549 -0.93388075 0.85281026 -0.7589337 -0.035864174 -0.5887184 -0.9800728 -0.9968925 0.8642825 -0.1783521 -0.9952532 0.32229668 -0.82112753 0.82632625 0.73038656 0.9016824 -0.65906006 0.68282837 0.895275 -0.8726131 0.9845543 -0.8676299 -0.77723503 0.06871568 -0.6880018 -0.008081101 0.8800016 -0.29409224 0.58040994 0.912293 -0.74842036 0.5624784 -0.6870873 -0.39214498 -0.16743363 0.79537183 0.6990229 0.046083808 -0.88043594 -0.95944285 0.965853 -0.8072146 -0.9596244 0.2544107 0.49122208 0.99370456 -0.24116105 0.92000204 -0.8742603 0.30124995 0.9609018 0.09016059 -0.34054422 0.907567 0.16337827 0.024499029 0.21179704 -0.0060513318 -0.9790111 -0.926108 0.92948157 0.9677485 0.972184 -0.9716344 -0.4156074 -0.8466917 0.2213969 0.9694264 0.99101615 -0.2224674 0.14704816 -0.09768807 0.4022994 -0.85979754 0.63689005 0.11207345 0.13729015 0.946179 0.8879225 -0.9648142 -0.9883266 0.99006975 -0.98594415 0.989584 0.9690447 -0.9146664
DateGroup183185.java,0.6748133 -0.8871782 0.71526057 -0.5339061 0.287299 -0.43143868 -0.5635371 0.3205678 -0.82051224 -0.62043166 0.8033034 0.81824595 0.2992062 -0.5830747 -0.4343603 0.99110013 0.68493724 -0.80203784 -0.16063009 -0.768917 -0.14963865 0.8814642 0.47770178 0.980653 0.88989943 0.4629579 -0.20947954 -0.26220468 -0.58642745 -0.146768 -0.66565 0.83166015 0.05004662 0.08631383 -0.94944775 0.58685297 -0.17569299 0.022840975 -0.11480868 -0.6666169 -0.5193354 -0.5857637 0.70424116 -0.8109787 -0.1951972 0.69644606 0.07564293 0.86101156 0.28675783 -0.97836685 0.34462336 0.6566497 0.7584483 0.5816268 0.94656265 0.03352176 0.74594975 -0.87471986 0.8096195 0.37992433 0.2704998 -0.65428174 0.82623094 0.92610407 -0.931861 0.78095174 0.81266814 0.754022 0.8061992 0.75174695 -0.9714808 0.7634354 -0.2701829 0.6348913 0.86831576 -0.64304155 -0.8181816 0.6354715 -0.17264631 -0.4127056 -0.8395853 -0.91665626 0.9549763 0.8989622 0.053422786 -0.14609212 -0.42137513 -0.8041678 0.5504401 0.46852583 0.59280276 -0.64059556 0.45701495 0.47202632 0.6939136 -0.067725524 0.33545968 -0.35066435 0.5493553 -0.66900605 -0.7361454 0.49076617 -0.6288336 -0.72352064 0.75451934 0.5985168 -0.77868074 0.7510344 -0.75754607 -0.012267113 -0.24161623 -0.591779 0.21838799 -0.9070853 0.9660878 -0.8209675 -0.9237838 0.641119 -0.9501947 0.86102223 0.6113949 -0.21230641 -0.7505065 0.8391869 -0.49902433 -0.10616238 -0.17541017 0.073259644 -0.9195264 -0.474963 0.92551297 -0.2580915 0.12890103 -0.6555217 -0.9395297 0.12576659 0.6942574 -0.5546321 -0.10750139 -0.9254353 0.8382777 0.9493073 -0.76862925 -0.7809088 -0.8719985 -0.053599276 0.65621936 -0.08681582 0.60497814 -0.3780514 -0.6416255 -0.45310605 -0.016154362 0.26019865 -0.8352998 -0.7438954 0.54782957 0.8920703 -0.84395903 0.6215881 -0.5982096 0.1966823 -0.16040406 0.6324574 -0.8093088 0.7500833 -0.30910438 0.4685009 -0.22894198 0.41708726 -0.4300785 -0.42485446 -0.8166579 0.4590795 -0.81181365 0.7334597 0.9138795 -0.9127302 0.88788664 -0.69085085 0.050992 -0.4018106 -0.3329828 -0.86824703 0.060554843 0.74253464 -0.41129848 0.2632298 0.9086893 0.7714447 0.8572234 -0.05507733 -0.23677158 -0.26562458 0.0076216795 -0.42143854 0.9552012 -0.7561622 -0.7944906 0.60369056 -0.28137255 0.7134231 0.6440904 0.8766319 -0.37618577 0.7315384 0.5768437 -0.94217414 0.2127092 -0.86568815 0.7372982 -0.8749621 0.64982593 0.5781434 -0.123030424 0.7749492 0.8256133 0.36498114 -0.05561797 -0.68281925 0.7506232 -0.7811572 0.7941038 -0.16881007 -0.9341476 0.8566921 0.8182103 -0.9815739 0.7990356 0.8565023 0.60145456 -0.5341219 -0.7455508 -0.009217031 0.73894274 0.7337271 0.29052043 -0.66070133 0.58454025 -0.14539982 -0.596414 -0.7092028 0.23610134 -0.25094208 -0.5811551 0.15284209 0.033594005 -0.7895576 0.55054694 -0.53428316 0.43167225 0.63575464 0.96450925 0.5175993 -0.031743348 -0.08720547 -0.599822 0.3118052 0.079009764 0.74847424 -0.32741457 -0.7793007 0.7209954 0.32607627 0.23253529 -0.7616398 -0.08407503 0.49074894 0.71136135 -0.90174663 0.82319915 0.13216871 -0.16570434 -0.17733252 0.5868115 0.786331 -0.71529573 0.8576275 -0.9446103 -0.54839826 0.49753064 -0.25644705 0.13186736 0.89495075 0.7113093 0.8453607 0.9413677 -0.73214674 0.32034436 -0.64751595 -0.9022037 0.5663304 -0.4504674 -0.54467434 -0.97751766 0.18342887 0.24073547 -0.38049638 0.8857999 -0.9444535 0.25827157 0.81764936 -0.94192654 -0.7842101 -0.9784727 -0.32050765 0.8610949 0.006946288 0.1662088 0.82574326 -0.9119514 0.4081517 0.9087892 0.69209975 -0.6949693 -0.95031506 0.7156549 -0.79666454 -0.8385789 -0.42703196 -0.99237335 -0.58181363 0.5621812 -0.51416534 0.65942943 0.78001857 0.46706834 0.71414083 -0.6250026 0.26245338 0.5992953 0.11216698 0.7744638 0.75859046 0.9378998 -0.0056651663 -0.12654905 -0.86818165 0.65188074 -0.84959507 -0.13312419 0.17839341 0.8035211 0.8793182 -0.9839789 0.7686867 -0.71758646 -0.5873816 0.94264394 -0.66259354 -0.054430604 0.7849751 0.2895197 0.66930896 -0.22847927 -0.9378508 0.46157768 -0.05126948 0.7932051 0.12577738 0.5276152 -0.8863296 -0.6888182 -0.8307395 0.7233386 -0.8394803 0.48584768 -0.4114043 -0.9001231 0.76259136 0.51862514 -0.70455676 0.55085754 -0.8176645 -0.22137202 0.7891917 0.60790336 -0.7866358 -0.92733926 -0.7750292 -0.7615714 0.41695616 0.31492862 -0.3323201
DateGroup187189.java,0.8190678 -0.7009113 0.8224834 0.29321715 0.9398729 -0.31980345 0.27482587 -0.95896083 -0.8671733 -0.93140256 0.11712165 0.44801927 0.37037748 -0.55946934 -0.81234056 0.9943016 0.9689665 -0.79631317 0.17419946 -0.19894426 0.96728325 0.34999934 -0.914076 0.6711724 -0.23488806 0.9608037 0.14865296 -0.31712973 -0.8831462 -0.9229755 -0.95562744 -0.048262224 -0.8445611 0.30214846 -0.9835506 -0.6931977 -0.59356487 0.88474894 0.6590193 0.9909305 0.9670052 -0.4035992 0.6973196 -0.43806696 -0.89382505 0.948685 0.9145523 -0.9229324 -0.9083431 -0.98551375 0.72621554 -0.90708864 -0.96514726 -0.73515666 -0.53148174 0.25859314 0.9503428 -0.30616432 0.006831009 -0.9514673 0.96718824 -0.2663907 0.32162067 -0.49366063 0.58502805 0.9597593 -0.94218343 -0.9780596 0.4995615 -0.9813044 -0.82669145 0.06640318 0.610986 0.95810926 0.99248075 0.93954057 -0.94110405 -0.07190296 0.81055 -0.9530931 -0.9270886 -0.68781507 0.5350184 -0.40341413 0.8842259 -0.5240108 -0.81942576 -0.11754523 -0.92608196 -0.46165812 0.9758162 0.97669 -0.96215004 0.9490813 0.977022 0.20234913 -0.9436342 0.451939 0.9514877 -0.39757994 0.9810099 -0.88730204 -0.9622323 -0.27969787 0.4452513 0.8249752 0.408437 -0.9872617 -0.9005726 0.94832426 0.85017884 -0.45672056 -0.4282727 -0.6043374 -0.43658885 -0.88134414 0.9186014 -0.93073213 -0.9702683 0.984948 0.8778361 -0.7721089 -0.97466063 0.94517046 -0.9283163 -0.98321 -0.55838835 -0.82098806 -0.986237 -0.9609908 -0.74389195 -0.943914 -0.84101236 -0.6322889 -0.76373804 0.9722683 0.9020971 -0.84920096 -0.971218 -0.34232157 0.65187883 0.85002214 0.82576835 -0.9485063 0.9155467 -0.26426238 0.95945066 0.4303208 0.97580725 -0.338181 0.9700661 -0.34740144 0.8567344 0.9872583 -0.8499211 -0.36889303 0.9790114 -0.6025281 -0.9594467 0.92129916 -0.42557013 0.7426544 0.97993314 -0.606559 -0.4690775 0.94733936 0.028270774 -0.40137413 0.78254175 0.24401614 -0.280305 0.34960485 0.96344316 -0.9610219 -0.9900729 -0.9256026 0.98748285 -0.7154682 -0.017768174 0.22079758 -0.53065175 -0.99210626 0.1804488 0.29848677 0.82871747 -0.91171634 -0.8927301 0.94676006 0.93705326 -0.36081615 0.96866196 0.99181 0.61386025 0.7367586 0.844261 -0.80536324 -0.61961955 -0.9288055 0.9164913 -0.8880906 -0.68766457 -0.4287107 -0.31982318 0.83202606 -0.8817302 0.9426117 0.96005887 -0.9253656 -0.05082967 -0.9868686 -0.80405146 -0.004697196 0.6631262 -0.98934543 0.8811417 0.90424067 -0.92832696 -0.31206864 -0.97026116 0.9736254 -0.036767058 0.95820314 0.95626086 -0.07040526 -0.6920282 0.86608505 -0.805829 -0.9971295 0.12420724 -0.53355193 0.9881692 0.79180795 -0.948026 -0.40056393 0.9860116 0.6420314 0.9948769 -0.043579947 0.9528232 0.94124424 -0.81220984 0.3151631 -0.97550154 0.04147169 -0.9209428 -0.47749752 0.59071976 0.7871885 0.2010122 0.5772434 0.9846111 -0.33591 0.8682947 0.9690191 -0.9723964 0.939336 -0.9269306 -0.6845753 0.99189657 -0.9663801 0.013429429 0.79071856 -0.18136759 -0.41556168 0.49529597 -0.95448256 -0.66406524 0.39063483 0.9622912 0.95897925 -0.7412282 0.4994167 -0.43389636 -0.6983558 -0.94595903 0.23462018 0.25849247 -0.95081514 -0.9586709 -0.763481 0.7678215 -0.9617332 0.45078352 -0.96519244 -0.5764965 0.96281195 -0.3854819 0.9870798 0.89841694 -0.52178526 -0.99901325 -0.481941 0.63526684 -0.4717238 -0.995854 -0.29179394 0.25383943 -0.8377065 0.9657322 0.80514383 0.48055097 0.8499449 0.68622 0.9685513 -0.11085585 0.954724 -0.85333514 0.07812342 -0.735687 -0.8014101 -0.82098305 0.9815691 -0.060431387 -0.87581193 -0.4119912 0.6593695 -0.57234895 -0.2500366 -0.92065674 -0.22651206 -0.53551894 -0.9541892 0.6683811 0.45814878 -0.7657615 0.83847743 0.96587706 0.9667193 0.83386844 0.70569885 0.2850809 -0.9402684 -0.9502332 -0.06444741 0.8539456 -0.3002872 0.22602251 0.96874225 0.8616901 0.5679192 0.11739428 0.6235639 0.9473549 -0.13913727 -0.9906976 0.06888433 -0.8626435 -0.9528614 0.89546883 -0.93853277 0.6226639 -0.17167199 0.01256929 -0.94690496 0.96561223 -0.98749614 -0.9774968 0.84668946 -0.5511131 0.9219703 -0.87737197 0.24117024 -0.9601731 -0.9693218 -0.03138815 -0.49196458 -0.9389696 -0.9887236 -0.7894653 -0.4627244 0.13529558 0.27860862 -0.29179165 -0.9975215 -0.4702732 0.94079363 0.977656 0.34560886 0.50307596 -0.648242 0.9922219 0.96809924 0.7569364 0.962646
DateGroup191193.java,0.38108677 -0.011123966 0.6060921 0.59727097 -0.1087473 -0.21895546 0.8430443 0.32340732 0.4908506 0.5856061 -0.51742315 -0.27637398 0.92809397 0.86668557 0.474945 0.20827591 0.5744965 0.78612256 0.30969667 0.04052395 0.33079052 -0.06691972 -0.91731036 0.94319105 0.47764525 0.2898289 0.36134097 -0.0019032955 0.39282417 -0.4022592 -0.553691 -0.079419166 -0.5184133 0.66300803 -0.85017025 0.42545086 0.04272308 0.1249187 -0.6679522 0.6494431 0.78151035 0.708426 -0.51332676 0.44202954 -0.5304352 0.7389056 -0.5460153 0.58397454 -0.36202368 -0.6259381 0.54557055 0.27175495 0.79590493 0.7076176 -0.008550908 0.93186337 0.09851612 -0.62890196 0.69885653 0.54237103 -0.66958165 0.88375735 0.7448955 0.8804205 -0.8630045 0.57351255 0.59117365 0.44192216 0.77621734 -0.009497649 -0.6570539 -0.032556303 0.03872252 -0.28951988 0.8148965 -0.19067863 -0.48219097 0.7186307 -0.3044514 -0.7419986 0.69806844 -0.80817056 0.5301552 -0.71414626 -0.3381497 0.54047745 -0.77126247 -0.11282616 0.35208705 -0.17551398 0.9492962 0.25544396 0.28736874 -0.4332328 0.3253493 0.735486 -0.6079384 0.056210216 0.5311809 -0.6811193 0.7418914 0.3640566 0.48182246 -0.38969263 0.64879835 0.5983804 -0.71911776 -0.8965593 -0.5899722 0.4207577 -0.6316724 -0.5771311 0.3565358 -0.7284447 0.9253791 -0.7418741 0.40481606 -0.55805486 0.115070775 0.23085253 0.6833426 -0.94533664 -0.5790194 -0.46082953 -0.82465154 -0.18560536 0.66308653 -0.91656816 -0.3122997 0.7945373 -0.2609983 -0.76146525 0.4260333 -0.3112109 -0.34047228 0.86465746 0.63154835 0.42034417 0.8735363 0.69213384 0.0741961 0.29560357 -0.51244617 -0.3455193 -0.82190394 -0.012754479 0.05030683 0.52629024 0.9212706 0.13821852 0.8661825 -0.22265618 -0.71802914 -0.32226482 -6.749481e-05 0.3748391 0.4417973 0.7911725 -0.9657409 0.24787343 -0.448784 0.5444435 0.60168153 0.75431657 -0.62646675 -0.40556672 -0.61058795 -0.10008142 0.24831814 0.46130115 0.6610581 0.46876878 0.906741 -0.617642 -0.5935712 0.14805056 0.25509405 -0.8572522 0.89440256 0.49203503 -0.74812764 0.14064868 -0.03120718 0.37752953 -0.6199532 0.8172743 0.40370324 -0.54123175 0.7793852 0.8172822 0.27706683 -0.057546653 0.7598055 0.024691246 -0.35315615 0.7257735 0.103454135 0.7401982 0.5376587 -0.72164714 0.74412924 0.4232248 -0.37962255 0.7805237 0.48586956 0.36314446 0.8374917 -0.26019004 0.60409474 -0.85648596 0.16965698 0.4045518 0.4506614 -0.9897454 -0.6064704 -0.7290492 -0.24476194 0.4875418 -0.29879087 0.5351106 0.18177292 -0.17345323 0.5548549 0.43388015 -0.9316089 0.53244185 -0.55738825 -0.9610361 0.9311442 0.260393 -0.5501432 0.4861299 -0.6921377 -0.5191146 0.46739227 0.49929562 0.5331398 -0.6258511 -0.046843994 0.72614574 0.06790444 -0.2662 0.47355998 0.2619032 -0.6507606 -0.68444556 0.40713254 -0.9406868 0.25825444 -0.29660234 0.76943785 0.39877248 0.97499615 0.03014526 0.11545565 0.8184857 -0.4247842 0.37790826 0.9662816 0.024969157 -0.5007107 0.58058393 0.64749503 0.5792582 -0.5137438 -0.13075903 0.92327917 -0.8529335 0.81813 0.63042104 0.7322673 -0.40571585 -0.45480424 0.71552783 0.32920247 -0.39316767 0.9101586 0.11809985 0.0048191175 -0.28601417 0.70984656 -0.8175686 0.3629496 0.68211895 0.8036942 0.875191 0.16469353 0.19338942 0.66474426 0.35820794 -0.31900844 0.3828134 -0.696879 0.15519515 0.01208207 -0.9381988 -0.7227783 -0.7822904 0.91778123 0.5114087 0.55390376 0.70042485 0.17525783 -0.6991311 0.005097298 0.4511851 -0.5514377 0.54951024 -0.894106 -0.64130294 -0.791999 0.9086032 0.93437296 -0.15920965 -0.5405736 -0.26660284 0.76046854 0.08736088 0.34865943 -0.10863797 -0.49828345 -0.7940944 0.55712366 0.82708144 -0.64401656 0.8868511 0.7168297 0.8144945 0.1845637 -0.1939403 -0.19058338 0.7084479 0.020553965 -0.65367943 0.9603087 -0.6444704 0.055489633 0.27492532 -0.8955637 0.5995127 0.11957526 0.22234622 0.90236956 -0.12901416 -0.9875406 -0.80916476 0.7134613 0.508295 0.7655227 0.37046415 0.79792655 -0.8256592 0.33955675 -0.30314988 -0.07775316 -0.5216672 -0.65400517 -0.81409556 0.67940485 0.9527985 0.3574962 -0.93677175 -0.61108947 0.786001 0.5181474 -0.6063027 0.6886342 -0.32981423 -0.08102047 0.014563497 0.4619267 0.86916834 -0.5285272 -0.54285353 0.061491877 0.35936257 -0.27761754 -0.34739017 -0.6705365 0.97623795 -0.5913583 -0.046235412 0.6285836 0.1711928
DateGroup195197.java,0.3268873 -0.733545 -0.4542141 0.8710705 0.81277287 -0.8919008 -0.45796925 -0.8726867 -0.82393944 -0.4128487 -0.7333766 0.8980882 0.97416264 0.2942156 0.963609 -0.39892963 0.65234435 -0.4443124 0.8274355 0.105976865 0.8936295 -0.57080746 -0.9853907 -0.3123867 0.5448701 0.9306905 0.7006729 -0.436172 0.9553381 0.9540658 0.8563582 -0.6206708 -0.49394327 0.73446715 -0.9877659 -0.84644055 -0.9789865 -0.028666925 -0.10064134 -0.8910157 -0.52518505 0.71213776 -0.8387221 0.774445 -0.83725965 -0.94934034 -0.060613133 0.95479125 0.47562385 -0.99185693 -0.7207445 0.44458598 -0.017519072 -0.53488326 0.45338082 -0.9117127 0.622173 -0.96798277 0.91322577 0.6931223 0.42212635 0.48237532 -0.5178521 0.866993 0.88247395 0.95988244 -0.16312712 -0.5597076 0.34700513 -0.7244241 0.4075476 -0.9237531 0.15691765 0.6867912 0.9867232 -0.9045187 -0.36889648 0.9176157 0.6236404 -0.9651511 -0.9232262 0.5371992 0.90582347 -0.33188096 0.91450685 -0.98275465 -0.90292406 0.9385198 -0.997085 0.45879585 0.9058771 0.8617511 -0.9231968 -0.99567974 -0.5402291 -0.23509446 -0.9743267 0.9131987 0.9787173 -0.47297752 -0.9551966 -0.82788527 0.42634082 0.70073247 -0.93030334 0.9376612 -0.9507311 -0.93714297 -0.94811916 -0.5866031 0.9272049 -0.8850779 -0.83998775 -0.89972734 0.9867331 -0.83577037 0.1528858 -0.865606 -0.54985267 0.6383374 0.84486556 -0.8646866 -0.7633134 -0.87740934 -0.6930022 -0.7101443 -0.53725296 -0.90876377 -0.08507213 -0.71083724 -0.73308325 0.83838147 0.41844437 -0.79494476 0.69388896 0.8762226 0.9295716 -0.7974779 0.15830797 0.96018964 -0.84740317 0.852472 0.9368702 0.96323156 -0.35401052 -0.43569487 -0.5548822 -0.4193829 0.97064316 -0.95971346 0.6443435 -0.6092955 0.30502787 -0.81011546 -0.2890658 0.93509626 -0.028672539 0.44406095 -0.99282485 0.97056645 -0.7539598 0.19730428 -0.5072526 -0.46592024 -0.8968518 -0.88761514 -0.8667752 0.5379126 0.47960445 0.7571136 -0.81687266 -0.10326362 -0.9032209 -0.96332 -0.12963761 -0.59732395 0.88856125 -0.98997635 -0.7120215 0.30650616 -0.7505413 -0.1341304 -0.9216558 0.34310368 0.12391837 0.26232943 0.82143927 -0.8302492 -0.31919208 0.9628045 -0.9765736 0.9901345 -0.7359363 0.9396544 -0.6915544 0.986874 -0.76274514 -0.88540715 0.54716223 0.65863794 0.8688184 0.9333229 0.9013988 -0.270633 -0.89031017 0.4955246 0.6301602 -0.63315386 -0.27591893 -0.26243174 0.8382924 -0.4386313 -0.64510554 0.08663602 0.4249014 -0.99043524 -0.17127246 0.1869871 0.49948695 0.89064264 -0.3023361 0.8117603 -0.36645794 0.8554521 -0.60615534 0.3754304 0.91960883 -0.8391688 0.70702815 -0.14543147 -0.8602401 -0.79410785 -0.98434764 -0.6430634 0.85656655 -0.105954155 0.52843726 -0.31303158 0.36754635 -0.9448621 0.08514039 0.5776613 -0.9764308 0.94165623 0.68569237 -0.6548156 -0.33691266 0.5740865 0.9699065 0.97666377 0.76486903 0.94685495 0.61552036 -0.8618025 -0.93630034 -0.5644828 0.03132215 -0.8921311 0.9261202 -0.6151664 0.73854786 -0.16273573 0.91918707 0.58854586 0.34960383 -0.54138565 0.64812136 0.28021666 0.6688212 0.2669224 -0.94974995 0.25068012 -0.30052808 -0.68212247 0.70005906 0.57918364 0.91321397 -0.112151444 -0.9670591 -0.29709256 0.040646575 0.19212002 0.31738085 -0.9285242 0.926597 0.95618826 0.9932154 0.7139231 0.45237452 0.65681887 -0.0014137933 -0.8028506 -0.026282236 0.8587291 -0.8884733 -0.64596784 -0.9358464 -0.36126208 0.9147872 -0.97251844 0.8064711 -0.38728526 -0.03627789 0.6383098 -0.9709552 0.95055175 0.63669926 0.8089165 -0.8766296 0.9958298 -0.88298243 0.9880142 0.98948586 0.89551675 -0.39000016 0.42151478 0.8203357 0.37171218 0.67080534 0.99470305 -0.7967214 -0.14136228 -0.9746876 0.82519233 0.7797081 0.5293454 0.55055255 0.96832657 0.2371333 0.85099506 -0.580913 -0.7891016 0.048244238 -0.78749144 0.8783296 -0.8293638 -0.061811283 0.873108 0.40749538 0.056839697 0.89159024 0.991753 -0.29948258 0.90270287 -0.13744974 -0.4087426 0.8393477 0.466806 0.9672703 0.99355537 0.9794992 -0.9014725 -0.9347009 -0.9477299 -0.77951765 -0.9894183 0.5732367 0.5417762 0.7240536 0.9812119 0.04800588 0.70349526 -0.57424974 -0.9650677 0.9497464 0.7679123 0.971094 -0.94903004 -0.52802116 0.97090083 0.9072928 0.98103607 -0.7755008 -0.90165615 0.028969165 -0.46554008 -0.89757466 -0.6497195 0.76007354 -0.3459091 -0.73428696 0.9768474 0.9241679 0.9438121
DateGroup199201.java,0.26781014 -0.91214156 0.73974836 0.33534098 -0.8145464 -0.5537986 0.84176546 0.5928625 0.60616505 -0.22269344 0.8213822 0.43742275 0.92748547 -0.56932276 0.76570845 0.18421233 0.47150168 0.7537181 0.0053199586 -0.5983969 -0.7164883 0.5154473 0.60750735 0.8988557 0.61039937 -0.84554785 -0.007738674 -0.400539 -0.37801385 0.87685204 0.45511806 0.83800715 -0.462411 0.65169716 -0.9023028 0.48120353 0.33900568 0.42937046 -0.49701667 0.8160834 -0.8402332 0.5117305 -0.49645844 0.43437627 -0.60314405 -0.6064508 -0.15207648 0.73148966 -0.7682595 -0.04247865 0.46092945 0.8224974 0.7805843 0.82225716 0.31663057 -0.060397033 0.82578623 -0.4877408 -0.35829037 -0.29780912 0.018445488 -0.10042852 -0.16171013 -0.013406293 -0.88544774 0.78403425 0.68284434 -0.920591 0.8286772 -0.93848515 -0.97487265 0.2335422 0.63601184 0.09162611 0.68348736 -0.5764259 -0.6481648 -0.03123981 -0.57305324 0.34820414 -0.83667946 -0.48733342 -0.5732118 0.06583218 -0.7973101 0.21860114 -0.63998115 -0.57973117 0.5333047 -0.7337105 0.66113317 -0.34990323 -0.41832367 0.36678737 -0.6344508 0.43272826 0.17899315 -0.25683838 0.23128642 -0.49194613 0.9159136 0.9080123 0.5761029 -0.8043938 -0.5339887 0.7080643 -0.6473025 -0.9304075 -0.77569896 -0.55447125 -0.29278517 0.2573084 -0.36799425 -0.85493356 0.39680177 0.31563982 0.7317715 -0.7133026 -0.37628478 -0.6767911 0.6603856 0.4940246 -0.7093964 0.7684793 -0.78981185 0.8112578 -0.004451081 -0.88816315 0.5803145 -0.31087852 0.34969813 -0.22756836 0.4784844 -0.8834427 -0.8496758 0.8288599 0.67734706 -0.095360115 0.7541126 -0.5930601 0.8886729 0.8879308 0.65574586 -0.26590642 -0.7804862 0.12912393 0.92962974 -0.82383335 0.78636855 -0.42086253 0.5728164 -0.4734132 0.8533318 -0.7963563 0.7585963 0.6743851 0.906471 0.9003263 -0.9921519 0.2544445 -0.09016742 0.58679473 0.66350436 0.763715 -0.79284513 -0.5409636 0.023694273 0.7309339 0.43012846 0.1376788 0.25138667 0.98060775 0.88231075 -0.8292844 -0.36557832 0.72232544 0.8892894 -0.9382761 0.906713 0.7515221 0.62585926 0.686831 -0.34121132 -0.8092092 0.8317376 0.8355727 0.9068855 0.83407485 0.9523319 0.05240587 0.03741017 0.68820477 -0.6936884 -0.3738224 -0.0102141015 -0.5535402 -0.4848221 0.9639364 0.39598146 0.66251343 0.5284697 -0.24932645 -0.84467155 0.9704215 0.9728236 0.53474224 0.44039983 0.76819515 0.5326594 0.093981534 -0.93634635 -0.12630899 -0.41433725 -0.122384 -0.84428054 0.60336477 0.8551943 0.68385553 -0.18191013 0.23275606 0.70623314 -0.6531739 0.67191535 0.5341777 -0.42368445 0.7979259 -0.5934226 -0.80678135 0.95365506 0.30254433 0.9421793 -0.100310795 -0.7747108 0.5274269 0.89113927 -0.8646936 0.051907286 0.75137144 -0.61534196 0.79076487 -0.75098306 0.084794864 0.5259073 0.7930531 -0.71555126 -0.48762864 -0.038947478 -0.8218262 0.6938738 0.72142476 0.78418237 0.45449844 0.96507215 -0.54072034 -0.037736524 -0.79361355 -0.7796758 -0.61003315 -0.07951722 0.6921938 -0.13571955 0.60915834 0.41978058 0.5169866 -0.3654733 -0.4909518 0.7084399 0.22939397 -0.4699274 0.59181035 0.35720313 -0.31830242 0.9504277 -0.81276953 -0.76586306 -0.10968362 0.9226406 -0.56844467 -0.38179505 0.22255717 -0.44618493 -0.7352706 0.33930033 -0.7615866 0.6365204 0.8966387 0.46902004 -0.6496264 0.51017183 -0.7424112 0.18765503 -0.6253894 -0.7037777 -0.72174394 0.7114166 -0.96068424 -0.8632198 0.34170377 0.25752303 -0.79196364 0.54625607 0.7085217 -0.960932 -0.7801506 -0.9625864 -0.38894814 -0.5448562 -0.06262135 0.2540336 -0.2759955 -0.85373634 0.7685558 0.95637995 0.77146614 -0.6548001 -0.8449879 0.66267866 -0.10562816 -0.9403738 -0.042600233 -0.6955415 0.32484016 -0.8988111 0.27379176 -0.5268691 0.7092807 -0.60329413 -0.64376926 0.64545494 -0.71188605 0.8178256 0.6972987 0.25589642 0.65712446 0.9586392 -0.81859225 0.15818316 0.7880142 -0.8741462 -0.8099566 0.37360278 0.90800965 0.9013558 0.28850904 -0.9874132 -0.63929504 0.6876919 0.8842034 0.91070575 -0.66959834 0.7122984 0.78268695 0.4908385 -0.32916638 0.86836207 -0.8280163 -0.19939321 -0.7671351 0.84893894 0.8829709 0.21191128 0.73984784 -0.0017909892 -0.5949969 0.4914797 -0.22561592 0.86643565 0.6948123 -0.86116946 0.81472015 -0.9076236 0.7960368 -0.5793948 -0.8007617 -0.7506464 -0.020871162 0.27685162 0.3333743 0.12737174 0.05234825 -0.3376817 0.8644431 0.8053117 -0.66950774
DateGroup3638.java,-0.8396529 0.30526477 0.90081614 -0.02559052 -0.36569867 0.48734528 -0.04179882 0.62066466 0.4243763 -0.34461093 0.6302798 -0.10123557 0.9563083 0.18746306 0.3023846 -0.6749763 0.32442766 -0.5283213 0.6182116 0.74142796 0.6076058 0.34951827 -0.9787692 0.667167 -0.4421949 0.58111036 0.9797685 -0.46443114 0.8683211 -0.42179152 0.019902183 -0.15326178 -0.2017279 0.9370339 0.0031438954 0.2244005 0.4215849 0.012606297 -0.26257768 0.8383289 0.5528759 0.65352833 -0.8595611 -0.77990574 0.6678767 0.5102374 -0.25238386 0.95856786 -0.8609313 -0.27917007 0.866291 0.87746257 -0.1069985 0.6400013 -0.6403199 0.61748815 0.9135227 0.5623879 -0.7627914 0.20454857 0.6921947 0.88842595 0.9600534 -0.7226851 -0.70020777 -0.64539444 0.0939427 0.016422696 -0.06154418 -0.17796104 -0.8620514 0.10002823 -0.06503699 0.81422997 0.14472912 0.3796903 -0.9128975 0.44008198 -0.6032437 -0.8500863 -0.47771853 -0.6932931 0.18538204 -0.66531414 -0.2824912 -0.079141825 -0.34680396 -0.7030204 -0.009367704 -0.050248746 0.4846088 0.7150799 0.9290382 -0.8002782 0.94320256 0.76836693 -0.12063514 -0.26538375 0.51163536 -0.22732115 0.12356114 -0.4390464 0.20640588 -0.623632 0.3078485 -0.7807764 -0.41873962 -0.7895852 -0.6675767 0.9245232 -0.22284773 -0.48368773 0.96026206 0.33112255 0.9373193 -0.87398356 0.8147975 0.23783153 -0.89667255 0.7931885 0.70456403 -0.8966106 -0.2599232 -0.6249087 -0.16973785 -0.4153 -0.18384773 -0.32057327 0.07136356 -0.59637004 0.8101811 -0.679147 0.43489388 -0.86502296 -0.22692354 -0.12941566 -0.19228645 -0.1322127 0.36194307 -0.83719754 -0.68367505 -0.62595165 -0.44069105 -0.6463466 -0.7909438 0.15850243 -0.21571833 0.6132879 0.3206949 0.7592865 0.15208158 -0.020508822 0.53966945 0.022977106 -0.8853375 -0.9280904 0.7793227 0.74574673 -0.020526681 0.17035602 -0.35304242 0.47151068 0.9524703 0.62560385 -0.6329715 -0.7124291 0.14490312 -0.8851869 0.35957015 -0.82916296 0.20836154 0.5275618 0.1850832 -0.74810374 -0.4194077 0.8412319 -0.2143026 -0.11108066 0.9232696 -0.6914739 -0.796201 -0.32995185 -0.4313351 0.4348508 0.06833975 0.8944131 0.93173736 0.52902746 0.8717246 0.14886898 0.16035941 0.6414388 0.35325465 -0.7861147 -0.7550293 -0.5360574 -0.037808295 0.6532007 -0.33098698 -0.52133673 0.2260642 -0.5128351 -0.014256224 -0.48227227 0.09316626 0.056983426 -0.42359576 -0.059820965 0.026656726 -0.9524937 0.4864188 -0.25396863 0.46988997 -0.82186306 -0.017813276 -0.6324036 -0.12624115 0.25972 -0.8785777 0.434277 0.7165016 -0.06874864 -0.065343484 0.5174305 -0.7717263 -0.799055 -0.7953528 -0.8633091 0.7492451 0.8698113 0.18615544 0.040877223 -0.94624037 0.8640697 0.6428571 -0.48751622 0.6529243 -0.59745735 -0.37440035 0.77660686 -0.76224935 -0.6021457 0.63421065 0.79186517 0.47902837 -0.94624156 -0.15253039 -0.5578598 -0.847058 -0.86276805 -0.84644926 -0.42490005 0.9556496 -0.039037235 -0.45598066 0.20505702 0.2138635 0.7308292 0.08745339 0.7352729 -0.43123865 0.7457549 -0.08694995 0.9238024 -0.81113887 0.4736802 0.009061564 -0.8685179 0.6574132 -0.12993456 -0.39521843 -0.2481381 -0.80623364 0.12382934 -0.77374756 0.74360377 -0.6603108 0.10290616 0.38992977 0.033624187 0.7273782 -0.6117273 -0.040325794 0.5569793 0.8491937 0.8857662 0.97310746 -0.7768306 0.36995056 0.20097722 -0.9833526 0.9304097 0.28592786 0.78971505 -0.46000183 -0.931617 0.82389 0.050490234 0.22394429 0.7883484 0.20770231 -0.23076755 -0.65977496 -0.651476 -0.5891872 0.8584311 -0.44897732 0.6305901 -0.85628176 -0.85479814 -0.17954962 0.5325823 0.9430349 -0.11858786 -0.2747212 -0.32148463 -0.27055183 0.57219064 0.067005105 0.97127503 -0.28252858 -0.044747263 -0.89901155 0.45887405 -0.8987279 0.7421342 0.6146521 0.16472177 -0.083977364 -0.05654864 0.8594385 0.55826 -0.34767607 0.7746288 0.4399038 -0.83895534 -0.31825092 0.41932875 -0.25916335 0.63947445 0.87460023 0.20562753 -0.6501727 -0.5832005 -0.991044 -0.89091116 0.8466421 0.44436836 0.6028819 0.41806754 -0.25131682 -0.3268344 -0.40974605 0.2456401 -0.6609154 -0.7098733 0.61930424 -0.82876563 0.6925724 0.79559815 0.6587217 -0.27978265 -0.47152838 0.58040035 -0.26673904 0.063572764 -0.43978924 -0.30627537 -0.55409104 -0.17914252 -0.78655124 0.6928637 -0.46049726 0.53446066 0.4786539 -0.04130616 -0.056677435 0.46771985 -0.23876728 0.8067136 0.7256103 0.89387 0.36708534 -0.3940339
DateGroup4362.java,-0.2483874 0.33430195 0.6137822 0.010668872 -0.1697371 -0.52240366 0.7633438 0.15118746 0.020259213 -0.64828974 0.6864705 0.7795455 0.54059225 -0.47156912 0.63268995 0.23848596 0.41409343 0.51815814 0.67233884 -0.85493636 -0.40629447 0.6701672 0.74586165 0.4381382 0.49718222 -0.484762 0.053314324 0.03831348 -0.15050232 -0.24993974 0.1897787 0.6331583 0.007945793 -0.1576099 -0.5029577 -0.23714584 0.5337167 -0.10742073 0.39002982 -0.539754 -0.41986656 -0.17919703 0.61859995 0.47317946 0.6879535 0.12483315 -0.77673054 0.84127533 0.41895175 0.30692357 0.25760067 0.6619137 -0.36469895 0.6944847 0.12220406 0.5659418 -0.040804286 -0.39824408 -0.029346809 -0.117696606 -0.14820054 0.41369274 -0.5989614 0.19836973 -0.1567096 -0.097204864 -0.47041243 -0.5483538 -0.25961423 0.6403068 -0.38416073 -0.19451389 -0.3147992 -0.5631903 -0.3926988 -0.68336517 0.19712439 0.4644313 -0.06977069 -0.21774283 -0.8383612 -0.7510204 0.51704216 0.21007927 0.29620475 -0.01751839 0.5568049 -0.41571507 -0.5557348 0.5438163 0.65557134 -0.26307672 -0.17816152 0.14898126 0.1875134 -0.14393671 0.52694196 -0.2041773 0.2072985 -0.3974241 -0.38641572 0.50782007 0.6690476 -0.5988441 0.21140906 -0.4818052 -0.85659593 0.3093785 -0.54308283 0.018220056 0.17594922 0.047439035 -0.4061626 -0.063702345 -0.74323726 -0.15953714 -0.18934286 -0.46629658 0.21861854 0.48406747 -0.7528499 0.49008584 -0.2149917 0.30419114 0.13836782 -0.38096136 0.09545641 -0.434581 -0.5572637 -0.36301222 0.7772243 0.85226077 -0.66296965 -0.5686107 -0.52026725 -0.24331236 -0.37929177 -0.042700917 0.5717916 -0.15878592 0.71913534 0.7254962 -0.14224741 -0.21851544 -0.6835042 -0.27458343 0.49462578 -0.022199536 -0.2974541 0.43349883 -0.15920241 -0.534609 0.23553376 -0.89628637 0.6797923 0.6295255 0.15947056 0.24648826 0.30624607 0.66569173 0.42665938 -0.040102113 0.1147668 -0.09658249 -0.2064251 0.6728871 0.8343149 0.16645989 -0.67956567 -0.32281402 0.17282501 -0.13264212 -0.8432962 0.12636617 -0.48561606 -0.33902073 0.29401273 0.02810746 0.44814485 0.24664769 0.20255157 -0.07043639 0.67176485 -0.21976532 -0.10673713 0.22769016 -0.037495438 -0.6676535 0.06459456 0.19947037 0.8041066 -0.09699697 0.6082708 0.424539 0.49347293 0.032126546 0.43832198 0.38744122 -0.79684573 0.008552944 -0.642938 0.054709047 -0.017707707 0.7344121 0.60129166 0.21482272 0.51029336 0.09234496 0.4031724 0.49029413 -0.54149705 0.09907403 -0.47944033 -0.1035568 -0.3636812 0.585218 0.1519517 0.60563827 0.5629444 -0.6786854 -0.29421586 -0.04123379 -0.43903577 0.18091366 -0.19353199 0.6265112 0.58018583 0.17617542 -0.31755754 -0.2321102 0.37344354 -0.06674558 0.40461898 -0.34669906 0.39510474 0.10416061 -0.35824773 -0.83363587 0.50402623 0.4295275 0.45746487 -0.16930088 0.2275276 -0.034040127 0.5166223 -0.77107775 0.21167699 0.9519169 0.1580665 0.17771475 -0.25367782 -0.41412085 -0.8842886 -0.44991496 0.17798103 0.19992433 0.35029832 0.7552287 -0.5606992 0.56299335 0.3801122 -0.42212656 0.08479024 -0.24770488 0.08592976 -0.08857349 -0.012112833 0.54726714 0.45511317 -0.5966441 0.36700383 0.6778874 0.14307624 -0.32802853 -0.4018845 -0.32766426 0.65576637 -0.21921712 -0.6171141 0.7066728 0.11357708 0.60029536 -0.38064957 0.1608649 -0.87672687 -0.42628786 0.38882327 -0.4896847 -0.20660166 -0.12311478 0.58056533 -0.751784 -0.20141567 -0.3246386 -0.7169724 -0.8448423 0.5016191 0.12359729 0.20743981 -0.54863876 0.5398989 -0.5654948 -0.32405567 -0.2664815 -0.30014205 0.4981062 0.6052635 -0.021340204 -0.40962872 -0.77236587 0.79324955 0.86385983 -0.080273256 -0.30838984 -0.54386085 0.22940277 -0.615546 0.08460672 -0.37100515 -0.08382647 -0.56346726 0.32115316 -0.0050654532 0.09063848 -0.2104779 -0.34942758 0.42762738 -0.123288244 0.18299341 -0.05296312 0.12853985 -0.7006416 -0.5291508 0.5473898 -0.5570333 -0.08799354 -0.24532442 -0.6806596 -0.11770495 0.68184376 -0.66035503 -0.2235968 0.48484236 0.84717137 0.33982676 0.05817377 0.09734038 0.56331426 -0.38728094 -0.5193274 0.62189394 0.44645336 0.08372076 0.51782596 0.5146902 -0.33542675 -0.26259297 -0.5592793 0.76002926 0.559467 0.6414059 0.1132541 0.35603842 0.38846967 0.1151589 -0.25460762 -0.3631327 -0.1793839 0.3006521 0.45110604 0.21259554 -0.6125669 0.734339 0.33608502 -0.45818356 -0.3290747 -0.32226065 -0.68504775 -0.37627447 -0.25563124 0.39763016 -0.38094562 -0.19530994 0.10776799
DateGroup6769.java,-0.93642724 0.40184098 0.7997055 -0.9774638 0.2042822 -0.86499447 0.83899796 0.09325442 0.8244259 0.1816394 -0.09697117 0.9232257 0.93771476 -0.76117575 -0.7101815 -0.9994926 0.051042736 -0.79113626 0.9862267 0.8110455 0.9520117 0.9934241 -0.94829255 0.488451 -0.94309974 -0.052693933 0.39167762 -0.589571 0.76460636 -0.99176913 -0.34060383 0.68441576 -0.0697864 0.9966739 0.84942496 0.9854605 0.8683796 0.39557007 -0.29264522 0.8784207 0.8804059 -0.02679646 -0.9942677 -0.24727763 0.66001034 0.31732172 0.4245965 0.94756186 -0.9999813 -0.830363 0.7638419 0.9236636 -0.05314575 0.3548808 -0.85409856 0.103575885 0.72015476 0.1890203 -0.9285385 -0.15266803 0.79419065 0.6052476 0.9695227 -0.89277685 -0.97625744 -0.9298524 0.86525494 -0.33204088 0.53935665 -0.8759154 0.7600062 -0.6995342 -0.8906249 0.6311129 -0.27392572 0.6194614 -0.99666417 0.84311485 -0.7547703 -0.75158 -0.76304656 0.111109674 0.39064622 -0.89478815 -0.8006572 0.65166825 0.997571 -0.9424447 0.7510603 0.8115403 0.59423625 0.63096243 0.99868125 -0.96791697 0.9949654 0.98264134 -0.751091 -0.37332377 0.6064299 -0.28123513 0.87141466 0.86955714 0.6117273 -0.4279269 0.78170246 -0.92038906 -0.78141296 -0.49387425 -0.7664888 0.99216485 0.9461473 -0.02553761 0.90912974 0.68413347 0.72041845 -0.9994004 0.9992776 0.67435527 -0.83784175 0.99841964 -0.96978194 -0.097917885 0.7118323 -0.98935324 -0.98366404 -0.8850603 0.70981646 0.7565609 0.74296725 -0.99343264 0.7369714 0.75663674 -0.19299437 -0.6786223 -0.49761808 -0.03382513 0.27523378 -0.114516735 0.82153785 0.41801792 -0.53163517 -0.908708 -0.7840375 -0.99617726 -0.97897774 0.37022963 -0.53228176 0.03480594 0.10425186 0.9648578 -0.62594616 -0.60409707 0.821297 -0.12575927 -0.7639173 -0.82027566 0.8851372 0.48734254 -0.7715578 0.6406573 0.998946 0.99965334 0.71731484 0.9192474 0.676183 -0.91749537 0.53495324 -0.7541847 0.44860578 -0.416278 0.8594519 -0.8075421 0.6104011 -0.78821224 0.80731344 0.6318438 -0.8210865 0.78933877 0.053199023 -0.531875 -0.057541016 0.88977396 0.898306 0.70673394 0.21211272 0.6696478 -0.77650005 0.765744 0.6998694 0.95488846 0.99964345 -0.7047091 0.14096238 -0.99869144 -0.82684284 -0.76041245 0.98325205 0.40204528 0.6051502 0.01675868 -0.1976198 -0.58829886 -0.9545959 -0.000418833 0.99974304 0.9261902 0.17062524 -0.6637994 0.29681903 -0.8357651 0.7213135 -0.4097526 -0.043385297 0.3128778 -0.9211277 -0.9644339 0.35362077 0.79039127 -0.46184155 -0.7082623 0.10211715 0.8948928 0.9990605 0.94069755 -0.96438444 -0.6945512 -0.86324966 0.9645542 0.80794597 0.8496785 -0.47351944 -0.9909432 -0.9980581 0.99601126 0.97468805 -0.7600118 -0.35515687 0.19708249 -0.99760807 0.8528747 -0.13265875 -0.05628425 0.8472975 0.7573792 0.7711419 -0.78242254 -0.46091017 0.6230339 -0.48543558 -0.9930905 -0.7719178 -0.6447542 0.94418013 0.82634515 0.977247 -0.9447389 -0.053284794 0.98288757 0.08244422 0.9965745 -0.81060076 -0.4855922 0.80529076 0.8949462 -0.7979518 0.70208573 -0.17685243 -0.80631626 0.84895736 0.89705974 -0.7210544 -0.40070212 -0.99442124 -0.5559439 -0.8944304 0.43909442 -0.033020854 -0.64476764 0.41466525 0.72003126 0.03773482 0.90379775 -0.7602149 0.9915785 0.51162595 -0.8362941 0.99599886 -0.9678892 -0.06325826 -0.84771585 0.78520685 0.9263761 0.79367924 0.9197992 0.69855297 -0.9939323 0.9540932 0.79741687 0.3309993 0.9994123 0.9152819 -0.17560351 0.050316244 -0.9485543 -0.07389012 0.63556594 0.99420345 0.46131083 -0.9985027 -0.99190587 0.49036947 -0.45547527 -0.9981675 -0.78313136 0.22896978 0.9346745 -0.76441574 0.7501892 -0.9680623 0.9519621 -0.17849106 0.13198245 -0.25603604 -0.32636282 -0.87216264 -0.3356713 0.82715786 -0.61161536 0.6036825 -0.72517526 0.83563155 -0.41005427 -0.5519391 -0.7277137 -0.7549716 0.857375 0.41812614 0.38165963 -0.30270445 0.3298868 0.9958769 0.21090153 -0.969844 -0.059000462 0.9995193 -0.99657017 0.9797129 0.925501 0.73174703 -0.013200462 -0.91655296 0.7712511 -0.6392817 0.99981606 0.25657365 0.72476983 0.9673799 0.25334203 0.69874054 0.9953605 0.9787209 0.71526605 -0.07470447 0.9743829 -0.0912984 -0.36019439 -0.7691281 0.4260034 -0.79182845 0.3331644 -0.67871416 -0.6966389 -0.42039695 0.9886208 0.7094244 0.34922934 0.6547059 0.05383706 -0.08425841 0.75604934 0.98733616 0.9770845 -0.78052974 -0.61859053
