EagerKeyGeneratorKeyProviderCryptoExtension106114.java,0.83692074 0.7334009 -0.8213373 0.26991305 -0.9691389 0.5258157 0.937307 -0.54226387 0.5876452 -0.38220817 0.42010975 -0.83000153 0.85209334 -0.8264116 0.5876313 0.33147058 0.5880441 0.7715318 -0.92099893 0.5917916 -0.7476197 -0.32609558 0.6858439 0.10328746 -0.62629014 0.79934657 -0.6563489 0.5779581 -0.62186444 -0.5641791 -0.5751346 0.67699033 -0.1773839 -0.3935263 -0.7291156 0.6308136 0.9234373 -0.4537064 0.28106844 -0.5112956 0.2554658 -0.8414337 0.74354815 -0.15535535 0.15216604 -0.13668403 0.650659 -0.80440736 0.95481336 -0.06756411 -0.616391 -0.5149604 -0.5237438 -0.6123044 0.9037465 -0.3694248 0.10744202 0.80616874 -0.8946621 0.8838553 -0.8751501 0.1328996 0.15100805 0.76630235 -0.62695104 -0.40567964 -0.8953949 0.86030656 -0.07746672 0.86358017 0.8387725 0.40298682 -0.026067957 -0.8894686 -0.44995105 0.46047902 -0.8281568 0.84826267 -0.5844857 0.837614 0.9052006 -0.91837215 0.18033238 0.7031488 -0.5362464 0.6294165 -0.18937816 -0.3732091 0.7276567 -0.71342367 -0.6538446 -0.4398761 -0.8617312 0.5620911 -0.9334095 -0.57990456 0.8186107 -0.33048323 -0.9260551 -0.7835251 0.791079 -0.28781083 -0.5063214 -0.15015116 0.56260616 -0.5148923 0.40306002 -0.5776553 0.2876348 0.93857586 -0.81592184 -0.7905312 0.7966261 0.53416973 0.93399763 0.67569625 0.4799267 -0.63850105 -0.6411433 -0.97185856 0.36304972 0.92154765 -0.2891537 0.80817777 0.12128175 -0.8642057 -0.26482198 0.41578594 0.28306133 0.20947556 0.46131682 0.87772316 0.78373235 0.744596 0.8643986 0.41525435 -0.45727605 0.28608134 0.95854837 0.91553634 -0.9280323 0.2082587 -0.91468656 -0.08013619 -0.47215822 -0.15999372 0.47883672 0.74886894 0.8374403 0.12509583 -0.7012355 -0.6277009 -0.93164414 0.47522894 0.7028023 -0.73813784 -0.70139503 -0.1817221 -0.81535786 -0.8695487 -0.64421266 -0.3437215 -0.6150355 0.46165872 -0.25305924 -0.49143067 -0.67175215 0.67799264 0.73969084 0.05312795 -0.82722366 -0.87922823 -0.17593256 0.56569314 0.93290263 -0.86141557 0.46230927 0.6923682 -0.45179853 -0.70565075 0.5298081 -0.7999411 -0.7298898 -0.5197432 0.71175635 0.45679903 -0.9258927 0.419556 0.7750742 0.7691976 -0.5234808 -0.82844114 -0.19401368 -0.6515647 0.24495853 -0.44577008 -0.8612011 0.4187889 -0.265846 0.37132037 -0.7434507 -0.78325653 -0.8848036 -0.25639072 0.85636747 -0.67974806 0.12798403 -0.75308615 0.57165354 -0.803461 -0.8399514 0.7692125 0.121557735 -0.854068 -0.90480214 0.67256165 -0.8267046 -0.068018354 -0.8603537 0.3438653 -0.034108933 -0.77766246 0.12303461 -0.66322 0.13962702 0.38585308 0.8177913 0.45250115 -0.85590917 0.3496386 -0.57649595 -0.2620408 0.2205081 -0.16731577 -0.7931435 0.775883 0.87650955 -0.37388158 -0.9153049 -0.37072802 -0.7594616 0.955287 0.12484945 0.045980725 -0.83864427 -0.2990952 -0.1510064 0.043878403 -0.82468885 0.47528407 -0.310774 0.3201683 0.7913836 0.0491446 0.7648154 0.8045803 0.5610218 -0.64478636 -0.48951158 -0.10002185 0.24819167 0.4904433 -0.14877331 0.8728094 -0.9234215 0.3127584 0.77042896 -0.2818275 0.73594534 -0.63629514 -0.35103202 0.8385986 -0.159849 0.30328095 -0.17264241 -0.12428267 -0.64093363 0.51284754 -0.27319548 0.78181547 0.8665429 -0.82036316 0.33411467 0.9243097 -0.95622104 0.0062467074 -0.0075383056 0.91791934 -0.6642132 -0.5915951 -0.035689875 0.8808814 0.20349275 0.8278409 0.7790702 -0.125138 0.24906008 -0.9763599 0.818451 0.8556487 -0.5947396 0.7631805 0.72750145 -0.81991756 -0.9393515 0.14895134 0.80185705 0.059466295 -0.24190532 0.8842296 -0.8821924 0.036323503 0.83907026 -0.87102664 -0.8075716 0.57327783 0.13805985 -0.6424426 -0.67293215 0.8014154 -0.102546014 -0.827399 0.075333744 -0.5009555 -0.6157917 -0.36428764 -0.3540443 -0.43166608 0.38048923 -0.7123344 0.41325602 -0.89874005 0.8374346 -0.8891993 -0.1545974 0.13084212 -0.16746055 -0.08168915 -0.5929068 0.91637534 -0.8454762 0.65675634 -0.21797702 -0.24143055 -0.21728164 0.56209844 0.08340023 -0.85153025 0.20564446 -0.26446405 -0.7686452 -0.7882455 -0.61657387 -0.07607616 0.15478493 0.63031685 0.36159313 -0.83393127 -0.046267822 -0.8004605 0.45363486 0.52539855 0.48770374 0.9738331 -0.61100835 0.6821641 0.037727773 -0.7553698 0.70818084 -0.8710499 0.47390997 -0.8688324 0.89008623 0.7320624 -0.35570872 -0.6782424 0.7612715 0.60936266 0.7943965 0.72794735 0.35108387 -0.8604704 -0.04483334 0.6987783
EagerKeyGeneratorKeyProviderCryptoExtension116119.java,-0.35805488 0.049271338 -0.37818375 0.19855833 -0.48331517 0.13074316 0.9310537 0.3631099 -0.54149824 0.3720175 0.16205046 0.33136457 0.86353034 -0.64472157 0.36776817 0.6813599 0.0993317 0.70237666 -0.020109095 -0.38773835 -0.042575397 0.013470411 -0.8059883 0.7460414 0.88628066 0.69362485 0.15149072 -0.77038914 0.7794156 0.614295 -0.18282887 0.082152694 0.08950425 0.2640407 -0.5393771 -0.4582916 0.18858755 -0.7615849 0.383441 0.60262364 0.20632382 0.2956807 -0.4952675 -0.81214404 -0.17132854 -0.2943875 0.45778292 0.5180014 0.3451072 -0.719489 0.5423119 0.20408642 0.6865645 0.82367754 0.28876498 0.41381148 -0.29311407 0.26451266 0.2424134 -0.18515313 -0.20738763 0.92526317 0.7875151 0.42028826 -0.37163755 -0.59295774 0.12779257 0.9100762 0.64109015 -0.16489896 0.76865846 0.5946476 0.7364888 -0.19972336 -0.39304206 -0.8075655 -0.5816931 0.02880484 0.6556384 0.23337173 0.11530931 -0.6874543 0.4984598 0.35000122 0.5222484 -0.30155733 0.00355367 -0.74386847 0.76449597 -0.6740575 0.40730762 -0.65271795 0.103292614 0.13289592 0.30716348 -0.24299374 -0.6930761 0.32789645 0.77246976 -0.5315813 -0.8567879 0.49966535 0.05317661 -0.554331 0.80706406 -0.3274695 0.48043624 0.10635821 -0.46311116 -0.0512217 -0.5634848 -0.7130207 -0.1781394 -0.4609895 0.89018893 -0.66384923 -0.26937914 0.08276732 0.028836772 -0.62231547 0.6385275 -0.6690308 0.1519537 -0.26059836 0.3216695 -0.1956512 -0.110059336 0.5575785 0.49154624 0.6103393 0.32759863 -0.097809136 0.49280795 0.0019814111 -0.453071 0.7959205 -0.3051731 0.9108108 0.7948419 -0.30883723 -0.23111483 -0.7508779 -0.54178154 -0.41502428 -0.7511411 0.1976634 -0.238989 0.34580275 -0.319952 0.30105817 -0.5082016 -0.18523781 -0.63405544 0.0359679 -0.49051222 -0.7939845 0.62096155 0.020621434 -0.2965718 -0.806134 0.13003428 -0.79232395 0.800982 0.7086109 -0.76165736 0.51294833 -0.25782645 -0.18069568 0.20875223 -0.71842 0.43500912 -0.37369215 0.43947327 0.6327864 0.18159573 -0.8888114 0.77895254 0.79083395 0.20748964 -0.11269471 -0.45154834 -0.84203184 -0.85258746 0.37796828 -0.61420846 -0.5590272 0.035821013 0.7364172 -0.3771552 -0.7828228 -0.65333855 -0.6083013 0.5179443 0.06503251 0.33427882 0.76804817 0.2519715 -0.4507173 -0.40197328 -0.39002916 -0.3700027 -0.5685882 -0.6498223 0.42880654 0.33195937 -0.8668346 -0.055308063 -0.8864974 0.6919445 -0.96075743 0.67763895 -0.2079561 0.8355809 -0.9106403 -0.061575443 -0.48155403 -0.4541738 -0.32594147 -0.31403872 0.7624707 0.8302418 0.031877894 -0.4059646 -0.9275864 -0.4724312 0.26175562 0.5285125 -0.80082834 0.6770805 0.7372304 -0.8729106 0.39354295 0.3016937 0.46885738 -0.7292842 -0.6380605 -0.68276185 0.8128126 -0.04570477 -0.5094116 0.029735357 0.12380046 0.59991825 0.687883 0.4187076 -0.30081144 -0.28499216 -0.8746987 0.5543711 0.57221705 -0.8783108 -0.7981715 0.90014607 -0.524365 0.28211987 0.24932745 0.36282003 -0.49331143 0.9186218 0.18815756 0.66099405 0.12185857 0.7983782 0.87247455 0.003936082 -0.21118459 -0.27136388 -0.4850447 0.5407698 -0.39597434 0.43766332 0.7036681 0.088546544 0.69788575 0.05800463 0.3856965 0.6128286 0.15233463 -0.25046706 -0.46088672 0.59390074 -0.1178432 0.7588602 0.9250445 0.1809991 0.83754724 0.7054685 0.12342287 0.7057575 -0.5154824 -0.47416344 0.7787875 -0.55462754 0.75024575 -0.6172159 -0.70346665 0.6523539 -0.38783306 0.6250086 -0.57196283 0.9141035 -0.27044192 0.26801306 -0.24632768 -0.0033462495 0.27009964 0.15322143 -0.2503993 -0.05453588 0.14656349 0.3754198 -0.72443986 0.9471994 0.66669863 -0.702307 0.8343 0.77059436 0.46870637 -0.33381873 -0.7065234 -0.42379642 -0.3532352 0.2531669 -0.54913205 -0.2652146 0.82340443 0.28873122 -0.40421003 -0.84649634 -0.7461433 0.93219626 -0.32374766 0.80939204 0.19655746 0.8084543 -0.33022633 0.49544197 -0.13455312 0.17138138 -0.52838784 -0.3945562 -0.8080953 -0.73390067 0.41434962 -0.9715567 0.06740606 0.721878 0.86481184 -0.44235265 -0.26921722 -0.6613908 -0.8859268 -0.5459984 -0.30591884 -0.6500134 -0.20564047 -0.6612013 0.39251834 -0.48044932 -0.44942108 -0.7051227 -0.8563126 -0.7108639 -0.09058423 0.22535843 -0.44501686 0.5082742 0.22822344 -0.43328124 0.3079846 0.51011026 0.8950998 0.35590228 -0.2292216 -0.49464852 -0.45562828 0.1924878 -0.49577698 0.64022005 0.52360076 -0.5850855 0.117796704 0.16659251 0.7078353
EagerKeyGeneratorKeyProviderCryptoExtension121129.java,0.49910372 0.37399593 -0.49185678 0.32722437 -0.17548093 -0.50314546 0.6083047 0.4610172 -0.7595486 -0.6613073 0.31190088 0.69566256 0.14991285 -0.16176581 -0.7992035 0.20736739 -0.66334087 0.02306843 -0.17909984 0.77183515 0.16792628 -0.19864447 0.71224576 0.3058504 0.21415673 0.33743012 -0.71892124 -0.50207573 -0.74103916 -0.39212993 0.3216952 0.7353754 0.3020151 -0.70426273 0.080881245 0.54771143 0.804387 0.6479748 -0.39319906 -0.22490449 0.7647228 0.15024497 0.5732704 0.42793235 0.0004389466 -0.52264005 0.7128398 -0.3168689 0.7497705 -0.5448518 -0.92629266 0.32137015 0.1971903 -0.6875894 -0.48726058 0.72352904 -0.51510626 0.22577539 -0.23474292 0.52613825 -0.7178364 0.37305954 -0.51216006 -0.42296624 -0.06023615 -0.7608605 -0.3691076 0.021738922 -0.5213168 0.23062927 0.15854438 0.4540608 -0.3833468 0.52936053 0.043936066 -0.65273 0.61153007 -0.22495219 -0.23627663 0.85289013 -0.21599764 -0.8717487 0.7054384 -0.7227582 -0.6293613 -0.34637198 0.8273923 -0.62783486 -0.06715962 0.78716004 0.86686784 -0.05417765 -0.409614 0.06688264 -0.0631578 -0.45880374 -0.27543917 0.050332084 0.029158993 -0.02590469 -0.5963809 0.5990302 0.3011618 -0.107248306 0.39604566 -0.7801411 0.33266556 0.561573 -0.32537124 -0.76387054 0.48723117 -0.54645914 0.55041796 0.50754124 0.06846902 0.7614427 -0.27867752 -0.12783262 0.0925603 -0.27478763 -0.8754996 0.4258235 0.8796945 0.6416677 0.8070088 -0.14318044 0.04321484 0.6872657 -0.1568635 -0.43440807 0.007818394 -0.25614196 -0.43034527 -0.1836505 -0.48713377 -0.71367604 -0.6361711 0.8993522 0.2671173 0.29051742 -0.76921713 0.42087796 -0.769664 -0.15990895 -0.45861578 -0.11865076 0.2982133 -0.318151 0.7480859 0.5198278 -0.59523296 -0.24922831 -0.89805794 -0.68823576 -0.27705497 0.12504688 0.6790951 0.6847689 0.62958264 -0.41215324 0.030863663 0.45025006 -0.6231309 0.47458863 0.29293844 0.5142871 0.4902302 -0.6785634 0.50788325 0.8520249 -0.13813026 0.5999742 -0.50412077 -0.2201164 0.53423446 -0.2880154 0.56317085 0.68616724 0.6832616 -0.7346074 0.6865581 -0.27613196 0.56771535 -0.4657928 -0.43473396 -0.75995874 0.5178341 0.022357017 -0.18849392 0.4446976 0.51549536 0.3566407 0.6923922 0.36224025 0.12736152 -0.50265837 0.45719478 0.18203112 -0.54842025 0.46136895 -0.5098735 0.25137982 0.17799808 0.74860066 0.78138673 0.17188779 -0.5564857 -0.5915357 0.5963848 0.5172047 -0.50524557 0.1101576 0.6178088 0.44582903 -0.19572729 0.7134772 0.69006425 0.12469728 0.82170653 -0.54988176 0.18874514 0.54866576 0.6067663 -0.80282545 -0.64968324 -0.12285425 0.036474276 0.78750205 0.5123021 -0.59037566 0.03185122 0.06542804 0.3464085 -0.58518374 0.4858808 0.3489267 -0.49562287 0.59516513 -0.23940426 0.68247396 0.19640791 0.67665416 0.38103646 -0.71344614 -0.08054302 0.08219362 -0.6159721 0.13320269 0.71704835 -0.5557174 0.5968975 0.54701734 -0.51682943 0.4319336 0.6439752 -0.5273308 -0.57712907 -0.7257754 0.46471575 0.4796798 -0.30934733 -0.14549354 -0.41291848 0.32741937 -0.016004907 -0.3688548 -0.122775696 0.51597977 -0.2222991 -0.3980665 0.93810266 0.006491173 0.5071736 -0.03446105 0.7660034 -0.8476925 0.4352718 -0.31239623 0.2739745 0.4418192 0.76950467 -0.20127891 -0.31711668 0.67418444 -0.39297283 -0.6843398 -0.38818932 0.9387943 0.54254353 0.08970178 -0.48877618 0.1628571 0.0028060135 -0.82624936 -0.8279986 0.22788449 0.5415001 -0.3984539 -0.6554669 -0.67171925 0.18450458 -0.66430175 0.13927102 0.17912893 -0.46426567 -0.5441676 0.123120874 0.65538055 0.5905484 0.06995261 0.08160301 -0.7035046 -0.34935278 -0.40188193 -0.8942683 0.88869274 -0.0878103 0.6613334 -0.3795387 0.04253936 -0.13781597 0.075117975 -0.42930794 0.50868976 -0.28486493 -0.27981162 -0.53060746 0.12185249 0.6110855 -0.34330457 -0.57994163 0.66564286 0.28382152 0.7742041 0.41256562 0.55104953 -0.16314115 0.14182141 -0.71102864 0.7733493 -0.6973549 0.27376774 -0.11860547 -0.28054672 0.58968204 -0.48338935 -0.54673475 -0.040054016 -0.5978845 -0.65148556 0.15838277 0.032751404 -0.6999889 0.9139692 -0.16204639 -0.3817255 -0.63425696 0.18091655 -0.112109296 -0.53968024 0.6840078 0.4830665 0.70110625 0.66154885 0.30576643 0.5698293 -0.51264614 0.7589067 -0.61673516 -0.0811383 -0.46614903 -0.6342234 0.75865155 -0.19807754 0.6968085 -0.61132604 0.8313034 0.9029835 0.49026135 0.9006889 0.17972942 -0.17514351 -0.5988736 -0.2179578
EagerKeyGeneratorKeyProviderCryptoExtension131137.java,-0.37679252 0.8194511 0.2247814 0.3855211 0.052395463 0.7849849 0.8467187 -0.18387362 -0.19358434 0.5650301 -0.7670842 -0.47394055 0.6362082 0.9071257 -0.88602096 0.6262774 0.4836026 -0.5417157 0.7423077 0.13936369 0.76964605 -0.7888876 0.8719987 0.77381647 -0.28112572 0.72934836 -0.03323494 -0.6171122 -0.058132175 0.73827076 0.8583391 -0.32863057 0.5258427 -0.8015097 -0.7947441 -0.50082713 -0.41291076 0.4184515 0.46773985 -0.45149338 0.8200332 -0.12531766 0.7897809 0.41469538 0.7626247 0.3431597 -0.357071 0.8698777 0.85097635 -0.7135909 -0.8777794 -0.57886654 0.71337736 -0.6914633 0.47358814 0.75482047 -0.6908159 -0.7388734 -0.83322453 0.6194504 0.45414773 0.94340265 0.7347606 0.87977153 -0.474608 0.5744538 -0.6416972 0.7912047 0.67184585 0.6210976 -0.39261314 -0.13132289 0.87200195 0.09075477 0.017724007 0.5164753 0.65368414 0.17423944 0.7800379 0.8492611 0.37176642 0.4270725 0.05769765 -0.51738966 -0.7618592 0.8285184 0.49778652 -0.79985344 0.53491515 0.8334655 0.51861054 -0.7257069 0.6532587 0.71120524 -0.717675 0.06406187 0.16177653 0.52889234 -0.6435063 0.70818067 0.53136885 0.91773987 -0.51382273 0.8712708 0.116023876 -0.80593497 0.120034665 0.09637791 -0.6482607 -0.8390174 -0.32984555 0.5718173 0.36123905 -0.7971659 -0.17144804 0.49276096 0.42398924 -0.81259626 -0.5814293 -0.4037375 -0.86537474 -0.75656164 0.10777375 0.68784666 0.78968084 0.29081807 0.8887112 0.68794334 0.83209205 0.527495 -0.74111396 0.56668854 0.6727617 -0.70360833 -0.3761774 -0.6939976 0.53300136 -0.40669936 0.9713435 0.9492026 -0.6740893 -0.25937077 -0.7646846 -0.73260856 0.58164716 0.7001109 -0.7625888 0.85452855 0.96296614 0.8977464 -0.7712155 -0.4790184 -0.95074666 -0.2587082 -0.74518186 0.2076974 0.88007516 0.8500972 -0.45530024 -0.4858013 -0.30914187 0.6636193 -0.43264893 -0.45116234 0.6673501 -0.6221138 0.4625833 -0.45709047 0.48416618 0.9340473 0.76512873 -0.24000382 0.40340224 0.09280997 0.46550888 -0.39816293 0.7744693 0.49973628 -0.62270653 0.33739284 -0.2150693 0.5433249 -0.24810787 0.83591425 0.6398723 -0.86890733 -0.54696655 -0.3078466 0.7627125 0.65968597 -0.45799565 -0.6751961 -0.00851712 -0.5974293 0.59301776 0.70304316 -0.74941397 -0.5424821 0.6382292 0.5063907 -0.6268106 -0.21435326 0.35880172 0.52870774 0.924975 -0.44578943 -0.65830654 0.38383555 -0.54290354 0.6037494 0.2702091 0.7861331 -0.23760949 -0.65126675 -0.82756585 0.07313425 -0.27554053 -0.36925933 -0.41760558 0.55935514 -0.19310853 -0.6342356 -0.34916607 -0.16101402 -0.7180783 -0.7372218 0.6053663 0.8690339 -0.8133875 -0.8175857 0.50916916 0.61601496 -0.957742 -0.5996834 0.14160764 -0.59225655 0.43606398 -0.50506026 -0.59284866 0.5384123 -0.9114539 0.45917922 0.47565287 0.5699681 -0.83958805 0.84426814 -0.04344646 -0.9282261 0.5829496 0.14160474 0.79265654 0.16127545 0.5929518 -0.3837005 -0.4289235 -0.32361764 -0.9171132 -0.23567356 0.39651015 -0.63500804 -0.4835077 0.6900516 0.45127577 -0.2595418 0.655962 0.5699655 0.8697012 0.52539676 0.6588704 0.81824505 -0.4675697 0.47179747 -0.40630978 0.13577367 0.858275 -0.86139137 0.95471424 0.7036281 -0.599778 -0.40480217 0.5819613 0.46941718 0.15685338 0.9811793 -0.4136556 -0.72671527 -0.41687137 0.93223405 -0.23528288 0.03432115 -0.68928075 -0.55003804 0.5354414 -0.8449103 -0.73641014 -0.4492402 0.6763 -0.9515804 -0.7173236 0.26199368 -0.36525896 0.27525854 0.6797197 -0.5925881 -0.4503073 -0.66348 0.46720856 -0.2921899 -0.61623085 0.831081 0.5914233 -0.8011551 0.7650376 -0.8141599 0.4041816 -0.16104005 0.960982 -0.580467 0.64858633 0.8203195 -0.40689075 -0.33369753 0.69758093 -0.58819884 0.5115186 0.5797728 -0.6930058 -0.5633063 0.111783355 -0.38875005 -0.14157037 -0.6518798 -0.6827278 0.7142408 0.18630472 0.7984309 -0.51749116 0.85419995 -0.65112036 -0.48246467 -0.9070588 -0.46652064 0.7597049 -0.7701491 0.6888164 0.74801093 -0.29478002 -0.5757908 -0.54994565 0.3195533 0.84843534 0.16104786 -0.9531452 0.8882385 0.29270333 -0.6217287 -0.7935503 -0.35074025 0.15634793 0.4760244 0.87411845 -0.6730474 0.8038762 0.85501367 0.6381557 0.71784395 0.75528693 0.53256553 -0.70930386 -0.67543906 0.7961337 -0.75178474 0.89990187 -0.58083344 0.6774243 0.65591323 0.8317072 -0.40993133 0.38367254 0.9839282 -0.8557875 -0.69139814 -0.11979941 -0.4461782
EagerKeyGeneratorKeyProviderCryptoExtension139143.java,-0.13103354 0.72197 0.12549067 -0.0036048023 -0.75387675 0.33652443 0.8086124 0.056384664 -0.061464097 -0.2456127 -0.77183694 0.3157413 -0.089369796 0.8229308 -0.7403927 -0.40800625 -0.29463744 0.6235876 0.089355044 0.40403774 0.54730093 -0.844005 0.44524378 0.43893552 0.23700218 -0.2307598 -0.47846475 -0.0665201 -0.29126856 0.45042926 0.65665966 0.1948197 0.38208714 -0.5053529 -0.5214867 0.5047788 0.7307635 0.1025115 0.18008062 0.58047485 0.77174526 0.584792 0.17656791 0.08144587 0.40461573 -0.059414625 0.0674898 0.62426996 0.78732795 0.12959571 -0.68040144 0.03906511 0.27776593 0.028910603 -0.14393292 0.5497795 -0.33126974 0.14171413 -0.25533357 -0.34702235 -0.29455003 0.93622 0.37059557 0.68585837 -0.14395992 -0.26465568 0.3066573 0.6855766 0.5097568 -0.41348353 0.29452848 0.5412828 0.60001194 -0.06701972 -0.2933255 -0.23939762 0.5885511 0.26441795 0.53963536 0.67590034 0.9259506 -0.8850725 0.238244 -0.70616615 -0.41608265 0.73285806 0.4564417 -0.5250499 -0.15902789 0.3583276 0.5885024 -0.26364964 0.25474474 0.2505299 0.03514347 0.25540033 -0.32350162 -0.46605673 0.2976362 -0.22745676 -0.20508017 0.5711155 0.6921724 0.5449818 0.085778326 -0.61272407 -0.32864612 0.033420347 -0.062369734 -0.59471124 -0.038648687 -0.6023339 0.18158448 -0.30722052 -0.08278652 0.45286506 -0.628212 -0.4102085 0.16768429 -0.5756351 -0.6803428 -0.45622608 0.62961614 0.46168783 0.7937715 -0.72506356 0.6485351 0.7459891 0.3411086 0.49191907 -0.7855058 0.055578608 0.07608761 -0.013275558 0.1950939 -0.7435888 -0.3467334 0.7068705 0.7888031 0.88230187 -0.5182706 -0.3043422 -0.3634732 -0.35062656 0.118609466 0.22995907 -0.5464905 0.40660208 0.55949116 0.25270948 -0.528217 -0.049156517 -0.9457969 -0.44686335 -0.29582974 0.20979021 0.32771072 0.5153756 0.19613734 0.26852196 -0.05664843 -0.3492246 -0.08193252 0.6125689 0.10511464 -0.08826924 -0.027909165 -0.07735795 -0.33226928 0.8368997 0.8212411 0.14178425 0.48414135 -0.0712901 0.38879815 -0.46306732 0.0042039757 0.20399535 0.08675214 -0.40679097 0.24031347 -0.2964796 -0.19549195 0.1928557 0.13948551 -0.5523712 -0.1893715 -0.4231857 0.39369056 -0.13590872 -0.6668371 -0.7191054 0.38895836 -0.405005 -0.4369429 0.25848514 -0.42090324 0.5654325 0.36548743 -0.65992785 0.06928357 0.10753785 -0.10339592 0.39477274 0.52187836 0.04563239 -0.0072096367 0.2427743 0.06019412 -0.5091567 -0.3254583 0.39927113 0.29226807 -0.45725328 -0.68521 0.29187843 0.034622904 -0.26961634 0.72292715 0.29797962 0.17574497 -0.09480462 0.344639 -0.5858146 -0.7160999 0.09258391 -0.011197882 0.5745175 -0.27211618 -0.41383532 -0.4156745 0.59622717 -0.70615584 -0.35602337 -0.30390197 -0.107096605 -0.4298878 -0.24627726 -0.04412411 0.5487673 -0.7946721 0.8700734 0.1809235 -0.5801695 -0.29519153 0.65676314 -0.19567236 -0.8228941 0.5053032 0.23679966 0.6127119 0.52981806 -0.023269938 0.22312371 0.3344331 0.4954815 -0.76378816 -0.12798922 0.43959922 -0.107403636 -0.3206148 0.5436085 0.35942617 0.857577 0.35526443 -0.2665861 0.64773124 -0.22367951 0.7669132 0.2746068 0.86528885 -0.3948432 -0.40627778 -0.21316566 0.6790858 -0.8463469 0.7555896 0.39655706 -0.4729855 0.7011876 0.2213931 -0.48857424 0.55769014 0.6835881 0.58394027 -0.4389099 -0.13995197 0.84587544 0.14608322 0.42622325 0.045706883 0.17457741 0.009902695 -0.6305424 -0.50573164 0.30474204 -0.16070001 -0.8345625 -0.29879317 -0.17723039 0.20960706 -0.22019047 0.771035 0.16750266 0.47884738 0.016965972 -0.792835 0.3407308 -0.13325183 0.25001395 0.519021 -0.37611803 0.43362987 -0.5300802 -0.7050552 0.82920337 0.68446356 0.5828066 0.7230045 0.75773096 0.84259856 -0.11694643 0.5366575 0.34188464 -0.7302655 0.51393884 -0.3740948 0.30189973 0.2818044 0.42876056 -0.22955957 0.09045581 0.07559963 0.28359804 0.33637732 0.55536234 0.44905704 0.66390556 -0.605859 0.8208946 -0.69417423 -0.4560782 0.403688 -0.44188046 0.2385058 0.20047209 0.16009629 0.1907278 -0.23178676 0.20661737 0.60370004 -0.8430354 -0.56387556 0.9460901 -0.13776597 -0.049018577 -0.49385336 -0.8163981 0.51722133 0.25110224 0.32399276 -0.184818 0.18104914 0.79594 0.09582369 -0.07866161 -0.040554855 0.8317196 -0.30794522 -0.121873185 0.503747 0.044764347 0.35746363 0.26963115 -0.046792846 0.13320558 0.58894646 0.80558056 -0.2642163 0.9609074 -0.77856594 -0.77894217 -0.27969462 0.14707114
EagerKeyGeneratorKeyProviderCryptoExtension145149.java,-0.006025238 0.50640124 0.027233195 0.009952099 -0.8515782 0.5157235 0.80003566 0.1613215 -0.052155755 -0.44084117 -0.44254133 0.64336413 -0.16120219 0.8043607 -0.57121074 0.007025441 -0.529681 0.60526764 0.01780946 0.7445035 0.3628973 -0.7953475 0.16171576 0.28409433 0.572313 -0.12879783 -0.28884915 0.031518545 0.21260269 0.86846167 0.32693157 0.1318499 0.24485517 0.34724438 -0.118329205 0.08632627 0.48366857 -0.203213 -0.14675252 0.623773 0.54517466 0.1401362 0.4730724 -0.11042053 0.3806017 -0.0964626 0.23737387 0.4917629 0.8436375 -0.06042584 -0.34366736 0.5379068 0.13412361 0.074724935 -0.17135511 0.038948126 -0.037703138 -0.3901081 -0.5369564 0.10920046 -0.25607693 0.88023037 0.65741754 0.18866467 -0.1380729 -0.513247 0.023668148 0.83286875 0.39113086 -0.09563533 0.25456905 0.25273502 0.54289985 0.026491161 -0.0028140405 -0.5810416 0.25902447 -0.12439472 0.02381283 0.52737826 0.80697495 -0.8909442 0.57495147 -0.15782861 0.4587594 0.4725161 -0.11468567 -0.12246061 -0.32756057 0.23403496 0.8791999 -0.15607426 0.06712494 -0.06921011 -0.32461372 0.3210607 -0.46563026 -0.37844026 0.08142883 -0.1918398 -0.02666441 0.42334774 0.5369581 0.58655006 0.29362455 -0.17967133 -0.66383684 0.29436886 0.12932576 -0.40286645 0.024576131 -0.3985838 -0.008443024 -0.21217173 -0.24357659 0.4525219 -0.275947 -0.38588992 -0.09123529 -0.74955165 -0.036790203 0.05233807 0.23548272 0.17701761 0.49729592 -0.6968133 0.54760706 0.6951102 0.5412213 0.22371206 -0.75777656 0.5539099 0.19802032 0.31188747 0.26918438 -0.649487 0.38203365 0.648581 0.82083166 0.75742537 -0.31329575 -0.21652809 -0.22399603 -0.6634218 0.0115707265 0.2141616 -0.0025078447 0.23325758 0.8588701 0.52282465 -0.6757688 0.5909775 -0.8584655 -0.47558108 -0.42191702 -0.0012814242 0.51344186 0.6002134 0.2981896 0.13164094 -0.39152047 0.028546847 -0.18824278 0.58009404 0.050729685 -0.14230509 -0.11156907 0.3872455 0.19636187 0.46286544 0.71573544 -0.07461902 0.5550673 -0.19672836 0.35975814 -0.62792677 0.0019586366 0.36878026 -0.2916634 -0.32193568 0.17588615 -0.35005975 -0.46293122 0.5488687 -0.463616 -0.6410722 0.04665468 -0.5079412 0.30808413 -0.042648125 -0.57263887 -0.5333517 0.21784762 -0.39346337 -0.17169513 -0.22705472 -0.330923 -0.088550776 -0.4307614 -0.81905633 -0.19992754 0.72189856 -0.20493504 0.71349204 0.6044555 0.0006581112 -0.26211733 -0.003544869 0.37712452 -0.39108837 -0.32654938 0.4243562 0.5576163 -0.71413684 -0.4464702 0.0024638027 0.3874922 -0.21534199 0.28189558 -0.19803 0.048102304 0.107183315 0.13931094 -0.4785659 -0.7169853 -0.25411844 0.543657 -0.29053026 -0.6040724 0.13898863 -0.5274543 0.4474917 -0.7451665 -0.0058307406 -0.5585285 0.14905265 -0.47720194 0.19071928 0.30046922 0.4742148 -0.62800205 0.84290504 -0.2793352 -0.17902112 -0.20922859 0.67259467 -0.16649906 -0.3928278 0.37919983 0.024243932 0.31908357 0.2814274 -0.013443829 0.4262471 0.68733644 0.045841757 -0.8226182 -0.4367081 0.276667 -0.16338117 -0.25317383 0.23132466 -0.0056468737 0.7831527 -0.28280938 -0.22373402 0.2986318 -0.4710829 0.33021086 0.15968265 0.73968285 -0.6074421 -0.2715428 0.02376971 0.57993484 -0.3246561 0.60855603 0.2357158 -0.08021343 0.6506021 -0.08648366 -0.4794083 0.30891752 0.9269845 0.4530848 0.6033077 0.18194565 0.68695205 0.14035521 0.45116192 0.08753155 0.27064428 -0.027686914 -0.32729113 -0.40191156 0.26087463 0.022463841 -0.50299317 -0.20501895 -0.41817805 0.12843248 -0.58097076 0.55503637 0.27865002 -0.21562459 0.011558758 -0.61561686 0.6810473 -0.018731551 0.2977847 0.45177886 -0.5278397 0.8618777 -0.2578864 -0.18163127 0.8663907 0.85531837 0.31688356 0.75002754 0.6928038 0.51934 0.1307477 0.39883307 -0.06819653 -0.37095466 0.7476846 0.065660164 0.41948754 -0.09211367 0.114934325 0.05096335 0.20440009 0.09443 0.06477978 0.36855784 0.05790189 0.14379522 0.54061687 -0.31910032 0.741534 -0.5923067 -0.2054081 -0.37262085 0.0392447 -0.97471493 -0.049597755 0.21155027 0.41642234 -0.07210496 0.26151302 0.19486216 -0.75134903 -0.7408468 0.9635901 0.061804205 0.44200715 0.09810998 -0.83208716 0.5877856 0.07509735 0.3950271 0.105245374 0.25216597 0.8701286 -0.18094403 0.31363115 0.039709255 0.5894382 -0.26235077 0.021946652 0.12636782 -0.21311392 0.38994125 0.26804674 -0.0012362441 -0.050624244 0.4677845 0.51796734 -0.36419225 0.9148074 -0.85530025 -0.8364215 -0.083559215 0.5361824
EagerKeyGeneratorKeyProviderCryptoExtension177183.java,0.29744488 0.8231725 0.44583082 -0.021426085 3.906712e-05 0.70872325 -0.21381757 0.7598454 -0.5573349 0.74447656 0.31531966 -0.87951005 0.8771107 0.6399334 -0.6128038 0.90202504 0.6547307 -0.8126437 0.7799803 0.5779184 0.4185441 -0.00782476 0.49509233 0.99029183 0.3757384 0.90218127 -0.5940875 -0.8069779 -0.2962183 0.13049613 0.7132325 0.17441581 -0.052593693 -0.8052142 0.28406075 -0.48270467 -0.128566 -0.49383783 -0.11062566 -0.48310935 0.11425541 -0.5878694 0.8103085 -0.7098236 -0.08055988 -0.54512286 0.4199707 0.24206531 0.38934445 -0.80663556 -0.8080907 -0.82099855 0.7849392 -0.81448364 -0.39214876 0.55701846 -0.3258809 -0.7660817 -0.33847666 0.89352715 0.5063794 0.85793394 0.87897706 0.8369951 -0.4376043 0.6177524 -0.7359601 0.70693463 0.44714528 0.6418661 -0.6018646 -0.31132695 0.8293516 0.41542995 0.116391085 0.6947044 -0.13262002 -0.5630045 0.29460463 0.62743926 0.019937374 0.70510215 -0.61610144 0.2324084 -0.15683483 0.25151697 0.3254626 -0.54554164 0.4360553 0.875186 0.28852487 -0.7353773 -0.14648595 0.76238126 -0.888098 -0.4370963 0.30625772 0.72262204 -0.43378857 0.58674765 0.20185834 0.8855047 -0.7513573 0.8803959 0.5529171 0.12976998 -0.097290434 0.13943917 -0.7743229 -0.9676099 0.41624096 0.47192648 0.447726 -0.29832974 0.025816262 0.1969173 0.43647444 -0.4409684 -0.8285655 -0.106535956 -0.4649795 0.21399666 0.5276073 -0.012557598 0.64022934 0.327595 0.8020931 0.39773816 0.7244768 -0.81149673 -0.30865857 0.3901401 0.2378591 -0.7959383 -0.55233073 -0.30702078 0.86988956 -0.11676548 0.8957401 0.7114799 -0.025533095 -0.015223268 -0.8642444 -0.5925557 0.7615039 0.3959313 0.15873955 0.3916767 0.9419535 0.80489624 -0.3615195 -0.620782 -0.63335717 0.48144582 -0.8882943 0.7268394 0.91291696 0.25319368 -0.37615392 -0.4069669 -0.58369714 0.7806637 0.037207328 -0.33522177 0.23116732 -0.49185792 0.20650777 -0.5318905 0.1125052 0.924642 0.12519923 -0.5441752 -0.32550693 0.2178886 0.5272671 -0.1474708 0.8699583 -0.25690114 -0.45459664 -0.121791005 0.44742897 0.7949168 0.49805754 0.88047224 0.2954244 -0.92691 0.052100077 -0.2686996 0.95124406 0.907535 0.41012764 0.0006293729 -0.4371168 -0.39599964 0.7719414 0.713579 -0.16562971 -0.7509495 -0.09703394 0.54956734 -0.8450292 0.17030221 0.48291144 0.7287467 0.9354244 -0.20859972 -0.8353283 -0.6375007 -0.48704517 0.7303262 0.35723594 0.3156668 0.5206656 0.3956864 -0.44624978 -0.2925867 0.4591351 -0.4881405 0.38130635 0.70732963 -0.27123564 -0.9457389 0.4756363 -0.3271585 -0.1679178 -0.5375565 0.63986397 0.64222705 -0.89250255 -0.4657671 0.7173222 0.0017466098 -0.9193408 -0.09456737 -0.13453285 0.057864245 -0.19138351 -0.6147761 -0.2405969 -0.24512126 -0.7263235 -0.055228323 0.18786317 0.12642558 -0.74462235 0.31194016 -0.6600494 -0.7967609 0.06685756 0.2550309 0.382734 -0.10440894 0.57992595 0.06199505 -0.100174546 -0.6042445 -0.9536713 -0.5937671 0.04940106 -0.7614403 -0.5364544 -0.104383826 -0.47141913 -0.36552426 0.1025314 0.5758614 0.36487606 0.76524657 -0.3665526 0.68555605 -0.77521807 0.32307526 -0.14894626 -0.4274345 0.55089986 -0.79208773 0.62964445 0.36731613 0.020446882 -0.22238259 0.27377638 0.8347819 -0.42829907 0.80052394 0.39246213 -0.2842572 0.5047113 0.79336286 0.061582282 -0.36500484 -0.9586488 0.29073286 0.7170216 -0.5380566 0.20944741 -0.29029098 0.5454517 -0.48475498 -0.7831653 0.31184757 -0.73562557 0.64484197 0.6105863 -0.7690197 -0.023366466 -0.3900027 0.753489 -0.06195648 0.34031385 0.77679324 0.02321947 -0.8425565 0.62167186 -0.80389863 -0.013770908 0.2787797 0.83611506 -0.70760804 -0.35853773 0.39101487 -0.05501098 -0.3935799 0.025204308 -0.20800279 0.7692166 -0.14529009 -0.26468942 -0.668126 -0.49376413 -0.6127179 -0.5733894 -0.5100982 -0.5474078 0.5527364 0.5935791 0.330459 0.1713691 0.21364215 -0.76194817 -0.8913484 -0.6433145 -0.16566543 0.38591203 -0.73170644 0.2964123 0.775166 0.46957988 -0.7518647 0.52373624 -0.019121274 0.38868448 0.5378141 -0.91809523 -0.11536054 -0.27612862 -0.5086639 -0.720236 -0.45589313 -0.3853596 -0.38215145 0.8491452 -0.8521714 0.7714516 0.670272 0.5440279 0.4460044 0.8602279 0.16533853 -0.43243822 0.05914765 -0.2737335 -0.6604999 0.95583504 -0.36645794 0.745666 -0.10282457 0.9535705 -0.3922431 0.044881113 0.89719945 -0.5464472 -0.57126814 0.79441226 -0.4904358
EagerKeyGeneratorKeyProviderCryptoExtension185191.java,0.18120806 0.74137026 0.48097262 0.22189502 0.26549155 0.6587565 -0.3139651 0.8183542 -0.5825804 0.6287342 0.16909875 -0.6015613 0.77375835 0.5686732 -0.64449644 0.7995775 0.71419686 -0.7555113 0.78053653 0.5504179 0.5342955 0.14502048 0.47124892 0.98284966 0.09697783 0.81250083 -0.4820779 -0.8187198 -0.10812163 0.009116662 0.6950177 0.36368683 -0.29123503 -0.5940277 0.19579385 -0.5882262 0.01412921 -0.19628473 -0.2190192 -0.4934075 0.2964567 -0.3459045 0.61862636 -0.7057607 -0.19443324 -0.3722668 0.5246313 0.018000953 0.2969427 -0.7206106 -0.6764208 -0.68671525 0.73520935 -0.42371726 -0.43842885 0.5370763 -0.4008636 -0.7353555 -0.23573792 0.8695478 0.5057227 0.7386087 0.8739986 0.85446537 -0.40204546 0.6162567 -0.42305368 0.76594675 0.11518965 0.53060704 -0.5896057 -0.24502487 0.71823126 0.43983057 0.18330105 0.5543296 -0.012756888 -0.5084196 0.3575506 0.49489766 -0.0933419 0.565143 -0.53324986 0.19231877 -0.21286206 0.34001043 0.28881112 -0.4087194 0.1592248 0.86235636 0.40761396 -0.5199545 0.19003905 0.64559716 -0.6944404 -0.502307 0.20037591 0.53960747 -0.4021556 0.274175 0.18129207 0.8389975 -0.555442 0.7002397 0.2547539 0.04740019 -0.14523059 0.22568658 -0.7525905 -0.7857816 0.43931484 0.15083988 0.32349613 -0.11017738 -0.12175645 0.076860994 0.36323723 -0.39953762 -0.7118245 -0.37915742 -0.4468449 0.30213633 0.6358962 0.10194668 0.684227 0.1282518 0.7083011 0.47709048 0.68529785 -0.6646277 -0.11475478 0.47264987 0.30850348 -0.7071001 -0.41220102 -0.33589324 0.7827128 -0.08519961 0.7698986 0.43570334 0.15681392 -0.047369435 -0.9447365 -0.54669416 0.5493615 0.46417537 0.0783729 0.53610206 0.78101635 0.6533907 -0.20051998 -0.59186524 -0.6766342 0.41230595 -0.79274416 0.6271109 0.8767387 0.34048063 -0.28992814 -0.5260523 -0.32927483 0.69313246 -0.014195632 -0.14764357 -0.1316942 -0.43857205 0.12519953 -0.20465092 0.10478637 0.8381543 0.08848576 -0.5092362 -0.49513227 0.44030854 0.547189 -0.27245715 0.75261545 -0.40228912 -0.35439086 -0.28969616 0.3793335 0.6361085 0.46493024 0.798791 0.30584618 -0.79137224 0.1350427 -0.2925837 0.8868289 0.8314 0.65303636 -0.15031211 -0.32588008 -0.31236804 0.71927166 0.6634108 0.059860907 -0.7837822 -0.20769733 0.53715205 -0.74925625 0.05885051 0.27761805 0.676052 0.7647426 -0.03817956 -0.83848774 -0.5900726 -0.31226808 0.51007617 0.3718287 0.1489311 0.50331354 0.5434819 -0.35433382 -0.34408236 0.3855942 -0.35240144 0.24729323 0.34634635 -0.1656267 -0.91207856 0.50817275 -0.46348554 -0.17099506 -0.6023915 0.77957994 0.5637098 -0.6941137 -0.51893324 0.5912155 0.11827723 -0.92387944 -0.23318739 -0.23394737 0.10391121 -0.18669987 -0.6168955 -0.14172946 -0.06280376 -0.6842768 -0.32004896 0.016631205 0.0659348 -0.63351583 0.17230627 -0.6449908 -0.7123803 -0.07861827 0.48997873 0.24930695 0.032636866 0.66626406 -0.0035784114 -0.19165257 -0.14787143 -0.8716325 -0.6169572 -0.17102398 -0.5864727 -0.6319942 -0.20885792 -0.35656184 -0.21879002 0.13529918 0.47652057 0.21969983 0.5605208 -0.35589033 0.47445273 -0.7292212 0.11629827 -0.348588 -0.44680393 0.2682015 -0.635166 0.2658122 0.24051556 0.09854578 -0.08381113 0.022015616 0.7660414 -0.38513798 0.7739925 0.4947793 -0.21552134 0.2675827 0.5226406 0.2284007 -0.45108604 -0.91964775 0.17022863 0.56082404 -0.3624366 0.18053778 -0.030624995 0.28742898 -0.6194896 -0.5842024 -0.06294809 -0.65125436 0.4657255 0.5218049 -0.7035838 -0.17377052 -0.19202267 0.42409107 -0.19346294 0.04869277 0.6966817 0.04977285 -0.72118825 0.62210333 -0.5933183 -0.2289241 0.1060559 0.71685046 -0.5986708 -0.15735584 0.48672503 -0.018237546 -0.44028777 0.17882083 -0.08588992 0.7262414 -0.1267748 -0.19571003 -0.4529788 -0.26709896 -0.6189677 -0.3899483 -0.076047525 -0.25439557 0.4288834 0.57444835 0.21388546 0.20316474 -0.19755727 -0.47808182 -0.7008608 -0.6263914 -0.26506904 0.31013304 -0.56149876 0.058139876 0.71058136 0.4808348 -0.5785253 0.5187557 -0.017333303 0.297665 0.3739739 -0.8584498 -0.21791147 -0.43429735 -0.53900504 -0.85656095 -0.22332068 -0.40483093 -0.17881404 0.74575377 -0.80149204 0.68382955 0.50985765 0.3096224 0.41168198 0.66326654 0.13365212 -0.44244987 0.1823784 -0.07748044 -0.4688876 0.79723436 -0.21885486 0.7601672 0.037072804 0.7469208 -0.36616072 -0.067613 0.8038018 -0.58052355 -0.44641292 0.6970737 -0.22079173
EagerKeyGeneratorKeyProviderCryptoExtension193197.java,-0.4832292 0.7749077 -0.15649462 0.058280256 -0.35929185 0.7555612 -0.18007228 0.40902525 -0.06276046 -0.5666957 0.7583634 -0.2864679 0.6308016 -0.6163261 0.14980683 0.11619519 -0.5774753 0.17219748 -0.5639567 -0.11315814 -0.35763994 -0.18420663 -0.3899327 0.14568616 0.4757762 -0.06103594 -0.13319741 -0.7928952 0.3450722 0.6072058 0.036735937 0.1447721 0.0873999 0.33085912 0.045112647 0.10904917 0.38521755 -0.16667973 0.36348116 0.0744403 0.10939215 -0.4538502 0.134099 -0.061889812 0.18474707 -0.13590865 0.39907697 0.3803929 0.11666314 -0.6377809 -0.31502333 0.39894444 0.7749159 -0.13836136 -0.4977131 0.23165964 0.5594282 0.10599688 0.013304736 0.2699092 -0.17316626 -0.105503224 0.072868004 0.5147021 -0.6706869 -0.69551796 -0.31697237 0.8582252 0.7202844 -0.58214253 0.3787043 -0.11656024 0.38208592 -0.6488759 0.14476557 0.2324622 0.14145449 0.4781143 0.56070346 -0.67915803 -0.26283622 -0.8908799 0.51053405 -0.47496518 0.24001502 0.019537702 -0.38725114 -0.39042008 0.59555453 -0.14928956 0.66918576 -0.7492949 -0.31292227 0.13232926 -0.053533904 0.5139996 0.2141017 -0.15450446 0.51312226 0.19708109 -0.09169486 0.527174 -0.38878518 -0.7106382 0.7043405 -0.40850693 -0.37632966 0.2834329 0.04523184 -0.65957755 -0.18392609 0.13393468 -0.65160376 -0.20436656 0.28056455 -0.30980048 -0.6525182 -0.23453821 -0.6425399 -0.7115683 0.68975765 0.3192478 0.13181442 0.34645888 0.24000822 -0.14014775 0.11087477 0.5058076 0.55325526 -0.29378355 0.6374278 0.4831439 0.7266621 0.42892772 0.3787387 0.3638415 -0.12992553 -0.016181692 -0.022532191 0.29737365 -0.4319936 -0.79498476 -0.048618104 0.5264488 -0.08994175 0.5645883 0.4488125 0.10144393 0.70422375 -0.3379933 -0.08365914 -0.46211785 -0.019979037 -0.86863333 -0.39144245 -0.6493242 0.6658468 0.57878816 -0.4059252 0.48523286 -0.183709 0.07505542 -0.013016269 0.53225344 -0.27259305 0.2866447 -0.03560993 -0.08486789 0.32817572 0.6785225 0.5428486 -0.3764438 0.008282089 0.32334778 0.6320653 -0.29872245 0.9053125 0.049611803 0.4450901 -0.65230596 -0.21987098 0.58212674 -0.5741316 -0.17782402 -0.2594816 -0.56186026 0.14799237 0.64338076 0.7502198 -0.27200097 -0.47004062 0.7263403 0.78916717 -0.47315174 -0.3639551 -0.054721132 0.21082579 -0.55082047 -0.13026994 -0.7427131 -0.17711492 0.79497075 -0.6756473 0.03084911 0.51180786 0.4949095 -0.3723636 -0.07196398 0.41949084 -0.83589554 0.500806 -0.59205455 0.71067894 -0.5323299 -0.06687275 0.6784302 0.0029668882 -0.65706277 0.1080288 0.14804178 0.55014735 -0.8017878 0.06991408 0.2627696 -0.1800503 0.13236071 0.6841107 -0.20932333 0.19831918 0.36696467 0.032248437 0.38402295 -0.36151546 -0.0022843783 0.2753283 -0.2124891 -0.42767423 -0.37390828 -0.33641317 -0.043371946 -0.0067036934 0.20230258 0.8064077 0.1522721 -0.073735155 0.13634548 -0.65130144 -0.14359128 0.05433458 -0.6301495 0.26476443 0.19192728 0.72136784 0.6041073 -0.67110866 -0.09164416 -0.15958378 -0.12145257 0.116211265 0.15677488 -0.20709427 -0.5842437 0.25151116 0.17343794 -0.56047606 -0.18819202 -0.00022747368 -0.5581902 0.20540072 -0.39630052 0.56919146 0.669247 0.3115151 0.29966933 -0.15379214 -0.19688451 0.43108982 0.11932024 -0.014881093 -0.41359907 0.70320857 -0.60929555 0.65142524 0.051175196 -0.21184349 0.64121825 0.15815565 -0.057335325 0.6801608 -0.03409812 -0.32765305 -0.18526757 -0.28494525 0.28458104 0.055560183 -0.40520546 -0.07147399 -0.5284222 0.71761787 -0.44113392 0.9039865 -0.71520066 -0.27226067 -0.19909064 -0.6950103 0.10680945 -0.46240357 0.36425006 0.51250225 0.11094923 -0.3493995 0.27624962 0.8836099 0.6484185 -0.14414662 0.07202871 0.6580023 0.42064252 0.57183844 0.7228431 0.6156607 -0.011613715 0.2981601 -0.06986198 -0.5088621 0.12663954 -0.26486215 -0.0800483 -0.106663816 0.0077695064 0.15942289 0.7478097 0.8123413 -0.23469749 0.6473584 -0.76970214 0.09508893 -0.10979271 0.24379803 0.039911576 0.64499336 0.19671038 0.19479519 0.1353081 -0.9772282 0.010216056 0.41861024 0.80673647 0.56945616 -0.43670645 -0.64523536 -0.67857456 -0.2296518 -0.2625792 -0.21756744 -0.066758394 0.44332096 0.28231543 -0.41704562 0.25490037 0.40802622 -0.37654078 -0.2876594 -0.09964883 0.20730242 -0.11552821 0.6119906 0.4544397 -0.6647095 0.40706745 0.23658432 -0.058451798 0.78114766 0.087772146 -0.42803442 -0.67524254 0.0497906 0.29452834 0.6884081 -0.0022547096 -0.62249553 -0.21700287 -0.18026465 0.101015806
EagerKeyGeneratorKeyProviderCryptoExtension6983.java,0.7123615 0.5154859 -0.23019896 0.6024995 0.49791834 0.6402783 0.80255526 -0.4897548 0.7615232 -0.5415666 0.3494128 0.16686161 -0.15263948 0.47901317 -0.38462332 0.31142357 0.4535881 -0.011418086 -0.11630323 0.67033315 -0.54402125 0.36506537 0.41179538 -0.6666439 0.4511672 -0.5982381 0.70770764 -0.15942869 0.7391051 0.032967262 -0.4462362 -0.48137814 -0.19379352 0.7938745 -0.162607 0.086373046 0.8129129 0.7557874 -0.33653644 -0.887549 -0.41607866 0.41192594 0.45506394 0.8753705 0.3330591 -0.59603167 0.9383481 0.4620712 0.41604304 0.58850014 -0.78906906 -0.59852123 0.51542205 -0.37988535 0.4391756 0.711362 -0.8774501 0.15989123 -0.9650265 0.94256383 -0.46963972 -0.40271515 0.7452338 0.92585737 -0.9467262 0.17022078 0.3040293 0.58035046 -0.8647934 0.8480663 -0.045605384 0.8964123 -0.14237829 -0.79445827 -0.85294235 -0.61716264 0.13934511 -0.5252743 -0.43993345 0.44911978 -0.56399983 0.4088953 0.5973652 0.85404134 0.28924996 0.17839947 -0.28617838 -0.28048533 0.16084556 0.5267457 -0.8337902 -0.023542129 0.5366966 -0.56609845 -0.69736564 -0.6389396 0.3843926 0.29778516 -0.6590091 0.11363945 0.56091475 0.5782339 0.76732117 -0.5896564 0.13219203 0.45718294 0.68927205 0.783436 0.63267285 -0.17945072 -0.35674736 -0.48722237 0.9392301 -0.018581502 -0.7157076 0.86083055 0.577803 -0.6770617 0.44235316 -0.6745181 0.6712161 0.7367386 0.27440652 0.81080484 -0.022489438 0.37439743 0.11087661 0.7153606 0.01088473 -0.7087244 -0.2453238 0.055 0.3944621 0.5605957 -0.49716634 -0.39104417 0.23539849 -0.071899235 0.90196913 0.7517127 -0.19694549 0.51450634 -0.43645683 0.3345836 0.07832501 0.58280927 -0.22052415 0.20444602 -0.18282694 0.6607223 -0.932192 -0.4466773 -0.73668826 -0.053354993 0.74674773 -0.6216482 -0.72051555 0.39120385 -0.6911252 -0.64033973 -0.24938093 0.5767861 -0.15587315 0.94439834 0.5139683 0.016724894 -0.81195813 -0.00867523 0.039658874 -0.07057202 -0.8691371 -0.23162481 0.16296819 0.288914 0.9079982 0.70394915 -0.39146307 -0.8462987 -0.67619157 -0.7683277 0.45987827 -0.25756255 -0.37516686 0.3682593 -0.5233898 0.6259576 0.6548441 0.74759746 0.40310267 -0.5565729 0.09356065 0.67633885 0.7811975 0.4374492 0.5160809 -0.7636474 0.038683064 -0.13798653 0.107012466 0.47906762 -0.34696513 -0.53508687 0.47640806 -0.5453793 -0.495933 0.10561374 -0.7393724 -0.23851535 0.7977923 -0.07335063 0.87456685 0.6733803 -0.13961151 -0.19531845 0.5281148 -0.14492698 -0.15566316 0.1612356 0.6300979 -0.45542935 -0.047078684 -0.29011822 -0.4189626 -0.71948195 -0.6974177 -0.7799507 -0.39130798 0.083202176 -0.86503 0.017054947 0.094440475 -0.2932853 0.26218298 -0.25840068 -0.9388393 -0.6611518 -0.48270705 0.8974972 -0.030183623 -0.51643544 0.1215318 -0.098325886 -0.37157094 0.41108334 -0.6771627 0.9449173 -0.28626153 -0.7094146 -0.3509778 0.133675 0.011074032 0.49368545 0.05580024 -0.5799927 0.29079485 0.8123102 0.14592 -0.571349 -0.40917537 0.7773818 -0.04543488 0.68089956 -0.77195954 0.8970948 -0.33 0.53172636 0.46456835 0.16258876 -0.7525208 0.5340255 -0.055497292 0.77252704 0.024750803 -0.86820126 -0.018660521 -0.019796988 -0.5134738 -0.4013072 0.35349828 -0.65792716 -0.5401519 -0.23737182 -0.17803103 -0.25092995 -0.63573444 0.6863761 0.48838097 -0.40446588 0.5157444 -0.054125436 0.37530008 -0.4717695 -0.47401586 -0.66981506 -0.4325248 -0.65324664 0.8549856 -0.932379 -0.33130497 -0.6701699 0.3401951 -0.58462256 -0.33204022 -0.20747653 -0.836942 -0.64695615 -0.24578941 0.8173931 0.54369587 0.87355155 -0.825973 0.66117245 0.73706764 0.3034756 0.5140136 -0.7108539 0.8503107 -0.80719143 0.8038792 0.61438644 -0.14847776 0.049250137 -0.7244086 -0.42361566 -0.84751153 -0.5063827 -0.7276756 -0.88203233 -0.020673882 -0.23778781 -0.06244138 0.01422814 0.56570107 0.6389743 -0.5850964 -0.63373417 -0.7468916 -0.37431142 0.45524928 0.079353414 -0.80577064 0.7446211 0.00077961385 0.003997556 -0.28050172 0.42953017 0.013300867 -0.059308827 -0.27368313 -0.6309671 -0.8000672 0.3181004 -0.94857544 -0.29507956 -0.48730496 0.0643123 -0.34444863 -0.8584516 -0.5518172 -0.26713473 0.7745212 -0.31346172 0.5668988 -0.7968298 0.18721104 0.622006 0.7451304 0.15592195 -0.16369382 -0.0669174 -0.22869089 -0.47362095 -0.4036269 0.46461296 0.35050434 0.27221668 -0.64484346 -0.20091546 -0.71085393 0.45376346 0.21156277 0.041090224 0.62399423 -0.38965464
KeyAuthorizationKeyProvider113137.java,-0.47603393 0.62739784 0.5586507 0.2971188 -0.6062514 0.12685174 -0.07708949 -0.4497778 -0.6876201 0.058869887 -0.6091711 0.76918846 0.5793582 -0.029941186 0.4902086 0.80688643 -0.7284282 -0.21012007 -0.17073873 -0.144235 -0.12328843 -0.88361424 0.5782891 0.08350016 -0.5655035 0.67893 0.39088988 0.26761755 0.6510455 0.39101955 0.3837193 0.8188938 -0.286549 -0.68444806 -0.0736173 0.05354263 -0.42074496 -0.44796076 -0.66616964 -0.18518303 0.7108491 -0.6417019 -0.19382043 -0.8896479 -0.55079657 -0.29002446 -0.030178642 -0.32858616 0.34008947 -0.5047657 -0.10393114 0.15987104 0.45713747 0.7187722 -0.017632047 0.38536194 -0.27976102 -0.23228244 -0.047743823 0.024730725 0.79434997 -0.50478935 0.15771751 0.2817853 -0.12490102 0.71031195 0.19721809 0.21840124 -0.059842076 -0.6313386 0.051945653 0.62145376 0.55245304 -0.77663493 0.73974645 -0.042138565 0.12714243 -0.0796338 -0.15216142 -0.78849393 -0.6470623 -0.8519137 -0.07771368 0.06803153 0.14497924 0.2824894 -0.63689756 -0.35586765 -0.6158042 -0.55439615 -0.28305772 0.43386206 -0.55214626 -0.6149334 -0.66405326 0.6388227 0.32158107 -0.6995872 -0.16946693 0.5791577 -0.7582509 0.714384 0.18880959 0.2526679 -0.8005048 -0.32269442 -0.5805187 0.13565676 0.38416803 -0.5892267 -0.580999 -0.7090451 -0.50716823 0.21984594 0.44143096 0.41269952 -0.5061167 0.6718242 0.70627517 -0.52179354 -0.49015957 0.69945127 0.44287553 -0.08660609 0.71299005 -0.23926952 -0.19012593 -0.6301837 -0.7460418 0.7957235 0.01943164 0.37889314 -0.46123877 -0.06079749 0.5665116 -0.57629627 0.008713546 0.67145115 0.79146534 -0.05228088 0.6446877 -0.17803444 -0.41879964 -0.68391573 -0.07845808 -0.52941626 0.2076981 -0.42929694 -0.54490024 -0.6542685 0.019100934 -0.27296805 -0.50514567 -0.7492482 0.04970423 0.76396954 0.5468012 0.86579263 0.4689124 -0.52294075 -0.45558512 -0.23527692 -0.15217416 0.05599022 0.09117864 0.25880513 -0.29454103 0.40487605 0.5094017 0.048279542 0.4929127 0.41918552 -0.37753603 0.46277565 0.966213 -0.23671222 0.5142383 -0.2611855 -0.47991455 0.22460899 0.7067545 -0.3316766 0.19973987 0.6575688 -0.7125474 -0.37920666 -0.05905537 -0.20586264 -0.3424382 0.81267416 -0.20299624 0.36921796 0.38098386 -0.52074665 0.1886004 -0.7400058 0.5409969 -0.34498218 -0.8607476 0.24296026 0.88366663 0.82579684 -0.8005114 -0.20249324 0.26232943 -0.31318513 -0.4938853 0.77179134 0.7374572 0.25340804 0.056912255 -0.14133546 0.63294685 0.78550535 -0.5777473 0.63293576 0.4813491 -0.6096836 0.6240888 -0.5919078 -0.019444361 0.11360982 -0.18183224 0.5169484 0.18463193 0.6215532 0.282665 0.34229213 -0.11653108 -0.5867398 0.22133665 0.11780706 0.5662315 0.2205488 -0.7116949 0.052538622 0.019070173 0.10581047 -0.82346934 -0.19084558 -0.32406154 0.7435383 0.82583857 -0.22725782 0.0068163415 0.13251221 -0.44920298 0.3987186 -0.668222 -0.57093245 -0.66753745 0.61559504 -0.02196875 -0.36935467 0.124683686 -0.4816868 -0.26268175 -0.052579865 -0.1780517 0.52551866 -0.34782222 -0.33255005 0.5593511 0.13571125 -0.31277186 -0.081353575 -0.58826137 -0.6240993 -0.23930725 -0.022688331 -0.079575375 0.04512375 0.0870397 0.063030764 0.6722496 -0.5438842 0.44599766 0.014863636 0.32502925 0.28280067 0.29441532 0.31717712 0.5023739 -0.12800165 0.32341892 0.7519773 -0.35321036 -0.19083185 -0.638201 0.37314904 -0.35130316 -0.43609968 0.32611585 -0.29692715 -0.39147738 0.7744257 0.5891163 0.28617296 0.36541095 -0.35875395 0.646496 0.3596088 -0.13085854 -0.13890955 -0.06505717 -0.37996295 -0.6643968 0.76546127 0.30721158 0.69800043 0.09195033 0.091460116 0.6262134 -0.765774 0.15963164 -0.49496195 0.61275667 -0.36474 0.5304624 0.5352286 0.49068004 -0.45948097 0.8284994 -0.15083146 0.2347264 0.14335307 -0.65974754 -0.19962382 -0.09294171 -0.64003575 0.56093013 -0.55574495 0.64605045 -0.58704823 -0.20623527 0.04589456 -0.57152206 -0.6192974 -0.07500827 0.2636959 -0.3790996 0.8541039 -0.58630043 -0.7260802 -0.59241277 0.72253853 0.41398475 -0.34819084 -0.35070947 -0.6485219 0.23992413 0.07515726 -0.1281768 -0.6677282 0.5051672 0.20646448 0.20358893 0.53080124 -0.17347102 0.42628512 0.8003537 0.6857906 -0.38804668 -0.2911383 0.6135243 -0.14524233 -0.044092454 0.5561607 -0.1957016 -0.6841484 -0.69799626 0.7512208 0.2540665 -0.038538277 -0.0805638 -0.43643588 -0.27951613 -0.46825343 0.35897708 -0.20890343 -0.42577478 -0.18624327 0.5678678 0.8285597
KeyAuthorizationKeyProvider139152.java,-0.22016437 0.6636411 0.5812794 0.5643702 -0.59800863 0.18995778 -0.3259655 -0.29717055 -0.44460955 0.37713543 -0.78284603 0.40049356 0.024052775 0.6754528 0.29708844 0.79120576 -0.39266136 -0.20372462 -0.043328293 0.04526691 -0.5385655 -0.9277263 0.4638537 -0.2738055 -0.6687308 0.36177334 0.26395863 -0.23525153 0.81936705 0.45011348 -0.34758037 0.54728323 -0.28835505 -0.28461945 -0.40058154 -0.05239199 0.17933948 0.098416016 -0.020624189 -0.092499904 0.5979764 -0.6223625 -0.48485976 -0.82854724 -0.13098465 -0.10722478 0.5627883 -0.31522396 0.17690732 -0.5747137 0.49892306 0.09175834 -0.25065878 0.6379602 -0.25139093 0.448708 -0.7139988 -0.45720944 0.07222751 0.21100214 0.83448476 0.167462 0.17940082 0.4688782 -0.1347945 0.5745725 -0.32690954 0.28315565 -0.093566895 0.26721707 0.122469075 -0.045821533 -0.0013231542 -0.71769845 0.47928548 -0.47113302 0.5798341 -0.14537328 -0.08525686 -0.57334054 -0.2982847 -0.44219974 -0.57743865 0.68127936 0.2845991 -0.037580144 -0.21845976 -0.5531847 -0.453855 -0.108386025 -0.2418515 0.14465106 -0.123325035 -0.7899744 -0.28119677 0.53425705 0.5068857 -0.5348475 0.08858635 -0.31920397 -0.545634 -0.1331419 0.19958462 -0.14692824 -0.2893477 -0.2032878 -0.10728193 0.01688191 -0.56593937 -0.16878676 -0.45279256 -0.82645977 -0.0665768 0.20927836 0.12499847 0.12184799 -0.38356194 0.023635374 0.06235517 0.1919708 -0.24513303 0.5456926 0.7356606 -0.70468885 0.5230441 -0.40359578 0.41121563 -0.7168815 -0.8858467 0.7390824 -0.40451202 -0.17970812 -0.014452602 -0.5762596 0.38676846 -0.86107343 0.18823127 0.63013244 0.53045374 -0.0111113535 -0.090598024 -0.56515056 -0.5038432 -0.6461509 0.31738856 -0.17562592 -0.2197503 -0.16429333 -0.6681306 -0.4937743 -0.41772717 -0.016074114 -0.6977719 -0.6765775 -0.038808767 0.6703858 0.122173086 0.7827139 0.62470365 -0.28583372 -0.10013498 0.1982121 -0.060573243 0.3505936 -0.10890249 -0.11837672 -0.13751209 -0.25112113 0.0923844 0.30873343 0.33862078 0.13595474 -0.27200538 0.7279686 0.85521734 0.21712248 0.18192357 -0.020135965 -0.060259573 -0.4169564 0.63777286 -0.35098153 -0.06291543 0.6520256 -0.5001301 0.047216386 -0.07936778 -0.7858058 -0.7653869 0.19859453 -0.25507683 -0.25471663 -0.2364276 -0.7122549 0.45831367 0.2779902 0.48295966 -0.7005536 -0.58277714 0.48032796 0.8099728 0.60434794 -0.62169015 -0.2783846 0.15625867 -0.3525299 0.15794377 0.63826555 0.48764613 -0.29545364 -0.7034907 -0.07804672 0.29898095 0.43954256 -0.07487486 -0.013835967 0.1826603 -0.0806615 0.627633 0.21199605 0.22299801 0.69169545 -0.5366447 -0.22340734 -0.12309689 0.7255406 0.50875413 0.19797042 0.28716016 -0.41246253 0.025769323 0.061537806 0.5368228 0.065539435 -0.21726377 -0.14769277 0.018207464 0.42856964 -0.62747943 -0.640199 0.22955757 0.15328716 0.42553562 -0.29167208 0.34864435 -0.0458143 -0.28433338 -0.010022264 -0.5690069 -0.26683113 -0.5140428 -0.08996829 0.3166322 -0.5983537 0.37534142 0.25949165 -0.21457632 -0.57269216 -0.20841391 0.8030528 -0.027230024 -0.21763851 0.42794442 0.41722217 -0.47615534 -0.24102825 -0.41062492 -0.6036 -0.5329203 -0.45833614 -0.29971716 0.16804223 -0.06936443 -0.029031644 0.6278684 -0.27319416 0.681132 -0.124432564 0.46692234 0.002550024 -0.01694191 0.10708932 -0.18841355 0.23698063 0.42489794 0.5649965 -0.24440032 -0.23868498 -0.060674023 0.7262564 -0.34421062 0.077645205 -0.103448436 -0.4166998 -0.3806794 0.63813674 0.32501248 -0.46744972 -0.39577398 -0.43640906 0.32480317 -0.07867841 0.3669446 -0.097252525 0.13221963 -0.2531151 -0.58780897 0.57185864 0.30499756 0.82401824 0.51449746 -0.085854426 0.81329 -0.27045053 0.32103413 0.15683876 0.71681434 0.48202056 0.4106312 0.48437992 0.83091015 -0.5145227 0.85874444 0.2627276 0.40205923 0.25908148 -0.43052757 0.024105536 -0.20780157 0.04624621 0.4399527 -0.406776 0.40917447 -0.7377215 -0.2350449 0.025409969 -0.26068115 -0.4847983 -0.5232089 0.7871921 0.0013354515 0.39302966 -0.88026047 -0.5005293 -0.7063242 0.45788202 0.50563544 0.46463388 -0.50162596 -0.8647131 -0.112513945 -0.019677399 -0.25820395 -0.347712 -0.27558497 0.60479975 0.12421575 0.2805882 -0.37323946 0.40730792 0.3997153 0.3391913 -0.21247457 -0.5059009 -0.12286343 0.5103618 -0.2793862 0.6115512 0.15020007 -0.14929381 -0.48229834 0.92023444 -0.2040892 0.2549331 -0.059100203 0.2661367 -0.5092687 -0.39715028 0.54427606 7.9065445e-05 0.15554683 -0.35546565 0.44351658 0.7918094
KeyAuthorizationKeyProvider154164.java,0.26594 0.7621882 0.67445254 0.6775492 -0.38143638 0.23247914 0.49884686 0.13203591 -0.34160444 0.28316936 -0.108064994 -0.36496705 0.43333128 0.5475537 -0.53675544 0.47824323 0.25272083 -0.5017533 0.26075053 -0.4079403 0.6084186 -0.19191588 0.4412038 0.53391296 -0.2870556 0.4764396 -0.2413432 -0.15465827 -0.27664793 0.2855932 0.63457894 0.042400572 -0.11223484 -0.65945077 -0.3774637 -0.3667626 0.23004432 -0.17165056 0.2512573 0.17977427 0.16232494 -0.025096992 0.23327163 -0.62628603 -0.104661174 -0.26672196 0.17321606 0.42227438 0.4549272 -0.65366036 0.053763922 0.09315062 0.45346278 -0.424553 -0.25180167 0.26245603 -0.4813827 -0.2348678 -0.039574597 0.8767022 0.32603163 0.51563364 -0.01848916 0.13852014 -0.34059763 -0.18542275 -0.26787314 0.45295626 -0.15661779 -0.04787318 -0.24772464 0.52925926 0.08491404 -0.025332047 0.2175104 0.60778844 -0.057289667 0.09073226 0.29788873 0.35259143 -0.6936227 0.061699294 -0.05267362 0.46039897 -0.23096584 -0.15371394 0.6596895 -0.6325269 0.22597806 0.26338962 -0.38632736 -0.13806097 0.009560699 0.11578669 -0.49185038 0.21815602 0.46454495 0.016458465 -0.31857666 0.80251455 -0.15794455 0.6490799 -0.6761409 0.36050084 0.003208176 -0.056085978 0.33802003 -0.17967524 -0.22571853 -0.76208466 -0.07469123 0.17329048 0.30739343 -0.3027301 0.046039183 0.40516573 -0.24856511 -0.59622383 -0.29811108 -0.029211665 -0.78727 -0.07112945 0.45128107 0.243305 0.66410655 -0.08189952 0.13114132 0.20230584 0.50680476 -0.41032496 -0.18429074 0.026728531 0.14403282 -0.33297706 0.21211095 -0.5685642 -0.20124517 0.086500525 0.7694831 0.61815566 -0.3970523 -0.09626675 -0.7816309 -0.8504006 0.37980214 0.32046065 -0.53951406 -0.3357472 0.22901456 0.39582333 -0.13830133 0.005260147 -0.09872807 0.09685724 -0.40162626 0.6063681 0.5384736 0.58575505 -0.43518677 -0.33141014 -0.2147978 0.14592521 -0.29032263 0.10705665 0.33423495 -0.30134717 0.009151726 0.21847223 0.2000613 0.5238302 0.32281628 -0.20625485 -0.3762666 0.11951892 0.82796997 -0.3293066 0.44821206 0.46653616 -0.48771104 0.09362111 0.39678445 0.29829076 -0.4504822 0.0528512 0.11300523 -0.61113584 -0.11664661 0.16191688 0.2655862 0.79799235 0.34834096 0.6266415 0.041217957 -0.39369002 -0.188424 -0.21608216 -0.29946336 0.012232937 -0.18643467 0.07478467 -0.30864328 -0.10133516 -0.40797904 -0.33057195 0.69888306 -0.1611582 -0.017720245 0.060849212 0.19428599 0.25616258 -0.48961702 0.3576314 0.21752422 0.014276788 -0.4061809 -0.08950534 -0.35758674 -0.536755 -0.18152452 0.13373174 -0.15830393 -0.6465343 -0.37789094 -0.655264 -0.6836621 -0.2588395 -0.5308062 0.836698 0.010817469 -0.08597961 0.34958062 0.14462799 -0.5856345 -0.1625146 0.15416808 -0.49462953 0.55819076 0.48844212 -0.72700334 -0.15738401 -0.8510482 -0.29469815 0.31153548 0.09987192 -0.6885011 0.45414925 -0.5247047 -0.025333099 -0.049817067 -0.24514326 0.36459938 0.5045105 -0.20607771 0.2777237 -0.26385224 0.34847188 -0.47509804 -0.31207842 0.3701237 -0.06657079 -0.3842439 -0.21558937 -0.14900626 0.5024893 -0.22317289 -0.10951277 -0.14777167 0.53223103 -0.4984084 0.48508462 -0.5742142 -0.027075108 0.5243417 -0.117576465 0.35620308 -0.6590703 0.049617197 0.3911886 0.044415448 -0.2897701 0.23685396 0.68343925 0.31857166 -0.041964956 0.18083452 -0.585131 -0.2867036 0.2522395 -0.065019 -0.22217381 -0.700317 -0.4894223 0.5644141 -0.6395843 -0.4569063 -0.1384404 0.54113597 -0.1137751 -0.81580704 0.35871354 0.2004585 0.28457528 -0.2918656 -0.18404792 -0.38237855 -0.62337726 0.03928209 -0.00020307186 -0.5514877 0.51687014 -0.28341034 -0.0053061354 0.19724147 0.09496399 -0.42255548 -0.3401855 0.24312869 -0.43619022 -0.20579322 0.1719945 0.091253 0.28292045 -0.21788783 0.017364636 0.06373654 -0.075291865 -0.52440834 -0.7407832 -0.6087686 -0.22224605 -0.27341548 -0.34504247 0.17160402 0.4682198 -0.008461899 0.46273786 -0.45329893 -0.11615086 -0.7539486 -0.36139205 -0.13743162 0.30704808 0.00810133 -0.7696081 0.5258728 -0.043608047 -0.07937629 -0.37232187 0.06010851 -0.11902082 0.055691987 -0.28744754 -0.7055094 -0.12059734 0.24707706 0.029151142 -0.33727542 -0.15693723 -0.019348564 0.05526767 0.48315763 0.3913119 0.19548546 0.0051867804 0.8380932 0.19948265 0.43505874 -0.07249294 -0.6972803 -0.024853436 -0.27928907 -0.043759923 0.3482743 -0.08058703 0.24023831 -0.5809291 0.36357453 0.48920053 0.45169872 0.54347724 0.2559009 -0.09458928 0.5730962 -0.15920764
KeyAuthorizationKeyProvider166176.java,0.0571989 0.780545 0.8113798 0.8032335 -0.28399724 0.47688407 0.22875544 0.18716666 -0.14281513 0.38195598 0.11138175 -0.22581702 0.015008043 0.41786084 -0.6969975 0.5055086 0.444854 -0.49172437 0.15384625 -0.5756273 0.54991096 -0.31831262 0.515476 0.4521951 -0.4564297 0.31281716 -0.20192091 -0.47084507 -0.10763291 0.043542426 0.50789666 0.092726104 -0.34648603 -0.49986178 -0.13204394 -0.26022595 0.441413 -0.39860368 0.2596422 0.16940942 0.26494586 0.20449886 -0.14450915 -0.70921344 -0.057970893 -0.28752807 0.20825845 0.35846046 0.3458207 -0.72254646 0.116006956 0.395918 0.2334309 -0.14047706 -0.5403539 0.22045487 -0.3049719 -0.20223258 0.2971219 0.93829846 -0.0032629431 0.38006267 0.040422007 0.35678545 -0.4321897 -0.24506262 -0.12017066 0.70264286 -0.13575631 -0.428109 -0.38375986 0.70720035 -0.09959695 0.21885619 0.14217597 0.5877938 -0.24604777 0.029671188 0.2506705 0.3742456 -0.761059 -0.004700065 0.37655154 0.33291838 -0.2604988 -0.29161918 0.627792 -0.7019126 0.18706176 0.0010090547 -0.64909816 0.103305124 0.06321683 -0.057123978 -0.59116477 -0.0053582573 0.55655247 0.08187558 -0.41934368 0.5937632 0.15504031 0.84092146 -0.3030739 0.28376907 -0.4014325 -0.16478032 0.40192866 -0.24526204 -0.13895871 -0.6923923 -0.09081108 0.3147069 0.31961954 -0.22482388 0.07815829 0.5972114 -0.10387871 -0.45636508 -0.12718908 -0.25118867 -0.73527515 0.07160724 0.3139471 0.31390458 0.7196512 0.089809686 -0.023897529 0.18665329 0.33232838 -0.25509164 0.00025937456 0.37960824 0.07690263 -0.22443113 0.21218577 -0.63919187 -0.2864908 -0.18572396 0.790845 0.5059483 -0.23549427 -0.29690698 -0.875368 -0.807743 0.31619745 0.28928137 -0.69429004 -0.4602772 -0.025709558 0.32897204 -0.22323036 -0.18528563 0.086194195 0.25896013 -0.2606924 0.5359474 0.31631106 0.52142686 -0.5415384 -0.6154936 -0.2850988 0.03332488 -0.15362132 0.43883088 0.13257729 -0.19830823 -0.1739212 0.39570007 -0.03255516 0.3197936 0.31172004 -0.2734486 -0.45950282 -0.03274308 0.833337 -0.312088 0.32996985 0.44137868 -0.37756148 -0.017801221 0.18759614 0.34428114 -0.62900114 0.081625484 0.21118224 -0.5177998 0.2987471 0.22246353 0.097527996 0.66207343 0.36169773 0.53680885 0.35628545 -0.15966152 -0.5953777 -0.43478766 -0.4746299 0.017699065 0.01350853 -0.11247272 -0.41598567 -0.17373578 -0.6317888 -0.5757247 0.454025 0.07290045 -0.3789171 0.023999725 0.24456298 0.23016441 -0.5601332 0.44543752 0.09344622 0.21380416 -0.09085977 -0.27687111 -0.47666466 -0.5665196 -0.27369907 -0.15607609 -0.09508636 -0.41090122 -0.10259219 -0.73342 -0.8366124 -0.31368858 -0.5624979 0.85060203 0.20661427 -0.55665946 0.354679 0.43391657 -0.7197937 0.024066517 0.10419029 -0.4084154 0.63619083 0.60317236 -0.7350731 -0.046906244 -0.7262833 -0.32084712 0.39819023 0.10637828 -0.6764022 0.45510408 -0.4748739 0.19711542 -0.06382541 -0.333079 0.041714396 0.60422516 -0.22187631 0.2655164 -0.058256555 0.56575394 -0.033641577 -0.09398955 0.5001484 0.06987416 -0.34485903 -0.26864403 -0.081189856 0.57160544 -0.37201548 -0.43862623 -0.2518045 0.54046494 -0.55839634 0.45215774 -0.64725894 -0.22252259 0.45322725 -0.20255467 0.4472677 -0.6394096 -0.24976107 0.15334822 0.13533531 -0.27011356 0.15749584 0.8053244 0.032000933 0.04580697 0.2997684 -0.6446375 -0.4873546 0.15012628 0.049206547 -0.03420997 -0.67199135 -0.39757663 0.57777053 -0.71497846 -0.155451 -0.25906032 0.29639307 -0.017721172 -0.55832756 0.089135066 0.24397197 0.25822327 -0.11406906 -0.3466742 -0.649701 -0.47398767 -0.32359272 0.014692319 -0.7569816 0.32757786 -0.4990079 0.1714813 0.3317085 0.2696272 -0.53865206 -0.38280243 0.0027739052 -0.35038042 -0.07986657 0.30990326 0.17730074 0.32481894 -0.27255425 -0.036879655 0.1151902 -0.16661765 -0.6006844 -0.7757961 -0.48175713 -0.303257 -0.3045897 -0.07203974 0.25253588 0.219267 0.074727766 0.17110354 -0.09980829 -0.39158982 -0.6843537 -0.39987448 -0.10224492 0.13103327 0.27181798 -0.5969587 0.53791803 -0.07302471 0.14101194 -0.08615016 -0.30114713 -0.063781895 -0.11163325 -0.5051794 -0.61372447 -0.05728061 0.009319749 0.23025501 -0.44074428 -0.093272984 0.077257656 -0.005762009 0.21792457 0.5503509 -0.09435056 -0.3466559 0.57377976 0.23816945 0.24858023 -0.25473124 -0.7731743 0.09351558 -0.24609733 0.26308072 0.22374171 0.42298603 0.4750468 -0.47199008 -0.22746077 0.5113406 0.43435615 0.59122014 0.507643 0.4089687 0.5581899 -0.22757994
KeyAuthorizationKeyProvider178188.java,0.04671293 0.81697404 0.51269317 0.44271728 -0.16498244 0.441942 0.38395265 0.46728387 -0.54924726 0.29321694 -0.19756308 -0.68683875 0.49403158 0.5308992 -0.3816402 0.38953868 -0.060538165 -0.5323433 0.46786407 0.269765 0.50683916 -0.7085077 0.66622144 0.38740534 -0.08606626 0.5764909 -0.038319938 -0.14438303 -0.15176587 0.3615226 0.30956638 -0.17681685 0.24824685 -0.35332796 0.015048881 -0.2334737 -0.1357099 -0.067213535 0.4674917 -0.082215086 0.27121538 -0.21524905 0.49480096 -0.28782138 0.29101998 -0.0065275095 -0.017570395 0.3333527 0.20471823 -0.5293854 -0.42145976 -0.11164369 0.5417338 -0.5638299 -0.31729394 0.013734695 -0.77595204 -0.11025754 -0.08781897 0.67799187 0.6505254 0.35190922 0.07259935 0.5170815 -0.28781524 0.20895024 -0.38902253 0.13322788 0.12229273 -0.0024593412 0.05987852 -0.31981778 0.68850154 -0.087854065 0.27781665 0.819499 0.092045985 0.05308015 0.64456683 -0.15538776 -0.20999226 -0.27111915 -0.32729277 0.5033946 -0.040707234 0.33379087 0.5211567 -0.6112742 0.50276893 0.63768804 0.06066266 -0.8230431 -0.060314506 0.078547925 -0.4515667 -0.08807055 -0.11177181 0.1549796 -0.250298 0.8423534 -0.2712585 0.3076824 -0.71521413 0.519133 0.29143658 -0.5046139 0.07857851 -0.051897846 -0.3915424 -0.704863 -0.3891581 0.1342528 -0.0650649 -0.06148062 0.40916598 -0.045647237 0.01665712 -0.39125612 -0.27409753 0.43190944 -0.5971152 -0.13461629 0.4096946 -0.014428545 0.66957337 -0.022134932 0.67257535 0.18107155 0.3536144 -0.31982002 0.00859409 0.6347555 0.5997247 -0.50005877 0.110646985 -0.22021644 0.15543579 -0.26124385 0.510535 0.9196315 -0.5627228 -0.20110624 -0.4836485 -0.85685885 0.37459126 0.23444918 -0.2575736 0.14382029 0.7695513 0.13623819 -0.51467496 -0.16645578 -0.15588191 -0.3069958 -0.15978676 0.43280593 0.46007645 0.5291686 0.14059643 0.20088638 -0.3698126 -0.051705297 -0.31321958 -0.55394703 0.28450364 -0.23992628 0.28886983 -0.09165347 0.07320592 0.5593286 0.42070654 -0.19497243 -0.40046546 0.27798265 0.7365874 -0.5163451 0.6515966 0.47459495 -0.48306045 0.22849429 0.21510197 0.2591733 -0.20601933 0.7078149 -0.030983357 -0.74366635 -0.6571226 -0.09953601 0.5267766 0.9211272 0.13196696 0.23249456 0.0546665 -0.744998 0.1975257 0.659235 -0.11826269 -0.25074407 0.018310394 0.33327943 -0.0795644 0.04920205 0.07501294 -0.18364367 0.43425816 0.2398005 -0.265673 0.16473538 -0.2270562 0.34314778 -0.099446215 0.22073516 0.23623732 -0.15404843 -0.77070886 0.13868546 -0.4040494 -0.09144017 -0.20813744 0.47549272 -0.12946016 -0.43468896 -0.35693893 -0.17818744 -0.63420135 0.007461114 -0.27088633 0.63659215 -0.4706254 0.07890063 0.14085442 0.48891905 -0.38828734 -0.4355322 -0.1200918 -0.5526575 -0.0013876163 -0.07960202 -0.41695213 -0.10305457 -0.8541612 -0.08759001 0.38695383 0.3008915 -0.4661428 0.4435897 -0.4094424 -0.30870372 -0.6023079 0.01540224 0.3380637 0.3542466 0.19484153 0.15966845 -0.16521649 -0.015128443 -0.83427167 -0.07141483 0.38651025 -0.42524123 -0.42680866 0.10686552 0.373725 0.02289868 -0.12682132 0.16778773 0.14814834 -0.13019721 -0.20841351 0.2341378 -0.22581393 0.23425548 0.41674516 0.08991218 0.61570936 -0.67273635 0.61445963 0.37188908 -0.3781377 -0.19724771 0.51710725 0.47540334 0.44858646 0.59427595 -0.23045431 -0.45184287 0.1653578 0.4532645 -0.075615846 0.068586804 -0.54214025 -0.16492623 0.5804936 -0.7353083 -0.6424303 0.37278038 0.3916663 -0.45273462 -0.41427803 0.05298059 -0.17386144 0.5643154 0.12159606 0.16209033 -0.1850664 -0.2798048 -0.031629957 0.12209218 -0.52757996 0.71424156 -0.1672789 -0.5707438 0.39757222 -0.23703943 -0.16765572 0.060888067 0.20031707 -0.120473154 -0.17976317 0.45942122 -0.08272752 0.039418064 0.5896699 -0.002034951 0.0442143 0.39175254 -0.4739374 -0.22051525 -0.30058485 0.07516404 -0.2609516 -0.27132523 -0.065165795 0.33714178 0.32981962 0.39221162 -0.48066908 0.37407693 -0.6262597 -0.12479524 -0.76652265 0.10898979 0.0016681794 -0.76348495 0.3723974 -0.057985518 -0.05325507 -0.23803197 0.06294949 -0.21919021 0.35169643 -0.23660031 -0.80967474 0.18485153 0.6099337 -0.24555969 -0.19568203 0.10696042 0.22605999 0.26530617 0.58864874 -0.31763554 0.5969489 0.7611758 0.8055521 0.3321244 0.69848734 0.31934103 -0.41632763 -0.3418333 0.0929114 -0.55997103 0.63288295 -0.23737395 -0.047789823 -0.521049 0.5138618 0.48127055 0.26508424 0.46077117 -0.094408825 -0.3640368 -0.019266365 0.16639568
KeyAuthorizationKeyProvider190199.java,0.139193 0.90784353 0.4107622 0.5196867 -0.08474266 0.78796554 0.58263063 -0.48478106 -0.2567014 0.2591653 0.6111551 0.41353726 0.08349251 -0.47723168 0.26051292 0.8964848 -0.3928893 -0.5077939 -0.5597941 -0.15481628 0.6420802 -0.6786343 -0.6697366 0.61699355 0.33278537 0.84826404 -0.49792802 -0.5150299 0.45802885 -0.34889963 -0.014327008 -0.17082609 0.7729795 -0.6102185 0.773574 -0.1312486 0.5931688 0.23748967 0.11049389 0.6349805 -0.25270578 0.6559549 0.18951535 -0.818815 -0.06478085 0.41897485 0.06362538 0.5571979 0.7187848 -0.81214917 -0.86624384 -0.39815107 -0.36931953 0.52725327 -0.6064024 0.57500017 -0.870034 0.3738677 -0.31043094 0.72055155 0.19705698 0.43913814 -0.33340976 0.81916857 -0.9553232 -0.61074656 -0.82652104 0.31632015 0.5933308 -0.7481721 -0.32992718 -0.70865434 0.79641104 -0.7507658 0.43007383 0.30495197 -0.67513525 -0.57727283 0.8639137 -0.033842836 -0.6663737 -0.6902595 0.45902458 0.8816902 0.81185955 -0.5647361 -0.42092425 0.4591885 -0.27642232 0.71227777 0.63900465 0.333184 -0.35873172 -0.6170153 -0.62262875 -0.6048221 -0.6239975 0.5549625 -0.58046687 0.5092044 -0.6820928 -0.06937596 -0.8383714 -0.01832527 0.289319 -0.05889334 0.74236244 0.63428545 0.6414858 -0.8265387 -0.044707507 -0.77548784 0.1785302 0.15573314 0.7503517 0.483005 -0.9124037 -0.51150846 0.35038298 -0.10187315 0.49526474 0.1436503 -0.33578852 0.4734071 -0.36153406 -0.5752275 0.39905843 0.095652126 -0.6879798 -0.6247621 0.5557742 0.91655195 -0.33662632 -0.1351104 0.23645675 -0.6581154 0.45931002 0.07933813 0.75899726 0.55736965 -0.38473183 0.30644816 0.6400128 -0.8690462 -0.48725754 0.7027128 0.5547375 -0.029659426 -0.168579 -0.4480425 0.48311925 -0.24918352 0.1783377 -0.27185684 0.5512553 -0.67063 0.7109167 0.62703586 -0.5779377 -0.7010785 -0.07541938 -0.0556292 -0.3762561 0.16486832 -0.7589625 0.78239983 0.79265946 0.60079485 -0.07868884 0.48715562 -0.32214063 0.4287386 0.41908425 0.5976412 0.92336637 0.027734557 -0.07346959 -0.4036475 -0.7024559 -0.26635492 0.62944645 0.09682519 0.33077538 0.78022856 0.2899253 -0.51716304 -0.81890064 -0.367864 -0.4333339 0.37989682 0.3386945 -0.24595161 -0.2115163 0.2824931 -0.6815857 0.6624986 0.011546543 -0.67223537 -0.71163374 0.7420531 -0.037859853 -0.11048291 0.56894225 0.5274348 0.6416568 -0.40320316 0.25812474 -0.47510755 -0.12227792 -0.19263887 -0.14094055 0.57136047 0.519616 -0.58246356 -0.7922592 0.2953477 -0.44297874 0.44608507 0.55765307 -0.44046214 -0.36540183 0.6373121 -0.07100301 -0.6223786 -0.7911512 0.8374001 -0.15980472 0.09064212 -0.5842769 -0.47012606 -0.66166353 -0.029106947 -0.7470127 -0.34195715 0.22837561 -0.64424115 0.34326994 -0.123943746 -0.5692404 -0.776271 -0.7057487 -0.5124856 0.0425462 -0.4955255 -0.74823374 0.8952188 0.004846611 0.1945552 0.25181213 -0.046627726 0.5249859 -0.64219946 -0.41631097 0.61054415 -0.4701553 0.8458825 0.28602365 -0.013362132 0.8340401 -0.76671624 0.30439487 0.16575901 0.49415845 0.3440305 0.004841269 0.63716185 -0.4611523 -0.09801761 0.33657804 0.4515068 0.42550978 0.85881966 0.6996274 -0.7083087 -0.22836053 -0.05910648 -0.4629778 -0.14143297 0.15069632 -0.3566418 0.6707588 0.61855847 0.71598095 -0.0028582187 -0.5430036 0.8974089 0.6637746 0.42159116 0.4539567 0.78142226 -0.84418774 -0.45520857 0.78389585 0.055446416 -0.86824775 -0.49895203 0.6833754 0.10763938 -0.43750852 0.5621679 -0.5813024 0.5504211 0.55564743 0.31954476 -0.53111 0.81550956 -0.5784822 -0.186523 -0.7612499 0.26899073 -0.8604741 0.47782263 0.7660244 0.6978691 -0.76756996 0.19018525 -0.10454273 -0.48613003 -0.64769334 0.16515212 -0.029617596 0.06501923 -0.3638053 0.26549074 0.6075027 -0.41241807 -0.11852051 0.6855527 -0.20055439 -0.6381914 0.38202327 0.19777954 0.9039466 0.43341726 -0.39903757 -0.18868448 0.47625962 -0.6501592 -0.85461855 0.7994028 -0.8538273 -0.2294826 -0.76414794 -0.20879449 0.22530392 0.33811274 0.7175531 -0.638539 0.7431945 -0.5408222 -0.8393573 -0.77592814 -0.79095876 -0.4200397 0.7582236 -0.28468892 -0.4435898 -0.28681353 -0.6138061 -0.619308 -0.13815123 0.033438254 -0.5864774 0.51344705 0.75725615 0.34665838 0.788563 -0.3943864 0.2652351 -0.6525488 -0.620852 -0.5723868 0.60076207 -0.38947707 0.19028819 -0.89845675 0.50051796 -0.40947714 0.37635386 -0.062739536 0.63895 -0.5927773 0.5602198 -0.32126847
KeyAuthorizationKeyProvider201211.java,-0.06677938 0.6508262 0.61762285 0.66272044 0.08262591 0.47113326 0.21667647 0.30666035 -0.45554823 -0.073784225 -0.23342094 -0.37500054 0.1373218 0.29881108 -0.4185603 0.2600249 0.13266546 -0.367164 0.4633229 0.27332723 0.6867833 -0.58728755 0.5568104 0.4884017 -0.31585518 0.337081 -0.11916615 -0.27203646 0.045601837 -0.10639687 0.30090714 -0.058720324 -0.11549271 -0.078716226 -0.09352528 -0.067518465 0.052011993 0.19093432 0.43972564 -0.32151532 0.42144552 -0.00926429 0.14794981 -0.2318476 0.10729141 0.15431897 -0.0354246 0.03573812 0.08797595 -0.18940401 -0.224054 0.015481776 0.14998059 0.0046473416 -0.40462843 0.029026462 -0.77959216 -0.08651975 0.2675572 0.79790586 0.7426412 0.23131064 0.08075791 0.68989897 -0.3734859 0.39620513 0.011540568 0.4416751 0.08981567 -0.11217826 -0.26286432 -0.07176076 0.5206846 -0.18255721 0.34716985 0.68192655 0.2719568 0.18677746 0.55005574 -0.37029117 0.10832084 -0.5005082 -0.09036824 0.15542394 -0.08648449 0.32447687 0.48790896 -0.33001393 0.17092659 0.63606673 0.003386633 -0.37178925 0.06692448 -0.053485237 -0.022076506 0.017301349 -0.35829642 -0.18251163 -0.4109782 0.24430886 -0.14511448 0.45061955 -0.33395675 0.36529222 -0.046205856 -0.54264426 -0.107474744 0.08594528 -0.30259404 -0.4285173 -0.14227474 -0.077560246 -0.2429937 0.1645325 0.08992426 -0.059030768 -0.14601345 -0.4283421 0.0016668143 -0.06343401 -0.6273502 0.21886113 0.52794075 0.14298753 0.71641064 -0.23335855 0.62072045 0.28874138 0.08933743 0.091526166 0.09760143 0.59897715 0.60527396 -0.42353013 0.24637157 -0.23840393 0.038067903 -0.25806913 0.29646447 0.3138504 -0.36463454 -0.41991436 -0.6772262 -0.72179776 0.042955708 0.14605841 -0.257122 0.12300138 0.53721935 -0.22527316 -0.3059985 -0.19054882 -0.2807139 -0.1743717 0.09388469 0.36722505 0.09802341 0.5875718 0.23761223 -0.09501835 -0.057610333 -0.1415305 -0.3213629 -0.042139214 -0.1134994 -0.027038582 0.14183216 0.068045236 0.18367352 0.32197565 0.35051748 -0.27046528 -0.6164134 0.46987408 0.6678626 -0.53903824 0.44619238 0.17376733 -0.36745727 0.073234275 0.25623184 0.02235095 -0.060346313 0.6910948 0.11241048 -0.6530213 -0.54043543 -0.19941638 0.51183206 0.83499855 0.3532291 -0.0502532 0.32727948 -0.67801046 -0.10994342 0.58761585 0.11262365 -0.20229815 -0.08216833 0.23316151 -0.089562796 -0.11740431 -0.026624389 -0.44577596 0.016902082 0.43884596 -0.2510191 0.34619293 0.18105769 -0.21417136 -0.018663459 0.05166087 0.13254292 0.16823871 -0.6361236 -0.03755516 -0.55519056 0.0026572691 -0.3533448 0.05441819 0.107104845 -0.3799643 -0.29051167 -0.21884142 -0.6661203 0.1184898 -0.20805848 0.6177122 -0.33667156 -0.030429222 0.21555829 0.57636636 -0.59319997 -0.5454072 -0.13489692 -0.45291972 0.08709937 -0.2675937 -0.29985002 0.11021522 -0.7944192 -0.20204121 0.2550289 0.19570914 -0.42017633 0.23920763 -0.2034633 -0.33460718 -0.71203285 0.36093858 0.24871059 0.49989474 0.13107154 0.23926905 -0.16430785 0.44924334 -0.84543514 0.108193345 0.085411035 -0.039037995 -0.6215524 0.17764018 0.62637925 0.38488728 -0.17402844 -0.13933146 -0.07503563 -0.2665092 -0.1253131 -0.08113948 -0.08750596 -0.172841 0.15434282 -0.116473794 0.4250563 -0.5996946 0.21191883 0.1024857 -0.1889912 0.06304153 0.21245041 0.38701606 0.2508172 0.5455978 0.028714955 -0.4965374 -0.2823936 0.2646976 -0.014880962 0.30047256 -0.58981633 -0.0057993913 0.35840157 -0.48273325 -0.59637976 0.44615766 -0.054700594 -0.6556199 -0.084592044 -0.3992646 -0.04431514 0.41493526 0.3254165 0.2924788 -0.30787048 0.15315174 -0.39395186 0.066675395 -0.66810644 0.54617715 -0.33409193 -0.11349445 0.15848972 0.012467454 -0.38155714 -0.14928564 -0.062069956 -0.11501483 0.016231284 0.5608985 0.051131327 -0.13951877 0.69277614 0.06967591 -0.13480584 0.46708074 -0.36622185 -0.13526346 -0.013782423 0.046955787 -0.25618482 0.1522455 0.11653431 0.18069594 0.37356177 0.40977013 -0.22893944 -0.030120704 -0.5295827 0.40111652 -0.72055215 -0.020708617 0.0725782 -0.720302 0.116516426 0.096411794 0.020280251 -0.18920283 -0.0048939213 -0.26611984 0.31054667 -0.50041676 -0.55853754 0.04367464 0.23481083 -0.22011851 -0.41298938 0.21554399 0.37167794 0.30365327 0.6097084 -0.22555497 0.32347345 0.27988786 0.36043227 0.18669458 0.28541735 0.1385862 -0.3802531 -0.18815151 0.271287 0.02898374 0.4363467 0.07425021 0.1362048 -0.6035022 0.22373042 0.53994936 0.10251391 0.6091222 -0.21688814 -0.091277964 -0.106767535 0.36601278
KeyAuthorizationKeyProvider213222.java,-0.08807943 0.885566 0.5740372 0.377529 -0.29160985 0.8600478 -0.50525796 0.36466634 0.13980304 -0.71166164 0.45314312 -0.52865744 0.5499439 -0.22729872 0.195147 0.3110787 -0.88131326 -0.0488396 -0.4976778 0.055777937 -0.35718736 -0.30631503 -0.45003474 -0.4253743 0.63508546 0.38566217 0.5120185 -0.30557436 0.11337875 0.53187156 -0.19419764 -0.117728785 0.35712886 0.21612464 0.5347146 -0.09450126 0.5059109 0.12950175 0.5029574 -0.0133016575 0.22902197 -0.13472018 0.35971773 0.081686735 0.5363082 -0.6944394 0.5608818 0.54786336 0.32628116 -0.6957055 -0.8116506 0.6322427 0.8152668 -0.56473863 -0.8637029 -0.012340926 -0.21373326 0.067904554 -0.2002266 0.6968044 -0.02312972 -0.60864484 -0.399007 0.7820827 -0.9398533 -0.32808578 -0.7353899 0.65697604 0.4456085 -0.3816763 0.62813294 -0.43947423 0.77476954 -0.7622857 0.16466376 0.6206071 0.26684657 0.4909551 0.55702955 -0.86214554 -0.49996793 -0.97864085 0.20216005 0.3443094 0.33207744 0.45324692 -0.16697598 0.078676105 0.39926538 -0.2549511 0.57722044 -0.87101436 -0.7313248 -0.104213625 -0.07592851 0.3122433 0.2115036 -0.18056227 0.4146034 0.67690486 0.055735968 0.39448947 -0.80505294 -0.34603205 0.67618 -0.44347468 -0.12854855 0.5256041 0.29102677 -0.74857306 -0.51636976 0.06297561 -0.55541366 -0.2919728 -0.10763659 -0.2371899 -0.817302 -0.45147425 -0.37415698 -0.32896942 0.56095743 0.5260405 0.22018129 0.29582363 -0.015809912 -0.47184828 0.5494467 0.42646202 0.3486748 -0.3813025 0.4704832 0.8948819 0.7010513 0.4566165 0.1390813 0.3716653 -0.34702283 -0.5145508 -0.08955447 0.64654887 -0.9198265 -0.7537953 0.51066136 0.05616836 0.28122097 0.59573823 0.5536114 -0.003427391 0.64207435 -0.6789346 -0.46718436 -0.3312311 0.20818344 -0.60942525 -0.09884165 -0.61681664 0.3439855 0.6235774 -0.39401707 0.053189386 -0.3967318 -0.3447419 0.14660683 0.013535313 -0.2420357 0.16043274 -0.02269183 0.34062928 -0.1660033 0.3770247 0.7326544 -0.3771962 -0.22675988 0.3825077 0.82073486 -0.38416794 0.77710015 0.07954822 0.05289661 -0.59839314 0.19940163 0.4744207 -0.518743 0.4530495 -0.20888281 -0.77698284 -0.4034069 0.5905442 0.69726354 0.13591473 -0.47321922 0.38153976 0.31444955 -0.8403235 -0.5539827 -0.09291688 0.5167708 -0.59896237 -0.36624366 -0.19753113 0.30268136 0.6940951 -0.47329694 -0.38299093 0.24013945 0.7606497 -0.47613037 0.66143346 -0.21501233 -0.56279993 0.31781936 -0.35526866 0.049899556 -0.35877484 -0.6754008 0.46651277 0.19297051 -0.5398756 0.30525178 -0.13423496 0.48952067 -0.2731899 -0.31970835 0.44302312 -0.565321 0.80554444 0.15697047 0.14495248 -0.2859967 -0.09647997 0.27611098 0.36759603 -0.054374944 -0.15308194 0.14413427 -0.29245237 -0.23628063 -0.44789505 -0.42882755 -0.3228129 -0.2780425 -0.08587508 0.57677704 0.11560854 -0.5165392 0.8466915 -0.6614944 -0.039784268 -0.64771146 -0.68868494 0.7277725 0.40455237 0.692056 0.703772 -0.40449947 0.5604677 -0.25369748 0.39802876 0.25648522 -0.17322381 0.04550573 -0.19505113 0.27736923 -0.03926494 -0.75886893 0.37519357 0.08272596 -0.7670064 -0.37810937 -0.3799922 0.52212983 0.7925125 0.27022463 0.15837282 -0.24518967 -0.03549073 0.4594816 -0.16244522 -0.26980036 -0.050089873 0.7102766 -0.37349024 0.5210742 -0.13626055 -0.2456936 0.5619842 -0.25142083 -0.06959204 0.354604 0.38809013 -0.20695053 -0.179569 0.4021547 -0.43105596 0.08919588 -0.3374684 0.2104926 -0.58756363 0.6850538 -0.44364214 0.5038963 -0.25031635 -0.44631636 0.7172168 -0.80964565 0.024397496 -0.78055 0.8716411 -0.031326093 0.6578495 -0.79439783 0.22272322 0.8131697 0.60843956 -0.16306467 -0.07686164 0.21072568 0.40348566 0.408648 0.7650612 0.8149442 0.18960607 0.7170602 0.2064381 -0.42601573 0.056639425 -0.53172475 0.12743816 0.026624845 0.20470981 0.13957547 0.71359575 0.83928955 -0.45940512 0.7646886 -0.67155993 -0.16956499 0.2025857 -0.4366784 0.5979983 -0.40644434 0.6606276 -0.10436968 -0.23606811 -0.7179956 -0.23072651 0.438241 0.30551022 0.70691097 -0.33430222 -0.78494555 -0.50402653 -0.24149977 -0.051815458 0.31751475 -0.06376643 0.70400274 -0.0098582 -0.19125421 0.2612953 0.37625715 -0.31045792 0.09389752 0.44592768 0.20588686 -0.33754635 0.2321701 0.6375766 -0.6737723 -0.2517317 -0.0117725395 -0.36926484 0.48570034 -0.30224404 -0.46584478 -0.7822203 -0.074992165 0.26557168 0.47251406 -0.15918125 -0.32630745 -0.39512804 -0.47130784 0.35457858
KeyAuthorizationKeyProvider224235.java,0.57356274 0.69868463 0.3407894 0.18911047 -0.7686289 0.50283474 0.48171097 -0.3618228 -0.5142366 -0.21677357 0.29094848 -0.39819577 0.63851625 0.5034676 0.13481325 0.115317374 -0.3266593 0.05461795 -0.59313893 -0.45919403 -0.5662078 -0.5458241 0.17400101 0.3196484 0.081278645 0.054922067 0.13116598 -0.3039344 0.7056636 0.16679958 0.06622542 0.32438913 -0.033291098 0.08946135 -0.2871945 0.044084996 -0.017385934 0.21168981 0.060538687 -0.13080665 0.004733221 -0.48408818 0.5565616 -0.28867164 0.34747028 0.35253027 -0.1523369 0.53377503 0.73003983 -0.27592388 -0.2120355 0.5960042 0.63745093 -0.22338064 -0.12577167 -0.39394093 -0.5874687 -0.15851064 0.1629981 -0.26958582 -0.40006056 0.59056044 -0.1037666 0.12261322 -0.56909126 -0.5208716 0.44771758 0.28749996 0.37901342 -0.7207598 -0.35836422 0.17931946 0.52539384 -0.5523242 0.5238988 -0.1799591 0.10907142 0.11876981 0.32092255 -0.032109268 0.61513925 -0.8992361 0.09873471 0.6359501 -0.20000902 0.42272386 0.29562372 -0.30606502 0.5310115 -0.11763889 0.21327405 -0.38250908 -0.17010939 0.1769341 -0.5234535 0.5515493 0.5750266 -0.071831994 -0.18348758 0.09730549 -0.3204544 0.25025776 -0.044008404 0.4847584 -0.04210366 -0.13602859 -0.075557955 -0.15120104 -0.403651 0.65617555 -0.4572775 0.20902118 -0.47510257 0.4032732 0.5923169 0.3262311 -0.5986828 -0.19463907 -0.15808041 -0.3779517 -0.3062123 0.7336621 -0.23504722 0.17593507 0.518884 -0.21407703 -0.06784727 -0.37162468 -0.33777976 -0.20642392 -0.013039557 0.79694414 0.36075604 0.2601891 0.5248088 -0.6790052 0.0318344 -0.38389736 0.7196194 0.3451507 0.20744586 -0.7145387 -0.17892183 -0.84558016 0.24789512 -0.2673989 0.34662622 -0.5727861 0.33283955 0.10568626 0.6036326 0.08822555 -0.41401565 -0.3006407 0.063292824 0.16650271 0.66354156 0.5932322 -0.23735991 -0.25015205 0.26125643 0.125671 -0.011121051 0.31786808 -0.20015477 0.31261906 -0.026086254 0.14750907 0.03436075 0.51920575 -0.20604062 -0.120013386 0.2993575 -0.2315225 0.25505266 -0.56873214 0.07723223 -0.35037535 -0.03346061 -0.02354093 0.17759988 -0.30995563 -0.6127896 0.4885809 -0.5900425 -0.800885 -0.35713857 -0.26044333 0.754171 0.26776937 -0.2814857 0.2408468 -0.58354914 -0.5382722 -0.55578685 0.5813419 0.13838401 0.14165539 -0.5206565 -0.6700284 0.32856184 0.4625817 -0.24721086 0.010487836 0.30974084 0.21774647 0.3406709 -0.09070042 0.3295038 0.3454966 -0.4880627 -0.62566584 0.59109735 -0.0053084623 -0.22444104 0.28142938 -0.51395804 -0.50329167 -0.043734364 -0.21912165 0.5891772 -0.5960573 0.06438191 0.17085668 -0.8030909 0.5591761 0.1465361 -0.02047056 0.43712586 0.24278575 0.11844596 0.11076379 0.36202887 0.15221123 -0.4453219 -0.14960901 -0.15017734 -0.0045904256 -0.04674447 0.27574515 0.385486 0.010197384 0.44239303 0.15444194 0.7314374 0.038386963 -0.29498115 -0.49372584 0.2697328 -0.049163908 0.5461454 0.28582892 -0.38934153 0.45667055 0.4669514 -0.39771137 -0.6933279 0.31175223 0.004009921 0.1063809 -0.29441518 -0.45425904 -0.11656223 0.85153526 -0.51986456 -0.3507347 -0.0713526 -0.58656836 -0.19678093 -0.16658583 -0.37371483 -0.13033992 0.16606706 -0.2645578 0.15872811 -0.38286898 0.53867054 0.49235016 -0.079413906 -0.019060178 0.5280439 0.29529148 0.7580212 0.033098936 -0.44538426 0.7000183 0.62069356 -0.3040411 0.08843365 0.4606924 -0.024636041 -0.069706395 0.23766273 0.60315806 0.26897573 -0.3792373 0.07512912 -0.0297696 -0.088726506 -0.5515188 0.4313481 -0.34908175 -0.16258743 0.4955848 -0.34338605 -0.3295046 -0.22310151 0.7784258 -0.5886961 -0.07573494 -0.070520125 -0.19292286 0.9071834 0.035822786 -0.34898672 0.4544523 0.26757053 0.03935475 0.4384486 -0.013797275 -0.10673025 0.20782888 0.52038276 0.6601774 -0.15368946 0.4053206 -0.061062858 0.018768564 -0.34263042 -0.5150778 0.3662305 0.34757054 0.34951887 0.0076289196 0.23676866 -0.4367675 -0.11618993 -0.25143352 -0.57628816 0.09331445 -0.48236832 0.09143952 -0.11792241 -0.27340433 -0.9209569 -0.39572766 0.22506937 -0.2535586 -0.28206527 -0.30473843 -0.04366885 -0.17333055 -0.51774675 -0.2855799 0.44018316 0.31897676 -0.05058872 0.13803321 0.6951026 -0.15977146 0.62889844 0.05485304 0.30071405 0.9158626 0.06169352 0.14424103 0.6721182 0.42809507 0.28518945 -0.19606343 -0.6370923 -0.07669906 0.62537426 0.031356007 -0.63075316 -0.54898804 -0.092067935 0.062158026 0.0972619 -0.26911864 -0.6571151 -0.43444172 0.43485028 0.5450196
KeyAuthorizationKeyProvider237247.java,0.2772518 0.725387 0.12015373 0.120529264 -0.36116812 -0.016622165 0.47018078 0.28761733 -0.37538826 0.11293261 -0.45315573 0.09788322 0.18595672 0.80446285 -0.4454226 -0.5808724 -0.527085 0.40219384 0.24887833 0.5256736 0.7088212 -0.75488484 0.35401168 0.18881387 0.12996079 -0.6926032 -0.57049394 -0.022961508 -0.23282053 0.18060198 0.2380056 0.42657676 0.45542 -0.43935695 -0.26406613 0.1127669 0.6203725 0.08615125 0.22647856 0.6629563 0.5988295 0.43747827 0.10621067 -0.080599494 0.33818185 0.25859368 -0.15120386 0.17614768 0.5457413 0.33465636 0.079578385 0.18343085 0.06411928 -0.18566516 -0.42126235 0.037893802 -0.6051252 0.34900135 0.13208115 -0.16150425 -0.4521071 0.734955 -0.31790918 0.057846174 0.13651703 -0.36733586 0.2092119 0.10109841 -0.020137299 -0.36125407 0.47077182 0.05148461 0.3481202 0.0966558 -0.15771466 0.1954214 0.29913005 0.42144334 0.26758337 0.66664076 0.6907563 -0.917339 0.3322153 -0.24239874 0.24691103 0.45052588 0.67321414 -0.6400481 -0.33268797 0.56236744 0.30719823 -0.6018542 -0.14923988 -0.24035034 -0.109259345 0.08329617 -0.32797325 -0.19485015 0.09522018 0.292641 -0.3335941 0.25607136 0.23947851 0.13379513 0.14586902 -0.56051236 -0.44237262 0.097257525 -0.22030553 -0.22328797 0.15060101 -0.12470991 -0.15419386 0.30407286 0.040354297 0.17725664 -0.4184308 -0.2284782 0.03858754 -0.20011327 -0.7313337 -0.16770463 0.46283618 -0.05785914 0.7057747 -0.71049434 0.43683952 0.30636343 -0.058006346 0.45598537 -0.50662774 0.4126094 0.11093334 0.005412148 0.31470537 -0.44905898 -0.5209788 0.7908457 0.32749227 0.78625166 -0.4700795 -0.57570773 -0.62462175 -0.56219804 -0.07067351 0.07863011 -0.45323214 0.2811651 0.78041345 0.37458202 -0.16532263 -0.026534814 -0.95527416 -0.6578883 0.038565703 0.41719607 -0.020484155 0.45735386 0.61068517 0.24042185 0.09354626 -0.5608611 -0.4447065 0.032311626 -0.06351948 0.20703524 0.072745144 0.22249958 -0.3724444 0.383849 0.7198253 -0.13618296 -0.24777226 0.2813168 0.45390415 -0.415598 0.0771849 0.40731776 0.08457379 -0.1076522 -0.27511036 -0.44236523 0.19485621 0.020013407 -0.37187365 -0.62102056 -0.2523198 -0.17920037 0.25406685 0.26303554 0.12754887 -0.4027818 0.28079355 -0.5411127 -0.1751239 0.28552887 -0.049616966 0.37220675 -0.22494346 -0.5342808 0.25424856 -0.061474953 0.20218277 0.16331835 0.28477776 0.07187421 0.17725997 -0.18389665 0.42367646 -0.15769888 -0.6366327 0.046505462 0.54732925 -0.13443491 -0.49142665 0.56705254 -0.30069104 0.04281037 0.38548684 -0.092393756 0.008265962 -0.18270029 -0.14340821 -0.42463374 -0.7150209 0.115080506 -0.3808896 0.54786074 0.059201434 -0.2746778 -0.63923025 0.5837593 -0.018757828 -0.44153088 -0.4390964 -0.21924055 -0.38636333 -0.13644841 0.16280799 0.08895793 -0.7144573 0.32638264 0.19948652 -0.56801844 0.16309169 0.44960856 -0.2023371 -0.40206274 -0.05359927 0.008268043 0.31815138 0.5560664 -0.5486849 -0.0267578 0.3669721 -0.11396194 -0.5552862 0.1246174 0.25329086 0.09052993 -0.5040375 -0.011816348 0.5495571 0.8304469 0.27099252 -0.3652336 -0.08362083 -0.55825526 0.24112248 0.2104601 0.81969166 -0.34157643 0.17741622 0.111004956 0.5822101 -0.66894406 0.6621536 0.59034437 -0.32677457 0.11887462 0.17527932 -0.03545369 0.7508153 0.6972603 0.07156304 -0.50555575 0.1746033 0.46972752 0.039116643 -0.024568485 -0.067580685 0.07248105 0.07700235 -0.6629559 -0.20962386 0.5475203 -0.20354213 -0.36408922 -0.15141682 -0.18393154 0.4516465 -0.30771 0.36564985 0.20318642 0.5035319 0.13151354 -0.6084453 0.17554618 -0.23414984 0.04473411 0.5551735 -0.51705414 0.06004357 -0.056674045 -0.6275435 0.7483983 0.25573674 0.7668294 0.469123 0.14561121 0.5969381 -0.2919481 0.6373464 0.31643373 -0.7409843 0.5221152 0.015301452 -0.1484689 -0.07852399 0.22365727 -0.032819167 -0.06550915 -0.11013363 0.43609113 0.21570866 0.4300523 0.46773547 0.49819723 -0.3386294 0.5782642 -0.49205145 -0.5308654 -0.04632474 -0.29010564 0.23681125 -0.15037023 0.13128382 0.033454735 -0.07750144 0.0161956 0.23677233 -0.6464703 -0.5482631 0.6087519 0.23076539 -0.19406581 -0.631179 -0.39609063 0.53982973 0.16006972 0.47368285 0.25666296 0.2517846 0.7843971 0.4170345 0.10713057 0.42901984 0.50331664 0.235802 -0.16484556 0.066931725 -0.31676257 0.5438891 0.51580477 -0.14236695 -0.3370746 0.17173848 0.85736036 -0.19056791 0.5919527 -0.47523955 -0.54811394 -0.46902317 0.40437123
KeyAuthorizationKeyProvider249262.java,-0.4151241 0.5826895 0.50191617 0.5124038 0.24921374 -0.1612971 0.3077401 -0.5056633 -0.5955912 0.6357183 0.3014114 -0.12973483 0.71897995 0.2150522 0.13447873 0.6529896 0.230324 -0.151014 -0.51824194 0.67851293 0.33203977 -0.17570168 -0.47847134 0.13070016 0.13305144 0.11653682 0.48875585 0.28873605 0.80633754 -0.2607059 -0.15054776 0.5272008 0.46180618 -0.25387967 0.50517595 -0.33119452 0.41507784 -0.38582698 -0.511902 0.34861523 0.6699576 -0.32496652 0.2748324 0.46231645 0.11411741 -0.59172034 -0.4124758 0.17099388 0.54735684 0.059194323 0.10288444 -0.8093501 -0.4131627 -0.5730018 0.3937164 -0.13111755 -0.7250924 -0.36824143 -0.2544681 0.122787915 0.18907657 -0.31854668 0.5955715 0.5584796 0.029670756 0.1528303 -0.07540778 -0.08094364 0.51763374 0.75799286 -0.37264 0.39608282 0.030318238 -0.49626273 0.09608445 0.7084514 0.018775776 -0.040745065 -0.43862978 0.073795155 0.35005406 0.17175119 -0.299661 0.47919837 0.6141578 0.27187428 -0.2865142 0.35862917 -0.72076243 -0.16348219 0.04710149 -0.89425313 -0.73065025 -0.30525842 -0.52495676 0.5013315 0.1781933 0.61521184 0.15067513 0.483521 -0.5798907 -0.22755754 -0.4069187 0.34958553 -0.4911802 0.14867303 -0.50425386 -0.022772413 0.15033577 -0.46751162 -0.33548915 0.28852218 0.1510337 -0.36646748 -0.22486027 -0.34378126 0.41073698 -0.6296781 0.1442636 0.2533953 0.071380615 -0.6486953 0.055068817 -0.73557395 -0.23889028 0.0011625327 0.06788813 0.18406345 -0.2055517 -0.24248514 0.37430608 0.11405713 -0.37810084 -0.48964533 -0.0071983393 -0.6131937 0.62160087 0.6040633 0.096449226 0.9015047 -0.5205581 -0.17540659 0.19786657 -0.7892148 0.03550247 0.55256444 -0.060914673 -0.43115985 0.8432754 0.37078372 -0.13186835 -0.18839599 -0.24262576 -0.16319306 -0.06728121 0.64043933 -0.46740216 0.23807028 -0.38718474 0.5619821 0.092045344 0.1986824 -0.03448 -0.34390298 0.33353272 -0.49951795 0.20532158 -0.41999388 -0.22941864 0.34723896 0.044938274 0.78496176 -0.0048013465 0.34410194 0.55158293 0.34078926 -0.3185192 -0.8345209 0.15181541 -0.68282086 0.3031427 0.7312537 -0.5584084 -0.1354713 -0.12863128 -0.4927152 -0.27956676 -0.7454613 0.31928253 0.9401678 0.4016314 0.14285211 -0.5706709 0.58346754 0.41065276 -0.6376327 -0.021226307 0.3666936 -0.28092843 -0.6064502 0.5723101 -0.16866998 0.8094975 0.17566559 0.15475492 -0.7281523 -0.40171906 0.14911187 -0.045914374 0.141031 -0.25944835 0.3438296 0.8715928 0.13140924 -0.6965473 -0.29708508 0.7281338 -0.72067654 0.4408519 0.3635316 -0.4279591 -0.19657667 -0.083439566 0.07000225 0.6452004 -0.020660806 0.029743927 0.78830284 -0.9251384 0.018490901 -0.21621451 -0.27409387 -0.81719774 -0.15350936 -0.25311035 0.2475392 -0.54996145 -0.5452195 -0.09553066 -0.058767978 -0.08924351 0.107458465 0.29836437 -0.059654523 -0.11132521 0.2764345 -0.8437966 0.4157619 -0.14768165 -0.033997156 -0.5268583 -0.2807739 -0.26976174 -0.51317227 -0.09686118 0.122334 -0.006315824 -0.31699273 -0.42336115 0.3537775 -0.7151523 0.19325851 -0.8353816 -0.25096998 -0.1460815 0.5763725 0.02992659 0.4472397 -0.52344364 0.75638115 -0.07929437 -0.16129783 0.05559495 0.31206638 -0.11844054 -0.44231322 -0.5106507 0.65717185 0.104393214 0.76227766 0.40660715 0.50045645 -0.052023955 -0.5406228 0.6715329 0.3689912 0.59201163 -0.509916 0.42540944 0.2551655 0.21376286 -0.23689383 0.22009203 0.3472897 0.25376794 -0.07802346 0.12187347 0.32703573 -0.5398643 0.38070443 -0.6607023 0.4761213 0.030452374 -0.62114006 0.14942718 -0.41244084 0.52335656 0.103903666 0.84174067 -0.0039769774 0.22920398 -0.763623 0.813611 -0.23486431 -0.7045524 -0.43121117 0.3004055 -0.08374619 0.0427862 0.47058478 -0.23656392 -0.051697716 -0.23194224 0.17916022 0.21062425 -0.27976424 -0.08046058 0.47589642 -0.33832207 0.03618084 0.2162955 -0.64151555 0.40105665 -0.08033168 0.08400406 -0.70738006 -0.008753902 -0.29787058 -0.79707205 0.25805512 0.13981868 0.7658253 -0.6145143 -0.02818973 -0.20496555 0.2502145 -0.30411533 -0.3874737 0.21646896 0.3423602 -0.22352527 -0.42304048 -0.33912438 0.22138529 -0.33730274 -0.11872118 -0.8117721 -0.36234027 -0.19122325 -0.535107 0.63771766 0.122730836 -0.21036072 -0.40672866 0.58482677 0.7596181 0.6103342 0.4513238 0.035279077 -0.35233584 -0.07064017 -0.6937131 0.21893927 0.5107406 0.37379846 -0.46305382 -0.0059462306 -0.6138799 -0.10393579 0.54258937 -0.4827818 -0.95436615 0.7265681 0.43995833
KeyAuthorizationKeyProvider264276.java,-0.11392183 0.7680024 0.19552511 0.15810125 -0.23912351 0.22511812 0.6935056 0.1603026 -0.22414239 0.39863464 -0.6725466 -0.26414227 0.3529935 0.88315475 -0.74299186 -0.08720283 -0.1437349 0.061724506 0.61047965 0.43880284 0.75201356 -0.79907054 0.5994152 0.4519521 0.078525476 0.035293344 -0.2138342 -0.15084203 -0.20151494 0.523889 0.58715034 0.17433651 0.6044444 -0.63121426 -0.6335202 -0.09471048 0.16797963 0.29676044 0.39666045 0.112030245 0.7901023 0.18735941 0.31110072 -0.0015141184 0.6577726 0.24205036 -0.2418401 0.47809607 0.72590363 -0.20036948 -0.40619728 -0.07925093 0.37528205 -0.47805852 -0.0404407 0.45194668 -0.6898846 -0.29387352 -0.37447575 0.2620203 -0.09814451 0.8489367 0.088878 0.4758633 -0.025970183 0.014472043 -0.19612554 0.31179637 0.2276597 0.011044617 0.17650566 -0.16110273 0.45941833 0.18814737 -0.22431806 0.221666 0.5230882 0.3596044 0.51299083 0.76041144 0.5710059 -0.31030804 0.18196338 -0.36205027 -0.23326625 0.67644274 0.4210835 -0.7851943 -0.05444543 0.47154334 0.46775872 -0.5961344 0.29852128 0.3028025 -0.26187396 0.004555747 -0.18688609 0.34911713 -0.21649529 0.5858844 0.1145399 0.5584799 -0.054905623 0.5938964 0.2960299 -0.72621477 -0.10523712 0.1462952 -0.4443056 -0.5368876 -0.10992882 0.103959255 0.16137122 -0.0062943455 -0.20779622 0.40421307 -0.09637898 -0.44099233 -0.11885721 -0.39506137 -0.6115751 -0.43119508 0.22673653 0.16603328 0.76234126 -0.30283526 0.6981193 0.5128214 0.4700258 0.5906042 -0.62958115 0.59962684 0.47271174 -0.39318353 0.11241906 -0.5972132 0.09092167 0.17041327 0.64742637 0.8888251 -0.6301385 -0.4118466 -0.7067402 -0.532408 0.3309176 0.23979771 -0.5799918 0.6267649 0.9322869 0.4893362 -0.36621806 -0.30498183 -0.97201097 -0.52803355 -0.43582746 0.2867515 0.46246764 0.43620533 0.19142163 -0.2774231 -0.280254 0.03251577 -0.23149495 -0.42753446 0.38272396 -0.12879527 0.3333586 -0.22973321 -0.09552713 0.6400865 0.7845742 -0.17382488 0.1321276 0.12684467 0.4882621 -0.50375456 0.4576593 0.5132849 -0.35411263 0.13409647 -0.45036855 0.17859475 -0.09211163 0.44905105 -0.06795849 -0.7632417 -0.26497275 -0.34545335 0.56730586 0.39745444 -0.20332302 -0.6140513 0.12226416 -0.48674005 0.16730508 0.27795112 -0.46499333 -0.21414107 0.047119573 0.05325673 -0.036170118 -0.29365802 0.42201805 0.33867255 0.572855 -0.34651163 -0.32626832 0.15532674 0.06832567 0.112658136 -0.34809992 0.49900353 0.015277276 -0.42325607 -0.631489 0.3242927 -0.15005359 -0.0077321697 -0.010683686 -0.032218274 -0.06734114 -0.27518132 -0.41681147 -0.29990917 -0.54991895 -0.40693784 0.16967738 0.5920363 -0.44217673 -0.6240309 -0.22367068 0.6783725 -0.5064563 -0.59964836 -0.2963464 -0.22319955 -0.09458936 -0.24253757 -0.054307163 0.31900284 -0.83323514 0.43344796 0.13698556 -0.06425744 -0.3429715 0.6108851 0.009912727 -0.6996392 0.29926312 -0.012146384 0.35252368 0.39660373 -0.121858545 -0.2658386 0.10900109 -0.104549475 -0.71937394 0.15618467 0.15310954 -0.109403506 -0.35439202 0.38124368 0.6357825 0.33572254 0.5952859 0.3130354 0.20603633 0.048148826 0.47414297 0.63028103 0.19057584 -0.00046294578 -0.23151337 0.2821261 0.78900516 -0.75555253 0.8129396 0.7090127 -0.4467609 -0.16740985 0.30481312 0.35200387 0.4723506 0.89323944 -0.09195175 -0.6308576 -0.14349905 0.7246178 -0.2130826 -0.014428273 -0.27673906 -0.16613266 0.21704797 -0.56476223 -0.27162087 0.123558335 0.03295569 -0.6198351 -0.5285436 -0.037508413 -0.052052435 -0.12792732 0.5367513 -0.044992313 0.11148027 -0.27009207 -0.15806165 0.062620714 -0.36170667 0.42589036 0.6490083 -0.7077134 0.5144622 -0.22019361 -0.019066364 0.33773062 0.61748487 0.15593404 0.6043162 0.43503407 0.11098859 -0.34930855 0.7696766 -0.14844777 -0.123723805 0.66210085 -0.22730893 -0.5475263 0.053823598 -0.2409609 -0.23598796 -0.51733255 -0.53814244 0.61107594 0.09338949 0.56349105 0.067305565 0.72902066 -0.297037 0.1376643 -0.7436415 -0.60422635 0.19417149 -0.5729521 0.20631596 0.049878668 0.052000206 -0.21522553 -0.4362633 0.24535662 0.5705545 -0.31325284 -0.7729621 0.7609394 0.17390224 -0.2364563 -0.7433766 -0.38358507 0.40461287 0.20128325 0.7506637 -0.3241394 0.53822714 0.83868027 0.4642525 0.45524922 0.6733762 0.56298643 -0.023148503 -0.48461854 0.1498838 -0.5905728 0.7248083 0.15023127 0.21077159 0.047335025 0.54155064 0.29375347 -0.027790967 0.81351215 -0.68604594 -0.6860422 -0.19267416 -0.1330479
KeyAuthorizationKeyProvider278289.java,0.052924927 0.7221347 0.15770745 -0.03347256 -0.56696177 -0.1101783 0.62439 0.35694513 -0.20054305 0.117744975 -0.63746315 0.027830064 0.04994019 0.8514094 -0.64902306 -0.6383193 -0.5932158 0.6055804 0.38507614 0.6247737 0.68574136 -0.8177339 0.380405 0.23857278 0.35546705 -0.48850605 -0.40241435 0.17578775 -0.31903413 0.3644292 0.428899 0.50781626 0.59620786 -0.48648396 -0.49840584 0.33053252 0.69737667 0.16542809 0.29235828 0.6048597 0.765672 0.4976043 -0.037056208 -0.25073874 0.5216597 0.095452376 -0.083928704 0.2617159 0.6607753 0.22260366 -0.17203288 0.27821976 0.1287087 -0.2032439 -0.40334445 0.28061092 -0.5933239 0.11287164 -0.043434307 -0.13402888 -0.5108611 0.81068724 -0.25694224 0.2686515 0.2350292 -0.4253928 0.22897193 0.09917163 0.013473025 -0.5003774 0.57922304 0.00741133 0.22797915 0.18338598 -0.4006246 -0.09395238 0.45543894 0.45501733 0.34597105 0.67985797 0.79590654 -0.9449622 0.27805927 -0.35282302 0.062528364 0.5923651 0.3805241 -0.70602924 -0.4667666 0.20523112 0.466904 -0.42267504 0.05547423 0.022485178 0.11483833 0.03286759 -0.45081252 0.01376812 0.19953498 0.28850964 -0.24280533 0.32757738 0.44425988 0.39992553 0.3571608 -0.6438612 -0.31191978 0.14864632 -0.20910798 -0.35533202 0.05255716 -0.39012408 0.036440298 0.42893752 -0.19805178 0.3594861 -0.57802606 -0.19042258 0.25946793 -0.43771878 -0.4644651 -0.22571202 0.4121126 -0.09514871 0.75292176 -0.8029476 0.56056184 0.46100724 0.19941837 0.6053549 -0.598568 0.4755382 0.23613009 -0.089096546 0.45316762 -0.5732627 -0.3144725 0.6903028 0.47401825 0.84770644 -0.57154477 -0.48251596 -0.57710695 -0.3532133 0.11060345 -0.06301769 -0.4519515 0.4193258 0.81253314 0.15968761 -0.14545335 -0.12303748 -0.97886384 -0.68195003 -0.19663037 0.31771266 0.154078 0.18747815 0.6144292 0.004542147 -0.2015863 -0.4811853 -0.06029917 -0.13382995 0.12283281 0.20375499 0.15242462 -0.04069666 -0.5369055 0.5010473 0.807067 -0.046221495 0.049408857 0.096025586 0.47648722 -0.56172746 0.12972967 0.4393649 -0.060994685 -0.14320172 -0.4190111 -0.18636984 -0.018043207 0.12821774 -0.47405007 -0.63791275 -0.060848325 -0.39077643 0.3934224 0.08373613 -0.16126443 -0.6022862 0.27890873 -0.39268705 -0.27198997 -0.0044718804 -0.26771784 0.20856686 -0.2531753 -0.4330685 0.37721878 -0.23802873 0.32266062 0.22975579 0.32958838 -0.17684528 -0.024368096 0.02970785 0.46474978 -0.37397274 -0.7452586 0.28507304 0.25430524 -0.28366044 -0.5179963 0.47940737 -0.018806906 0.15795852 0.45097065 -0.32965022 0.079716876 0.007230589 -0.257187 -0.4669851 -0.48472235 -0.057895645 -0.16284353 0.406711 -0.15459746 -0.44156742 -0.75294983 0.6970584 -0.2655931 -0.5344399 -0.5839703 0.04853808 -0.5303578 -0.072339796 0.29961565 0.23739713 -0.77190876 0.5334939 -0.07211255 -0.61589414 -0.0063295956 0.47096494 -0.010297785 -0.5835502 0.16939224 -0.045802426 0.13511834 0.5857113 -0.56162757 -0.058148038 0.5201148 0.19885896 -0.60230666 0.3356913 0.07103611 0.23389311 -0.2611546 0.22330475 0.6821614 0.86354166 0.4914962 -0.009602934 -0.10857562 -0.33580995 0.43201268 0.41253814 0.8003012 -0.41396 -0.16428502 0.24504353 0.7144216 -0.7108259 0.70513964 0.6289222 -0.35399085 0.21980746 0.10175671 0.050525375 0.7009289 0.779796 0.29868594 -0.5169878 0.035723787 0.6216707 -0.10250464 0.071684234 0.07856634 0.17538522 -0.046010334 -0.39967036 -0.031158794 0.545575 -0.4384028 -0.46094865 -0.3439615 -0.27020702 0.22220957 -0.41554254 0.5062041 0.36896652 0.5761327 0.06325414 -0.73566157 0.36841568 -0.13459778 0.114595905 0.6517809 -0.55805415 0.3294273 0.08423359 -0.4786256 0.79449445 0.41140214 0.7503782 0.607204 0.2701213 0.6444659 -0.29731697 0.75434446 0.2695225 -0.7002729 0.6761468 0.037110195 -0.30995816 0.07702632 0.034611087 -0.29584035 -0.2669671 -0.27963826 0.45617747 0.09781211 0.40810546 0.55081177 0.6299653 -0.14875957 0.7248771 -0.62383723 -0.6543889 -0.11856925 -0.40928444 -0.09972322 -0.3650992 0.3070683 0.12852831 -0.3074169 0.18660556 0.39820945 -0.76430976 -0.59951574 0.7274645 0.013037037 0.064942494 -0.64389324 -0.52081025 0.59664387 0.035446808 0.55599296 -0.059329145 0.26942143 0.8165936 0.2522666 0.14114743 0.42893693 0.6547288 0.34811115 -0.26312104 -0.17687207 -0.31544742 0.51233596 0.65892637 -0.16246147 -0.3265597 0.36501282 0.8895937 -0.35937726 0.7418178 -0.600108 -0.7074066 -0.26348162 0.14610349
